tree
version=v3
num_class=1
num_tree_per_iteration=1
label_index=0
max_feature_idx=30
objective=binary sigmoid:1
feature_names=lag_rating mov_avg_rating movies_views avg_user_rating std_user_rating median_user_rating antiguedad year Action Adventure Animation Children Comedy Crime Documentary Drama Fantasy Film-Noir Horror IMAX Musical Mystery Romance Sci-Fi Thriller War Western movies_pop avg_movie_rating std_movie_rating median_movie_rating
feature_infos=[-2.8349867495127588:1.3984190869709683] [-4.5118778832159538:1.9644622256528517] [-0.83720532215417087:11.542928043102453] [-7.0041718831500175:3.4644200146663704] [-4.5997629268403397:6.4958822260594493] [-5.5725201243708868:2.5101598853481515] [-0.58426740009098277:4.2743732224434314] [-5.5409356941071772:1.2689696514830313] [-0.60962508854114794:1.6403524375826306] [-0.51790844895630173:1.9308431866968312] [-0.23016766815545536:4.3446588654866956] [-0.30115394543422297:3.32056084657345] [-0.79408047339018806:1.2593182095646747] [-0.43332916933161458:2.3077144830624765] [-0.10148699456112582:9.8534792987459916] [-0.88232046995028601:1.1333750423543312] [-0.32975677058006614:3.0325381894082937] [-0.10522829238266915:9.5031476550378482] [-0.28029197718793875:3.567708252061343] [-0.11301167932420772:8.8486429542491152] [-0.21936579946031062:4.5585957449166017] [-0.28074617659723378:3.5619363088767155] [-0.49600852810701407:2.0160943680070176] [-0.4187725169997184:2.3879312977949585] [-0.59307606026550641:1.6861243725675366] [-0.23488581663978034:4.2573877567652145] [-0.15307629682224375:6.5326900425428098] [-0.99753920044393551:3.5347485357511381] [-5.5133963924906073:1.9376183139170529] [-5.9829719043514684:7.4727886703804751] [-5.4241361392790761:2.4610046296138957]
tree_sizes=3631 3613 3604 3608 3610 3606 3603 3605 3583 3619 3629 3609 3625 3624 3617 3615 3620 3620 3626 3606 3608 3622 3619 3621 3611 3630 3628 3615 3630 3627 3607 3624 3619 3614 3620 3638 3611 3636 3618 3645 3631 3622 3637 3628 3644 3639 3630 3641 3620 3609 3630 3627 3623 3635 3624 3628 3621 3629 3627 3639 3640 3629 3631 3649 3655 3633 3637 3638 3628 3633 3648 3638 3641 3631 3637 3660 3633 3661 3649 3657 3642 3652 3656 3648 3650 3641 3654 3661 3640 3671 3659 3650 3651 3669 3642 3642 3656 3649 3641 3660 3646 3647 3628 3654 3643 3658 3653 3648 3667 3648 3644 3650 3648 3654 3651 3654 3670 3631 3671 3654 3643 3641 3656 3665 3659 3644 3667 3654 3664 3657 3656 3652 3662 3653 3652 3647 3664 3671 3663 3637 3678 3653 3653 3654 3656 3651 3641 3670 3638 3666 3676 3679 3665 3691 3663 3678 3651 3663 3639 3657 3663 3665 3636 3697 3656 3667 3670 3638 3667 3665 3670 3656 3630 3666 3656 3641 3641 3660 3661 3648 3671 3667 3657 3684 3673 3661 3672 3685 3628 3672 3657 3626 3661 3649 3656 3680 3642 3676 3679 3663 3670 3653 3662 3660 3688 3678 3639 3655 3636 3656 3638 3673 3671 3675 3654 3649 3653 3677 3611 3664 3677 3642 3660 3646 3621 3670 3646 3622 3683 3697 3631 3662 3641 3637 3684 3684 3692 3622 3665 3657 3640 3693 3680 3685 3689 3663 3654 3683 3645 3672 3671 3684 3649 3660 3670 3652 3636 3689 3678 3657 3637 3677 3692 3660 3639 3683 3668 3640 3699 3671 3660 3621 3682 3632 3670 3656 3646 3671 3638 3686 3657 3630 3675 3655 3681 3653 3668 3642 3657 3617 3669 3710 3622 3685 3678 3686 3702 3685 3669 3632

Tree=0
num_leaves=31
num_cat=0
split_feature=3 0 29 3 29 3 29 3 3 0 0 0 15 15 15 15 3 3 3 4 4 15 3 29 29 29 0 29 3 29
split_gain=972484 237862 162579 88869.3 76936.4 64026.1 56430 39252.5 35804.3 34451.4 23770.6 18532.8 15270.4 14214.2 13028.1 12606.3 10852.8 10518.8 9648.75 8312.08 8189.52 7236.28 6533.03 6456.82 6094.89 5659.27 5592.54 5116.86 5044.73 5022.39
threshold=0.07197083713898357 1.0000000180025095e-35 -0.082414011293283088 0.84154512970771023 -0.20881354604499022 0.81164123436545166 -0.082414011293283088 -0.79542440301787476 -0.7023160493016477 1.0000000180025095e-35 1.0000000180025095e-35 1.0000000180025095e-35 1.0000000180025095e-35 1.0000000180025095e-35 1.0000000180025095e-35 1.0000000180025095e-35 -0.60605994853219936 1.3898259396211257 1.4443722616639081 -0.26246894951434585 0.072972154868695668 1.0000000180025095e-35 -1.6190155601607528 -0.84563854723744647 0.60776581482330283 -0.84563854723744647 1.0000000180025095e-35 -1.2889565363920219 -0.561682745726097 0.4983463333158375
decision_type=2 2 2 2 2 2 2 2 2 2 2 2 2 2 2 2 2 2 2 2 2 2 2 2 2 2 2 2 2 2
left_child=1 4 5 9 7 10 16 20 21 14 25 -5 -10 28 29 24 -3 26 -13 -9 -1 -6 -22 -12 -11 -2 -7 -18 -8 -4
right_child=2 6 3 11 8 17 13 19 12 15 23 18 -14 -15 -16 -17 27 -19 -20 -21 22 -23 -24 -25 -26 -27 -28 -29 -30 -31
leaf_value=-0.046726087688413298 0.042620892940023247 0.013707109019111966 -0.0033974957173104822 0.025779851201035275 -0.061002264525679223 0.055163042744631838 -0.026610878808548771 -0.01029144719718424 -0.038868490052055296 0.023952287297287659 0.064923279230731046 0.04776024416895927 -0.014380759973610401 0.008406227981311732 0.012214127485145011 0.037650577267445001 0.052695382766891355 0.088792062851513726 0.071561776728738605 0.010298164656607864 -0.04067375227185345 -0.044171076725901648 -0.012483540650232001 0.048640570522267779 0.0025755299910642342 0.022841133140331465 0.074386968531743008 0.030250530817613159 -0.0081815851049274989 -0.024185914494668861
leaf_weight=60630.132844001055 58904.200228840113 101400.29107238352 50210.789641901851 68560.073238775134 191774.26264058053 50820.515836626291 63949.253257021308 86720.614204645157 181136.67795918882 69368.791664332151 105574.87808579206 120255.80490472913 98166.91731159389 99194.127206683159 66376.408494651318 93021.618197277188 31210.281470507383 109144.98869951069 65920.926277846098 112746.09810295701 32529.979946091771 95744.011908039451 55817.570738777518 143833.88435599208 64207.743164911866 93666.343025565147 148046.46988584101 136229.68124359846 88553.29265217483 68954.307846844196
leaf_count=242530 235626 405617 200851 274251 767127 203290 255807 346896 724575 277486 422316 481042 392683 396792 265516 372101 124846 436597 263694 451002 130125 382991 223279 575358 256841 374680 592209 544940 354227 275828
internal_value=0.0124922 -0.0162983 0.0425152 0.0247872 -0.0316458 0.0591666 0.0106873 -0.0131566 -0.0430118 0.0104373 0.0460233 0.0480038 -0.0302618 -0.0063267 -0.00553832 0.0235184 0.0266164 0.0763196 0.0561879 0.00134657 -0.0325749 -0.0553975 -0.0228634 0.0555331 0.0136769 0.0304777 0.0694743 0.0344342 -0.0159096 -0.0154266
internal_weight=0 1.4358e+06 1.37687e+06 666876 915266 709991 520537 348444 566822 412140 401979 254737 279304 251697 185542 226598 268840 308012 186177 199467 148978 287518 88347.6 249409 133577 152571 198867 167440 152503 119165
internal_count=11251123 5743437 5507686 2667610 3661208 2840076 2082229 1393832 2267376 1648623 1607980 1018987 1117258 1006826 742195 906428 1075403 1232096 744736 797898 595934 1150118 353404 997674 534327 610306 795499 669786 610034 476679
is_linear=0
shrinkage=1


Tree=1
num_leaves=31
num_cat=0
split_feature=28 1 1 28 28 28 28 1 1 1 28 1 1 0 1 1 0 1 0 1 0 28 0 28 0 2 28 1 1 1
split_gain=1.17099e+06 312294 309182 92790.4 62193.7 59353.2 40575 31598.8 31444.3 20293.8 19282.6 18082 17891.2 12101.2 11117.2 10959.8 9080.61 7527.21 6560.82 6515.92 6315.74 6010.47 5673.93 4742.66 4381.38 3920.25 3847.52 3592.32 3450.5 3158.73
threshold=1.0000000180025095e-35 0.086323594080898028 0.37775889897999415 0.68681435180985917 -0.81661338009661832 -0.82701651507992813 0.7421201689494793 -0.38860801390281435 0.90666000787094714 0.90666000787094714 1.1641613174885144 -0.38860801390281435 0.90666000787094714 1.0000000180025095e-35 0.90666000787094714 -0.6908372189833587 1.0000000180025095e-35 -0.38860801390281435 1.0000000180025095e-35 0.37775889897999415 1.0000000180025095e-35 -1.5022405295779049 1.0000000180025095e-35 -1.5022405295779049 -0.24790540499492555 -0.29185404259820719 1.0633915617461458 -1.2089444276928629 1.2520648136772834 1.3815916158546593
decision_type=2 2 2 2 2 2 2 2 2 2 2 2 2 2 2 2 2 2 2 2 2 2 2 2 2 2 2 2 2 2
left_child=1 4 3 7 15 12 9 16 19 -4 13 20 21 17 26 -1 27 -5 24 -7 25 -3 -12 -17 -9 -6 -8 -2 -11 -10
right_child=2 5 6 10 11 8 14 18 29 28 22 -13 -14 -15 -16 23 -18 -19 -20 -21 -22 -23 -24 -25 -26 -27 -28 -29 -30 -31
leaf_value=-0.079934868493475142 -0.042649089517610969 -0.052197678770460859 0.028977211071687999 -0.0044435267902178961 -0.046840630157071024 -0.014471098414047038 0.046414382765103672 0.00033239998224624694 0.024426895036694044 0.047016246034141673 0.03242741568358426 -0.029964415447898546 -0.0032592529400498026 0.032067813497753082 0.070604786706436759 -0.072519711125827155 -0.0019024174603276549 0.01869748870117199 0.01174729307602175 0.0030074046893442991 -0.033201872858574226 -0.030197482545908611 0.053518734051548437 -0.055859280779768108 -0.020088322064760855 -0.062053068617163622 0.061227844938294224 -0.025299529883350793 0.06153126108370191 0.044106310845429271
leaf_weight=186810.68538889289 43060.230332806706 49278.666298612952 200379.7103729248 64971.551998198032 70358.13284535706 85529.129231050611 90417.763446524739 115330.99095577002 73024.408730641007 116342.18500497937 77925.024774312973 163039.07342153788 49994.482400923967 83575.575210377574 212271.2908757776 71625.787696823478 34228.409370273352 76535.706057518721 110614.12354113162 141601.8139103651 36692.83143915236 83906.609066724777 53974.242957368493 105839.35680341721 34013.452551797032 106395.637327075 85084.033879697323 97151.518914505839 63180.217514678836 28290.227919504046
leaf_count=747642 172310 197167 801921 259960 281539 342216 361888 461440 292274 465714 311787 652333 200087 334458 849942 286597 136951 306220 442629 566629 146805 335723 216021 423483 136089 425772 340567 388726 252974 113259
internal_value=0 -0.0360031 0.0289217 0.00699151 -0.0567531 -0.00595994 0.051529 -0.00852906 0.00675818 0.0399155 0.0258779 -0.0425021 -0.0287638 0.0169822 0.0629068 -0.0714818 -0.0249913 0.00807254 0.00251763 -0.00357436 -0.0520789 -0.0383376 0.0410582 -0.0625835 -0.00431846 -0.0559977 0.053596 -0.0306278 0.0521246 0.029922
internal_weight=0 1.25239e+06 1.55906e+06 791381 740762 511625 767675 434399 328446 379902 356982 376486 183180 225083 387773 364276 174440 141507 259959 227131 213447 133185 131899 177465 149344 176754 175502 140212 179522 101315
internal_count=11251123 5011526 6239597 3166591 2964171 2047355 3073006 1738145 1314378 1520609 1428446 1506449 732977 900638 1552397 1457722 697987 566180 1040158 908845 854116 532890 527808 710080 597529 707311 702455 561036 718688 405533
is_linear=0
shrinkage=0.05


Tree=2
num_leaves=31
num_cat=0
split_feature=30 5 5 28 28 28 28 1 1 1 1 1 1 5 28 5 1 1 5 28 1 0 5 1 28 28 5 5 28 1
split_gain=1.0698e+06 369453 364500 91649.1 75399.2 56078.8 40526.1 39726.8 39080.2 23833.5 20722.9 20005.4 19177 12219.3 10426.7 9499.66 9468.15 9188.53 7220.35 6706.72 6654.54 6451.71 5946.86 5560.07 5416.04 4569.73 4363.39 4129.02 4023.29 3971.88
threshold=1.0000000180025095e-35 0.48948988291839207 0.48948988291839207 -1.0497396670692729 0.81312544886695937 -0.72885986972079242 0.7421201689494793 0.086323594080898028 0.60443080279040251 -0.12415745945733829 0.60443080279040251 0.086323594080898028 0.37775889897999415 -1.3066612303525054 -0.49378139885082567 -1.3066612303525054 -0.21590561099964631 0.90666000787094714 1.387565439553841 1.2665203591142624 0.60443080279040251 1.0000000180025095e-35 0.93852766123611653 0.60443080279040251 -1.8248071799123793 1.2224900030093031 -1.3066612303525054 1.387565439553841 -0.49697007907638208 -0.12415745945733829
decision_type=2 2 2 2 2 2 2 2 2 2 2 2 2 2 2 2 2 2 2 2 2 2 2 2 2 2 2 2 2 2
left_child=2 4 5 12 7 16 10 13 14 26 -3 15 24 -2 -5 -6 -1 25 28 -17 -9 -15 -14 -11 -4 -8 -7 -12 -10 -16
right_child=1 6 3 8 11 9 17 20 18 23 27 -13 22 21 29 19 -18 -19 -20 -21 -22 -23 -24 -25 -26 -27 -28 -29 -30 -31
leaf_value=-0.076410741998109849 -0.060774641226447768 0.028681646100013853 -0.064604767402337795 -0.015165053389126902 -0.035675374232153612 -0.076333376821840604 0.050187118582541095 -0.00060882438011482037 0.012668738989267458 -0.033225110178658319 0.048088954162891918 0.038092425121856593 -0.020151128373243204 -0.025818986693183582 -0.0061061796637463805 0.0047947634629855913 -0.058421511529583504 0.070274844374490095 0.054655280701624044 0.02876093845017004 0.020597813200999553 -0.0068876398280592957 0.02313332951650025 -0.010187757626820804 -0.040116759446510913 0.064484443750554177 -0.051773001706156098 0.068677761320824676 0.030375342384898009 0.011550749686201182
leaf_weight=252112.49564422667 21050.432389736176 211904.33287572861 34148.862839862704 107110.40528154373 10658.208664983511 19975.589416563511 155714.33238747716 93982.273384809494 50237.747348695993 117775.1127601862 181772.65798443556 112746.77953620255 64305.961545735598 178007.59501491487 48404.145574852824 80554.288832515478 103041.14266930521 177925.27451302111 22247.695259317756 45781.492342472076 61004.634152695537 60232.142289936543 9052.2680569440126 33681.503598883748 66650.407571807504 87181.16676813364 191011.90132923424 28119.094975948334 88767.212140575051 93126.176257312298
leaf_count=1011832 84316 848280 136827 428657 42650 80110 624060 376097 201115 471305 728819 451669 257319 712510 193705 322348 412661 715033 89225 183248 244263 241004 36238 134778 266903 349734 765242 112960 355556 372659
internal_value=0 0.0286846 -0.0332011 -0.00387277 0.000793193 -0.0570713 0.0506643 -0.0122885 0.00903777 -0.0432351 0.0397116 0.0224934 -0.0342587 -0.0242592 -0.00339535 0.00965532 -0.0711915 0.0616423 0.0282088 0.0134796 0.00773836 -0.0210327 -0.0148099 -0.028102 -0.0484129 0.0553188 -0.0540983 0.0508473 0.023976 0.00551198
internal_weight=0 1.50663e+06 1.30165e+06 584051 664018 717598 842617 414277 409893 362444 421796 249741 174158 259290 248641 136994 355154 420821 161253 126336 154987 238240 73358.2 151457 100799 242895 210987 209892 139005 141530
internal_count=11251123 6036991 5214132 2338204 2658105 2875928 3378886 1658190 1640917 1451435 1690059 999915 697287 1037830 995021 548246 1424493 1688827 645896 505596 620360 953514 293557 606083 403730 973794 845352 841779 556671 566364
is_linear=0
shrinkage=0.05


Tree=3
num_leaves=31
num_cat=0
split_feature=30 1 1 1 1 1 1 30 30 30 30 30 30 30 30 30 1 1 30 1 4 1 4 4 4 1 30 1 30 1
split_gain=967730 274751 239664 46648.4 38902.7 35065.3 28378.1 21060.9 18198.6 18067.6 17505.8 11393.6 9335.8 7835.04 7773.93 7409.83 6567.44 5807.43 5534.09 5162.18 4800.96 5329.55 4353.17 3695.16 3609.55 3264.65 3151.08 2878.72 2828.97 2762.53
threshold=1.0000000180025095e-35 0.086323594080898028 0.37775889897999415 0.90666000787094714 -0.38860801390281435 -0.6908372189833587 0.90666000787094714 -0.82447069075817547 0.92778281344026259 1.3658461894898724 -0.82447069075817547 -0.38640731470856599 -1.2625340668077849 0.92778281344026259 -0.82447069075817547 -1.2625340668077849 0.086323594080898028 1.2520648136772834 -1.2625340668077849 0.37775889897999415 -0.67868406781053314 -0.9822725238824549 -0.71675740206233152 -0.63272835329755328 -0.8530159496515618 0.37775889897999415 -1.2625340668077849 0.60443080279040251 1.3658461894898724 -4.1880608777725126
decision_type=2 2 2 2 2 2 2 2 2 2 2 2 2 2 2 2 2 2 2 2 2 2 2 2 2 2 2 2 2 2
left_child=1 5 4 7 9 11 13 12 16 20 15 18 -3 27 22 -7 24 28 -1 -14 29 -22 -5 -17 -6 -9 -24 -4 -8 -2
right_child=2 3 6 14 8 10 17 25 -10 -11 -12 -13 19 -15 -16 23 -18 -19 -20 -21 21 -23 26 -25 -26 -27 -28 -29 -30 -31
leaf_value=-0.082303917926204825 0.026438838243907997 -0.054993741738602754 0.030503229265934635 0.027805972320049489 -0.0024790099672191055 -0.071050300333246566 0.050311970554619251 -0.007533711368216795 0.049963636089611831 0.034286977150474456 -0.0249659278219002 -0.045190865936299465 -0.028521375134838413 0.060804110441757979 0.033324216418384005 -0.054007696389760967 0.021576151995013206 0.064817365047348155 -0.064093043474747799 -0.01329054880081847 -0.015306777675782694 7.9252256414210048e-05 -0.03346344976913062 -0.041262230450033681 0.011834331310531292 0.0092036061583501902 0.006938972154911619 0.039837601196069751 0.068713746963057806 -0.027724421592583055
leaf_weight=51669.277289003134 2486.0166288763285 19844.022845238447 165717.56044742465 26242.266286432743 56019.31210039556 30428.261179894209 211701.32496888936 46233.989517465234 37597.120171070099 24805.469981908798 118245.91329632699 71929.021731346846 91588.967903956771 32725.213856592774 56842.36502481997 80796.171561732888 162200.89458037913 146335.22057123482 216647.15760926902 141706.79438945651 107629.83470581472 117976.47090993822 5179.5984262228012 192025.41748049855 206087.46247623861 78772.610701948404 70666.903348237276 164683.11384138465 23172.656851902604 44364.447113722563
leaf_count=208708 9974 79595 664893 105228 224345 122560 852757 185060 150987 99469 473911 288991 366873 131794 228119 324457 649972 590708 872999 567400 431334 472502 20732 770941 825450 315413 283145 661521 93561 177724
internal_value=0 -0.0316126 0.0273097 -0.00422524 0.00754293 -0.0509225 0.0474703 -0.0137783 0.0166229 -0.00656612 -0.0412841 -0.0628626 -0.0220704 0.0374673 0.0185045 -0.0476471 0.0136686 0.0569988 -0.0675999 -0.01927 -0.0102856 -0.00726095 0.010253 -0.0450368 0.00877518 0.00301327 0.00417983 0.0351558 0.0521275 -0.0248503
internal_weight=0 1.29882e+06 1.5035e+06 537078 759167 761741 744335 378146 461905 297262 421496 340245 253140 363126 158931 303250 424308 381209 268316 233296 272457 225606 102089 272822 262107 125007 75846.5 330401 234874 46850.5
internal_count=11251123 5214132 6036991 2151565 3041757 3062567 2995234 1514341 1850754 1191003 1691869 1370698 1013868 1458208 637224 1217958 1699767 1537026 1081707 934273 1091534 903836 409105 1095398 1049795 500473 303877 1326414 946318 187698
is_linear=0
shrinkage=0.05


Tree=4
num_leaves=31
num_cat=0
split_feature=30 1 1 1 0 1 1 1 30 30 30 30 30 30 30 30 30 30 0 1 30 1 1 1 0 0 4 1 0 0
split_gain=875845 250124 217638 42208.4 39077.2 32367.8 26127 22717.5 19096.3 16022.2 11584 10574.4 9925.39 9062.49 8733.18 8483.93 7087.34 6837.66 6072.84 5524.86 5176.3 4718.01 4672.03 4245.99 3603.44 3602.77 3271.58 3054.16 2924.69 2873.06
threshold=0.48971943739065299 0.086323594080898028 0.37775889897999415 0.90666000787094714 1.0000000180025095e-35 -0.6908372189833587 1.025392909866875 -0.38860801390281435 -0.82447069075817547 -0.82447069075817547 1.3658461894898724 -0.38640731470856599 0.92778281344026259 0.92778281344026259 0.92778281344026259 -1.2625340668077849 -0.82447069075817547 -1.2625340668077849 -0.24790540499492555 0.60443080279040251 -1.2625340668077849 -1.2089444276928629 0.37775889897999415 1.3815916158546593 1.0000000180025095e-35 1.0000000180025095e-35 -0.15119596714120856 0.60443080279040251 1.0000000180025095e-35 1.0000000180025095e-35
decision_type=2 2 2 2 2 2 2 2 2 2 2 2 2 2 2 2 2 2 2 2 2 2 2 2 2 2 2 2 2 2
left_child=1 5 4 8 7 11 14 10 15 17 21 20 -6 18 19 -3 23 -7 -9 -4 -1 -2 -17 -5 -22 -19 -8 -10 -13 -11
right_child=2 3 6 16 12 9 26 13 27 29 -12 28 -14 -15 -16 22 -18 25 -20 -21 24 -23 -24 -25 -26 -27 -28 -29 -30 -31
leaf_value=-0.078971164608592159 -0.027121088078258082 -0.052422824319345918 0.029043923153545689 0.0034461328719338452 0.019303545263343339 -0.067986795297927893 0.063534846138425305 0.010569884124842248 -0.002161159034747845 -0.02895506219194173 0.026280362542714472 -0.0474437669992821 0.052160206626232233 0.041905505835520218 0.059747723872637826 -0.027121802746103825 0.031766792705010913 -0.046660936809419726 -0.0086411106596538216 0.040642720781059731 -0.063731406741860952 -0.010969817591433397 -0.012627554312559314 0.02625986568284653 -0.044217080176752591 -0.034075764298615509 0.052337017599597836 0.014956938389001232 -0.019823212360776665 -0.012129912530565128
leaf_weight=51169.637958183885 65264.632087022066 19777.959992140532 165294.64477324486 73864.920298650861 246840.26365950704 30214.661393478513 132809.86865410209 183528.63425350189 88431.864586874843 81644.07002453506 17599.09149722755 60519.928238600492 25344.759681105614 19289.18810608983 43476.455130428076 91501.629195600748 56916.854047715664 191047.22732840478 53021.283775418997 270985.85022354126 188241.79203301668 147185.05811057985 141689.98297016323 28174.435854032636 27057.925912663341 80969.373614370823 128192.24696809053 36941.736671283841 11387.7924118191 36813.525739192963
leaf_count=208708 261803 79595 664345 296017 989806 122560 539821 735017 354007 327770 70593 244152 102314 77555 176292 366873 228879 770087 212317 1093428 763902 589635 567400 113088 109097 325311 519592 148010 45691 147458
internal_value=0 -0.0300945 0.0260297 -0.00398998 0.00719561 -0.0485724 0.0453039 -0.0013009 -0.0130736 -0.0393124 -0.0127022 -0.0600848 0.022363 0.0089511 0.0383778 -0.0209816 0.0176305 -0.0454213 0.00626385 0.0362483 -0.0646764 -0.0159315 -0.0183149 0.00974533 -0.061279 -0.0429148 0.058035 0.00288275 -0.0430696 -0.0237263
internal_weight=0 1.29637e+06 1.49883e+06 537299 758073 759066 740759 485888 378343 420689 230049 338377 272185 255839 479757 252970 158956 302231 236550 436280 266469 212450 233192 102039 215300 272017 261002 125374 71907.7 118458
internal_count=11251123 5218605 6032518 2153869 3039040 3064736 2993478 1946920 1515885 1693186 922031 1371550 1092120 1024889 1934065 1013868 637984 1217958 947334 1757773 1081707 851438 934273 409105 872999 1095398 1059413 502017 289843 475228
is_linear=0
shrinkage=0.05


Tree=5
num_leaves=31
num_cat=0
split_feature=5 1 1 29 29 29 29 27 29 27 1 27 1 1 1 1 27 5 27 5 1 29 1 27 27 4 29 5 4 27
split_gain=762790 146688 118663 66234.6 45182.2 28843.5 23682.4 19186.4 17557.8 15565.7 11434.8 10514.4 10135.7 9952.43 9750.92 8652.95 7982.5 7073.82 7008.56 5467.35 5387.16 5068.22 5043.7 3994.89 3958.45 3573.01 3459.17 3285.48 3245.32 3147.7
threshold=0.48948988291839207 0.086323594080898028 0.60443080279040251 0.35050756138133327 -0.20881354604499022 0.34810486854174327 -0.25150171240045088 -0.50479770517237887 -0.84563854723744647 -0.12839668002580151 -0.12415745945733829 -0.57645171373026638 1.1711105623164235 0.60443080279040251 0.60443080279040251 -0.9822725238824549 2.4812285760597694 -1.3066612303525054 1.7678476768006981 1.387565439553841 -0.6908372189833587 -0.72351270228606734 -0.12415745945733829 1.7678476768006981 -0.50731589716642611 -0.011827769125562505 -0.44165918090990158 1.387565439553841 -0.011827769125562505 -0.32069497775303973
decision_type=2 2 2 2 2 2 2 2 2 2 2 2 2 2 2 2 2 2 2 2 2 2 2 2 2 2 2 2 2 2
left_child=1 4 3 8 9 12 13 15 29 17 24 22 21 -3 -8 -6 20 -1 26 -7 -9 -4 -10 -13 -5 -19 -11 -14 -17 -2
right_child=2 6 5 10 7 19 14 16 11 18 -12 23 27 -15 -16 28 -18 25 -20 -21 -22 -23 -24 -25 -26 -27 -28 -29 -30 -31
leaf_value=-0.06206922714360457 0.03050369255545898 0.00068002080326417212 0.050109156084734291 -0.029703326988901508 -0.0650926797740288 0.019654724044297991 -0.02133955968136865 -0.046947442817528773 -0.0094013998725342007 -0.012241343785602141 0.00040110869088673363 0.020477263296751123 0.052256824318886008 0.023078532500914947 0.00027901951754616937 -0.054322605482587473 0.0032723634003413091 -0.036556276760868596 0.0090322100870298978 0.045468307316725673 -0.032560265435180737 0.035993952773025618 0.012475738581286963 0.039025680098675158 -0.010109756934774431 -0.022704169651776396 -0.031791161242132084 0.067113679581230115 -0.040776292476479424 0.045718550992332602
leaf_weight=18631.507796004415 66712.561721473932 121538.21861185133 99474.556084692478 58010.502530112863 124910.82625049353 143006.42927920818 145925.92972333729 112304.22357515991 40885.788410544395 89805.953219711781 155316.52212864161 214169.37108208239 166151.83972083032 83781.537192985415 81173.702657192945 93441.757088705897 11881.883054822683 94833.979738593102 32419.667021170259 23947.611917361617 154687.08595463634 176318.26284645498 74081.092577144504 33580.650669381022 46392.110618069768 91439.300535932183 30248.184332162142 47953.882420167327 83927.674539327621 69314.065224722028
leaf_count=75363 268377 487960 404868 234888 512114 575752 585775 456265 164498 360296 623628 860215 678410 338428 326283 379134 47633 381476 130120 96931 623457 713270 297344 135253 186859 367674 121594 196833 340461 279964
internal_value=0 -0.0265814 0.025748 0.0122749 -0.037683 0.0413054 -0.00248634 -0.0462859 0.0229374 -0.0236932 -0.00820048 0.0171923 0.0474219 0.00981983 -0.0136123 -0.055012 -0.0368274 -0.0326946 -0.0115964 0.0233574 -0.0386119 0.0410851 0.00469555 0.0229914 -0.0209968 -0.0297565 -0.017167 0.0555844 -0.0479128 0.0382566
internal_weight=0 1.37095e+06 1.41532e+06 758463 938532 656853 432419 581153 498744 357379 259719 362717 489899 205320 227100 302280 278873 204905 152474 166954 266991 275793 114967 247750 104403 186273 120054 214106 177369 136027
internal_count=11251123 5534033 5717090 3051026 3795587 2666064 1738446 2359064 2005651 1436523 1045375 1457310 1993381 826388 912058 1231709 1127355 824513 612010 672683 1079722 1118138 461842 995468 421747 749150 481890 875243 719595 548341
is_linear=0
shrinkage=0.05


Tree=6
num_leaves=31
num_cat=0
split_feature=28 5 5 28 28 28 3 3 3 28 3 3 3 28 28 4 28 4 28 3 28 28 28 28 3 3 4 3 3 3
split_gain=753511 291766 268097 76333.3 57215.8 47784 39819.2 30377.4 27793.7 23522.4 17838.8 17007.6 16612.7 10594 7040.02 6413.46 6363.62 6311.65 6118.42 5637.57 5567.62 5447.77 5144.16 3880.1 3694.35 3691.59 3546.8 3421.99 3376.97 2667.32
threshold=0.094508176574382166 0.48948988291839207 0.48948988291839207 -1.0497396670692729 0.81312544886695937 -0.72885986972079242 0.92956304085804553 0.96043417283332733 -1.1103227661004842 0.61995476179103171 0.98984875739448452 -0.71665686590447508 -1.1309350325287328 -0.49378139885082567 0.49720252744893484 0.61537592846702005 -1.3240415642938739 0.11760114352847659 1.2491516086244621 1.4749971667234258 -1.8248071799123793 1.0782920725137453 0.7421201689494793 -0.25987458913671563 -1.3868386553465999 1.7769238034092718 0.29148570491952536 -0.68441008212116672 -0.50833811349964309 0.54999627966270304
decision_type=2 2 2 2 2 2 2 2 2 2 2 2 2 2 2 2 2 2 2 2 2 2 2 2 2 2 2 2 2 2
left_child=1 5 4 10 8 16 13 9 15 -4 20 17 26 -5 28 -2 -1 -7 -14 -8 -3 -11 -9 -13 -19 -12 -6 -18 -10 -15
right_child=2 3 7 6 12 11 19 22 14 21 25 23 18 29 -16 -17 27 24 -20 -21 -22 -23 -24 -25 -26 -27 -28 -29 -30 -31
leaf_value=-0.068588208720226251 -0.04829620481926062 -0.054435541710068959 0.025057199545282766 -0.012241713766098207 -0.02274269940429335 -0.060491125606143115 0.025053619484616197 0.050326523974830652 -0.017832758475152987 0.040606168080285499 -0.0084994518864298461 -0.033559350517309162 0.019504341009958785 0.0024595394449331738 0.0059990741789992365 -0.021832010233676955 -0.062293365260820334 -0.051658887627293572 0.037731623955148549 0.046810054889177007 -0.032012471915677923 0.054153571964990613 0.06408406337397253 -0.020079948006815885 -0.032408772493330067 0.030680719694056474 0.0043981337717171982 -0.048167002285627827 -0.0040569739416136284 0.014957115828511548
leaf_weight=175050.44433917105 45910.91694419086 40221.637249931693 225139.20584644377 116835.40142332017 18808.065263286233 64124.612783774734 89642.672959908843 124792.8316399008 75563.406481683254 173826.88106736541 36547.922420278192 107615.2243476212 122525.95785488188 117575.54462622106 116267.49402186275 45664.900062680244 83480.185605794191 42938.098676219583 73753.821310192347 44584.634014680982 88808.751952275634 129488.35781389475 149173.05150805414 105950.27437442541 59408.606749460101 7195.6009182780981 33437.57471768558 88133.763312220573 108172.59318034351 67035.13521578908
leaf_count=722551 184735 163660 908959 469175 75475 260840 360527 509543 303258 705585 146794 434612 492493 471909 466673 183650 343422 174991 297640 180437 357885 529429 614948 426252 240592 28948 134307 358531 434011 269291
internal_value=0 -0.027069 0.0250539 -0.00152502 0.000919868 -0.0484563 0.00962753 0.0443061 -0.0109892 0.0373014 -0.0296477 -0.0362108 0.0196839 -0.000459223 -0.0036295 -0.0350997 -0.0618806 -0.0481913 0.0263534 0.0322802 -0.0390023 0.0463897 0.0578175 -0.0268722 -0.0404849 -0.00205445 -0.0053724 -0.0550387 -0.00972242 0.00699762
internal_weight=0 1.33515e+06 1.44253e+06 608447 640105 726701 435673 802420 391579 528454 172774 380037 248525 301446 300003 91575.8 346664 166471 196280 134227 129030 303315 273966 213565 102347 43743.5 52245.6 171614 183736 184611
internal_count=11251123 5410417 5840706 2448626 2572242 2961791 1751339 3268464 1572327 2143973 697287 1537287 999915 1210375 1203942 368385 1424504 676423 790133 540964 521545 1235014 1124491 860864 415583 175742 209782 701953 737269 741200
is_linear=0
shrinkage=0.05


Tree=7
num_leaves=31
num_cat=0
split_feature=30 3 3 28 28 28 3 3 28 3 3 3 3 28 3 28 3 28 28 28 3 28 3 3 28 3 3 28 3 3
split_gain=688811 235303 227648 59063 49819.8 44649 42751.9 31771.5 25667.1 24479.2 19663.5 19604.4 11070.8 10376 9350.82 8376.77 5881.07 5412.28 5409.11 5292.02 5224.47 4984.82 4139.82 3759.2 3198.87 3112.29 3085.86 2734.21 2523.33 2455.74
threshold=1.0000000180025095e-35 0.30467716171228398 -0.082622541538037497 -0.82701651507992813 0.63466809035838745 -1.064724889255722 0.68754114684612289 -0.57799050255786055 0.61995476179103171 0.98984875739448452 -1.1309350325287328 -1.0973231526403606 1.1211180797468994 0.78871188211089172 -0.48480426477433175 1.0633915617461458 1.2458391478690334 -0.54531173086606677 1.0782920725137453 -1.5022405295779049 -1.2687851290009846 -0.44286298521281325 1.4749971667234258 -0.50833811349964309 -1.8248071799123793 -0.091016331191717328 -2.1862539890037893 1.1641613174885144 1.7769238034092718 0.34733184246002835
decision_type=2 2 2 2 2 2 2 2 2 2 2 2 2 2 2 2 2 2 2 2 2 2 2 2 2 2 2 2 2 2
left_child=1 3 4 14 11 12 8 20 29 17 26 -2 24 16 -1 -12 -8 -7 -10 -16 -5 -9 -11 -13 -3 -23 -6 -28 -14 -4
right_child=2 5 6 7 10 9 13 21 18 22 15 23 28 -15 19 -17 -18 -19 -20 -21 -22 25 -24 -25 -26 -27 27 -29 -30 -31
leaf_value=-0.064599221031064386 -0.036844593156381382 -0.046094521204756572 0.011619766025110121 -0.055799132523883369 -0.031049459134772278 -0.0085169072468066469 0.036659231661696039 -0.028409952548161671 0.033370956641191052 0.024458433120109674 0.012733542064066905 -0.014528416668912015 -0.0048937071117221304 0.058928730983407535 -0.058970011887763685 0.03223208006341139 0.05355081018250956 0.0087883941797421618 0.048085024995703371 -0.041171220998086552 -0.039307384144223939 -0.020726647906660987 0.044253912972542837 -0.0013119314453000621 -0.025409746191504996 -0.0073767156812174425 -0.012169461838358113 0.010788116862184619 0.028845211899397091 0.022425698342401403
leaf_weight=197824.14123977721 78502.072915300727 26690.197530165315 125910.1081905365 76546.798311173916 13367.591872066259 70597.977963656187 133451.03017634153 98994.115674316883 149643.48010864854 72054.452927470207 134978.74232669175 103536.77175363898 25727.959281116724 201640.86283180118 71995.099097371101 93057.453649908304 83943.719128370285 125498.73742052913 107208.72143942118 99452.931071385741 128879.86656029522 91706.046098738909 41694.605363860726 112006.30086502433 62367.516994446516 83326.866251960397 38311.467312037945 19606.658053576946 7063.1287550330162 90274.180654197931
leaf_count=826895 316629 108853 507193 315007 53784 283488 543988 400545 608086 290018 542737 415685 103333 838054 297351 376425 346820 503947 440145 405479 525200 369970 169337 449647 251412 334837 153868 78774 28460 365156
internal_value=0 -0.026876 0.0231657 -0.0421626 -0.000834434 0.00317809 0.0391295 -0.030587 0.0288274 0.0132619 0.0135253 -0.0154519 -0.0224638 0.0507592 -0.0571921 0.0206906 0.0431817 0.00255821 0.0395125 -0.0486454 -0.0454526 -0.0194428 0.0317145 -0.00766051 -0.0316089 -0.0143712 -0.00939557 -0.00439777 0.00237365 0.0161321
internal_weight=0 1.28042e+06 1.48544e+06 848726 593367 431695 892072 479454 473036 309846 299322 294045 121849 419036 369272 228036 217395 196097 256852 171448 205427 274027 113749 215543 89057.7 175033 71285.7 57918.1 32791.1 216184
internal_count=11251123 5214132 6036991 3475284 2387549 1738848 3649442 1945559 1920580 1246790 1205588 1181961 492058 1728862 1529725 919162 890808 787435 1048231 702830 840207 1105352 459355 865332 360265 704807 286426 232642 131793 872349
is_linear=0
shrinkage=0.05


Tree=8
num_leaves=31
num_cat=0
split_feature=28 5 5 28 28 28 28 5 5 28 5 28 28 28 5 28 5 5 28 5 28 28 5 28 28 28 28 5 28 28
split_gain=623554 284447 189530 68630.7 44100.6 39967.3 25681.3 12144.3 11951.4 11146.4 9345.68 7998.09 7235.21 6991.7 6901.5 5694.58 4624.79 4541.71 4244.54 3557.84 2772.03 2696.16 2234.02 2075.31 1615.93 1541.31 1386.3 1322.28 1309.73 1108.51
threshold=-0.14095319926813341 0.48948988291839207 0.48948988291839207 0.63466809035838745 -1.064724889255722 0.51551766619805195 -1.0057134621772257 -1.3066612303525054 -1.3066612303525054 1.1759266246061222 1.387565439553841 1.0297401095893222 -1.8248071799123793 0.27232585492526745 1.387565439553841 -0.57578749853840161 0.93852766123611653 -1.3066612303525054 -0.49378139885082567 1.387565439553841 -1.7915922902742145 0.20212756687606451 1.8366032178715652 0.89503332965035254 1.725806653958404 1.4742266108762208 -2.5538484524284795 1.387565439553841 -1.4576934886748489 0.49720252744893484
decision_type=2 2 2 2 2 2 2 2 2 2 2 2 2 2 2 2 2 2 2 2 2 2 2 2 2 2 2 2 2 2
left_child=2 3 6 8 12 14 20 -5 -2 23 15 19 22 -10 21 -6 28 -8 -19 -7 -1 -3 26 -9 -11 27 -4 -13 -14 -15
right_child=1 5 4 7 10 11 17 9 13 24 -12 25 16 29 -16 -17 -18 18 -20 -21 -22 -23 -24 -25 -26 -27 -28 -29 -30 -31
leaf_value=-0.067844551814004103 -0.051020784761676034 0.019125858747041868 -0.057334985805710739 -0.027200755040752856 -0.0060731481823438514 0.039821146897208282 -0.061786376624095057 0.0048185355122097699 -0.021347582284612421 0.026797785759746503 0.035563663586849328 0.050502855437954512 -0.030273320294656736 -0.010595776220229992 0.04868893944602537 0.0079686983311190365 0.016275670218059989 -0.043445102771881308 -0.03195902683292897 0.058865916450130396 -0.05679430683690976 0.027855607933061355 0.0061070964776093915 0.014941309665754299 0.047124575450106065 0.062013214553329393 -0.039246581746181147 0.064507306939380227 -0.0188032490830944 -0.0025619092617350701
leaf_weight=86738.106239423156 23977.396969348192 160145.7403524518 15228.119345471263 17318.111603021622 123565.34769482911 264468.37164416909 21604.004236072302 121315.73320794106 198691.06901487708 96985.332706734538 22485.238648697734 162844.74396333098 38681.718636602163 141048.83137783408 30596.351666599512 173700.90804722905 8098.6641212105751 173088.23935683072 150255.37538060546 27029.85921266675 164200.49832263589 197557.4189735502 2256.5171299278736 86900.113686129451 10873.767538160086 48167.621851623058 34802.345036372542 18802.640078663826 69796.456994786859 61727.78247140348
leaf_count=369836 98156 647668 62892 69784 497017 1087875 90859 487677 802007 392944 91732 678402 156849 566641 127593 698280 32650 713473 612071 114189 688435 804877 9114 349830 44320 203171 142804 80033 281944 248000
internal_value=0 0.0191843 -0.0295163 -0.00341874 -0.00643332 0.0380408 -0.0484439 0.0135675 -0.0167297 0.0158013 0.00448286 0.0470862 -0.0271036 -0.0146817 0.0258968 0.00213189 -0.0201722 -0.0395906 -0.0381076 0.0415871 -0.0606139 0.0239473 -0.0425575 0.00904334 0.0288471 0.0540612 -0.0447524 0.0519525 -0.0228933 -0.00815017
internal_weight=0 1.66845e+06 1.0845e+06 758838 488615 909613 595886 333393 425445 316075 319751 521313 168864 401468 388300 297266 116577 344948 323344 291498 250939 357703 52287 208216 107859 229815 50030.5 181647 108478 202777
internal_count=11251123 6803167 4447956 3059359 1973282 3743808 2474674 1344555 1714804 1274771 1287029 2163670 686253 1616648 1580138 1195297 471443 1416403 1325544 1202064 1058271 1452545 214810 837507 437264 961606 205696 758435 438793 814641
is_linear=0
shrinkage=0.05


Tree=9
num_leaves=31
num_cat=0
split_feature=1 3 3 1 3 3 3 27 27 3 15 1 15 27 1 1 15 27 15 2 27 27 15 2 27 15 27 27 15 1
split_gain=485560 124479 115417 31465.4 26072.1 20558.7 17894.1 13003.5 12402.8 9974.56 9349.9 9002.39 7213.41 6620.78 5988.56 5901.67 5166.46 4551.99 4380.66 4254.1 3942.98 3623.1 3441.08 3431.7 3370.81 3076.79 2971.53 2895.45 2463.38 2317.45
threshold=0.086323594080898028 -0.27981907278527657 0.6397749195677237 0.60443080279040251 -1.1246388468120563 0.53509473684027475 1.378371859440463 0.3773020576878523 -0.43030500745756545 -0.11216349581837413 1.0000000180025095e-35 1.1711105623164235 1.0000000180025095e-35 1.7678476768006981 -0.9822725238824549 0.90666000787094714 1.0000000180025095e-35 1.7678476768006981 1.0000000180025095e-35 -0.54804669896992053 -0.52801085682659543 -0.43030500745756545 1.0000000180025095e-35 -0.54239539037348572 1.7840556761805653 1.0000000180025095e-35 1.7678476768006981 -0.50479770517237887 1.0000000180025095e-35 1.1711105623164235
decision_type=2 2 2 2 2 2 2 2 2 2 2 2 2 2 2 2 2 2 2 2 2 2 2 2 2 2 2 2 2 2
left_child=1 4 3 9 14 7 15 10 12 26 20 19 -6 25 27 22 21 -9 24 -5 -3 -7 -4 -13 -11 -10 28 -1 -2 -8
right_child=2 5 6 11 8 16 29 17 13 18 -12 23 -14 -15 -16 -17 -18 -19 -20 -21 -22 -23 -24 -25 -26 -27 -28 -29 -30 -31
leaf_value=-0.059836979644088434 -0.015643281477543559 -0.029753563610735841 0.02035763634682735 0.0045667929162181561 -0.043364707275577737 -0.0080932045985766653 0.044318515417447697 -0.0012800875354544734 -0.027685148313161073 -0.0022540370403933536 -0.0052262289878898804 0.016851125661448377 -0.025954543710163199 0.0039823849458340823 -0.039429737619911087 0.038024787434912749 0.021927885477089435 0.022210345345249845 0.013435170322842836 0.01817391528714837 -0.014727171842803458 0.012113967931468628 0.032739802186125953 0.03661355858194823 0.025240986388625833 -0.014758218423521359 0.013072972413657985 -0.045879866784610104 -0.0042935963964948398 0.055710669343523769
leaf_weight=89631.161272928119 102594.88764466345 95087.625275820494 123795.31792604923 82657.323905929923 138456.36237490177 38786.865834876895 84783.801705420017 74828.863223508 119345.26844389737 126483.69422198832 131467.39674764872 30560.585541084409 104321.37655630708 26410.615246266127 129085.41123476624 184065.96133443713 65107.757934391499 28469.72739328444 112865.24013437331 188278.10714972019 80716.234449371696 51816.47553601861 102626.20534399152 78120.19118373096 12224.474271282554 74931.676046565175 14561.193128034472 63478.192205488682 89527.180931195617 94294.964597925544
leaf_count=382975 415993 392915 504581 337184 582531 157822 351955 303243 490084 512092 532733 125793 427519 106700 532089 768629 264532 115726 457743 767667 328810 210335 421205 322076 50026 303273 58952 263546 360810 401584
internal_value=0 -0.021959 0.0201797 0.00825345 -0.0353807 -0.00428585 0.0371289 -0.0101529 -0.0280852 -0.00056547 -0.0153122 0.0188993 -0.0358836 -0.0195062 -0.0473625 0.0313754 0.011184 0.00519404 0.00612078 0.0140226 -0.0228546 0.00346337 0.0259699 0.0310565 0.00016914 -0.0226993 -0.00870393 -0.0540505 -0.0103544 0.0503171
internal_weight=0 1.31194e+06 1.42744e+06 837873 745660 566281 589566 410570 463465 458257 307271 379616 242778 220688 282195 410487 155711 103299 251573 270935 175804 90603.3 226422 108681 138708 194277 206683 153109 192122 179079
internal_count=11251123 5394833 5856290 3408336 3088717 2306116 2447954 1673427 1910107 1855616 1254458 1552720 1010050 900057 1178610 1694415 632689 418969 1019861 1104851 721725 368157 925786 447869 562118 793357 835755 646521 776803 753539
is_linear=0
shrinkage=0.05


Tree=10
num_leaves=31
num_cat=0
split_feature=28 1 1 28 28 28 28 1 1 0 1 1 1 28 1 0 1 0 0 28 1 28 0 28 2 4 4 4 4 28
split_gain=549360 157330 133921 55661.6 31866.3 28317.9 27506.2 16655.9 15299.8 12603.8 10937.5 9641.23 8013.79 6416.34 6005.89 5547.27 4951.45 4378.78 4355.15 4259.96 3628.86 3547.67 3378.93 3336.79 2979.41 2517.57 2514.2 2438.91 2303.43 2073.56
threshold=-0.076686033978919002 0.37775889897999415 0.086323594080898028 0.63466809035838745 -1.0057134621772257 -1.0497396670692729 0.60408262512498145 -0.38860801390281435 0.90666000787094714 1.0000000180025095e-35 -0.38860801390281435 0.90666000787094714 1.1711105623164235 1.1200194278994242 0.90666000787094714 1.0000000180025095e-35 -0.48035616544512244 1.0000000180025095e-35 1.0000000180025095e-35 1.0633915617461458 -0.38860801390281435 1.0633915617461458 -0.24790540499492555 -0.57578749853840161 -0.31445927698394655 -0.67203699053771093 -0.42160433068388897 -0.66017357838479829 -0.71675740206233152 -1.8248071799123793
decision_type=2 2 2 2 2 2 2 2 2 2 2 2 2 2 2 2 2 2 2 2 2 2 2 2 2 2 2 2 2 2
left_child=2 3 4 7 16 14 11 15 23 13 18 -3 19 20 29 26 -1 22 24 -8 -5 -11 -9 -7 -6 -13 -2 -12 -10 -4
right_child=1 6 5 9 10 8 12 17 28 21 27 25 -14 -15 -16 -17 -18 -19 -20 -21 -22 -23 -24 -25 -26 -27 -28 -29 -30 -31
leaf_value=-0.058344462750448349 -0.034445868762299499 0.016826871170185019 -0.04346406609648229 -0.0036474933181098023 -0.033854889847027871 -0.013160437022701012 0.033736064646041619 -0.0014594884785884754 0.03113591691323829 0.02317834002935722 -0.03134918641664141 0.044102767343808559 0.053333382284618272 0.022280393123540729 -0.0080359492406435629 -0.0018696525956012995 -0.044170820631530279 0.0074172741380717101 -0.023298765940869354 0.046172514461209221 0.012061702774555478 0.039186931126054245 -0.019022664917957538 -0.00067018596892984414 -0.046938022652724752 0.029843998578935629 -0.019773047786473104 -0.018071931265074923 0.013770135939231634 -0.027190089987676316
leaf_weight=188595.29468668997 40087.029060542583 181616.73178616166 26787.238373339176 68270.486471638083 69841.033811241388 83494.235581949353 166781.14362192154 121647.66130618751 25719.706619650126 81342.113098800182 48848.705350250006 43141.626508072019 144508.62889866531 81541.291616886854 37254.849423542619 36004.62310358882 91522.741645887494 115362.3031488508 37386.280929788947 117279.66475988925 79654.459469392896 60237.398425072432 35340.796798765659 148709.7011719048 115454.49277661741 109612.74614350498 107455.59269109368 118475.38408231735 74139.802729979157 72688.258065119386
leaf_count=819048 163222 738764 110413 275010 290989 336658 691426 489770 105640 329845 199785 182263 623451 331595 149908 145034 384963 464678 153289 495169 321422 248340 142366 598185 487245 455666 437579 483502 300860 295038
internal_value=0 0.0189864 -0.0265077 0.00387862 -0.0408481 -0.00600867 0.0353616 -0.00782417 0.00187687 0.0182577 -0.0316077 0.0246134 0.0437474 0.0110192 -0.0251595 -0.0194657 -0.0537135 2.14908e-05 -0.0388659 0.0388707 0.00481158 0.0299895 -0.00541327 -0.00516135 -0.0420068 0.0338711 -0.0237596 -0.0219481 0.0182429 -0.0315725
internal_weight=0 1.58988e+06 1.13892e+06 826944 670124 468794 762941 455898 332063 371046 390006 334371 428569 229466 136730 183547 280118 272351 222682 284061 147925 141580 156988 232204 185296 152754 147543 167324 99859.5 99475.5
internal_count=11251123 6535600 4715523 3348861 2818821 1896702 3186739 1842649 1341343 1506212 1614810 1376693 1810046 928027 555359 745835 1204011 1096814 931523 1186595 596432 578185 632136 934843 778234 637929 600801 683287 406500 405451
is_linear=0
shrinkage=0.05


Tree=11
num_leaves=31
num_cat=0
split_feature=30 5 5 28 28 28 28 3 3 3 3 3 3 3 28 4 28 28 28 28 4 4 28 3 3 3 3 28 4 4
split_gain=501570 189961 189159 47956.5 40429.3 33265.4 25007.6 22063.8 20167 16549.2 14350.4 11765.9 11371.6 8895.59 6984.22 5723.56 5407.34 5388.36 4825.25 3964.54 3942.77 3823.81 3679.41 3164.37 3155.11 3100 3063.82 2744.15 2626.94 2413.61
threshold=1.0000000180025095e-35 0.48948988291839207 0.48948988291839207 -0.82701651507992813 0.81312544886695937 -0.72885986972079242 0.69201493603435493 0.92008598958972188 -1.1309350325287328 0.98984875739448452 0.98984875739448452 -1.0793610973169834 -1.3679855179204894 0.96043417283332733 -1.5022405295779049 0.59108540354896111 -1.474708751143561 0.37482570667465881 1.2491516086244621 -0.2315435851885049 0.79907795808494886 -0.64388449504356582 1.1949771840796186 -1.0559428164640512 1.6907749416644722 -0.39952156864458638 1.4749971667234258 0.40939443238237838 -0.44884272691252441 0.35468431802385175
decision_type=2 2 2 2 2 2 2 2 2 2 2 2 2 2 2 2 2 2 2 2 2 2 2 2 2 2 2 2 2 2
left_child=1 5 4 9 8 16 10 19 15 14 27 20 29 22 -3 -2 -1 -10 -14 -5 -7 25 -8 -18 -11 -13 -9 -4 -19 -6
right_child=2 3 6 7 12 11 13 26 17 24 -12 21 18 -15 -16 -17 23 28 -20 -21 -22 -23 -24 -25 -26 -27 -28 -29 -30 -31
leaf_value=-0.06029772584318413 -0.042936582201812942 -0.041020705847875837 0.016387329126318056 -0.0040212173659537921 -0.027066896472930275 -0.055014814503501132 0.034888280575321777 0.022042818305256052 -0.010617049098517052 -0.0031116610170736202 0.041827266312642199 -0.047216758847671209 0.01465980798282201 0.054292707010952679 -0.019962629688537285 -0.018012153509200733 -0.057235481398699099 -0.0055463775617642565 0.030337033588455988 0.0091268830086511255 -0.033744787859614454 -0.021038479896252887 0.047006097437849115 -0.043152003102389279 0.026095121883632208 -0.026758949581084969 0.039810290990401495 0.026751965892211505 0.0072480259515195176 -0.00017066215467867273
leaf_weight=133879.78867559135 45014.43045899272 66101.570673674345 160083.32642419636 153060.17819429934 13010.126007005572 51826.576680749655 177679.89871679246 75002.789744898677 147822.42688018084 44911.207279443741 112391.73352991045 28987.75713224709 131713.01125977933 150320.66165311635 97385.046651914716 47169.409855291247 56152.543242350221 64418.842200294137 78236.344389915466 91671.448528394103 37590.989994198084 181225.36003541946 96756.449629068375 137685.95991142094 11643.974225327373 51269.139834791422 35866.528644144535 106247.08383198082 106354.99831877649 23242.054830431938
leaf_count=592916 184102 275911 653181 616021 52428 220213 742655 303958 595023 181158 476158 120235 532777 656850 395759 191830 246953 259238 321010 369170 158702 743524 414009 584624 47349 208761 148878 436033 427997 93700
internal_value=0 -0.0231931 0.019915 -0.00206582 1.51857e-05 -0.0411145 0.0361865 0.00928659 -0.00958727 -0.020412 0.0268448 -0.0304163 0.0160366 0.0445158 -0.0284769 -0.0301831 -0.0525695 -0.003628 0.0205018 0.000903793 -0.046073 -0.0250622 0.0391606 -0.0472318 0.00290167 -0.0341481 0.0277907 0.0205221 0.00242176 -0.00982319
internal_weight=0 1.25426e+06 1.46046e+06 575643 656982 678618 803479 355601 410780 220042 378722 350900 246202 424757 163487 92183.8 327718 318596 209949 244732 89417.6 261482 274436 193839 56555.2 80256.9 110869 266330 170774 36252.2
internal_count=11251123 5214132 6036991 2338204 2658105 2875928 3378886 1438027 1658190 900177 1565372 1451435 999915 1813514 671670 375932 1424493 1282258 853787 985191 378915 1072520 1156664 831577 228507 328996 452836 1089214 687235 146128
is_linear=0
shrinkage=0.05


Tree=12
num_leaves=31
num_cat=0
split_feature=28 3 3 28 28 28 3 3 0 3 28 3 3 3 4 4 3 3 0 28 0 0 28 4 1 4 0 4 28 3
split_gain=456054 188023 129554 50877.7 34955.1 32923.3 20928 19913.2 19576.1 19019.9 18229.3 13065.3 11893.7 10363.9 7925.87 7162.99 6495.57 6131.74 5537.25 5366.42 4948.89 4430.78 4127.13 3737.32 3708.69 3587.5 3555.06 3124.2 3107.24 2772.25
threshold=-0.16130292139703326 0.025876391517667862 0.41302071882683988 0.58120381497115836 0.51078606277973437 -1.0348895873246351 -0.49020047052741011 -0.79542440301787476 1.0000000180025095e-35 0.89185103762232731 -1.064724889255722 0.86579198800623114 -0.9370159592227284 1.1211180797468994 0.42370794029231712 -0.4721603598282858 1.3106020303928974 -0.55059382237636578 1.0000000180025095e-35 0.99014369096001598 1.0000000180025095e-35 1.0000000180025095e-35 1.0633915617461458 -0.19018682468455048 -0.12415745945733829 -0.47622820203665822 1.0000000180025095e-35 0.11220516683407973 -1.8248071799123793 -1.3679855179204894
decision_type=2 2 2 2 2 2 2 2 2 2 2 2 2 2 2 2 2 2 2 2 2 2 2 2 2 2 2 2 2 2
left_child=2 3 5 7 9 17 18 14 12 21 16 19 23 -12 29 -9 -4 -1 27 -6 -8 -3 -10 -5 -16 -14 -17 -7 -19 -2
right_child=1 4 10 8 11 6 20 15 22 -11 13 -13 25 -15 24 26 -18 28 -20 -21 -22 -23 -24 -25 -26 -27 -28 -29 -30 -31
leaf_value=-0.057981033431035681 -0.053019071762864238 0.0048717680240623349 -0.022020164011565337 -0.036038632833463272 0.027652344958068831 -0.054201118994540255 -0.025167570756736247 -0.018413777443699268 0.017850805747959022 0.035888528903622006 0.0023298750838183359 0.050225979325580719 -0.0023800662445136655 0.026664495949355101 -0.025373625204040573 -0.0067593664069231577 0.0085673939268145032 -0.054135271373725535 -0.026630823958376643 0.040953708532464599 -0.010698918413940446 0.018099485566732409 0.033981714580936073 -0.0091677084419628883 -0.0027696672487590021 0.015844307037033888 0.0074754927337278218 -0.039400745171929569 -0.038848373642409749 -0.032873100031664396
leaf_weight=139007.94965876639 26840.413206726313 106947.06683623791 82814.917414054275 17665.822542071342 163358.39001969993 62879.642599105835 134679.95857232809 75574.176099553704 98760.274207919836 133493.63379326463 136843.80429922044 201873.38483609259 39947.924029752612 64318.050550803542 51871.391586944461 92487.119663566351 21958.923411697149 47980.571682021022 50807.524220198393 141521.80927315354 105315.48495684564 155143.31193158031 66253.847528919578 48371.781783357263 27910.573255211115 83339.725163266063 83424.495583087206 82361.354642510414 108216.48296821117 46944.021798565984
leaf_count=628524 112399 431705 339177 71470 679005 271868 555174 305317 401528 563566 551032 889078 160941 263653 214253 373739 88723 210862 210437 605354 426203 634932 275209 195321 112422 337151 336438 354957 458667 192018
internal_value=0 0.0162356 -0.0260181 -0.00209801 0.0316648 -0.0374482 -0.0287187 -0.0142027 0.0117391 0.0205264 0.00130214 0.0403596 0.000767292 0.0101105 -0.0283898 -0.00553957 -0.0156095 -0.0503423 -0.0408384 0.0338267 -0.0188184 0.0127019 0.0243274 -0.016356 -0.017466 0.00993921 -8.61255e-06 -0.0458084 -0.0435442 -0.0402016
internal_weight=0 1.66173e+06 1.03718e+06 759392 902338 731249 436044 405052 354339 395584 305936 506754 189325 201162 153566 251486 104774 295205 196049 304880 239995 262090 165014 66037.6 79782 123288 175912 145241 156197 73784.4
internal_count=11251123 6891846 4359277 3088206 3803640 3116692 1818639 1646586 1441620 1630203 1242585 2173437 764883 814685 631092 1015494 427900 1298053 837262 1284359 981377 1066637 676737 266791 326675 498092 710177 626825 669529 304417
is_linear=0
shrinkage=0.05


Tree=13
num_leaves=31
num_cat=0
split_feature=30 30 30 30 2 7 2 2 6 11 27 2 27 2 2 2 6 27 4 30 7 6 7 7 7 2 2 30 30 2
split_gain=415831 44640.3 26241.7 26058.4 14162.5 4348.62 4031.69 2876.95 2035.29 1858.02 1821.55 1774.54 1764.81 1706.36 1413.49 1404.66 1361.35 1325.02 1230.77 967.699 959.399 785.583 692.249 689.223 554.567 548.895 548.474 438.749 412.407 371.968
threshold=1.0000000180025095e-35 -0.82447069075817547 0.92778281344026259 -1.2625340668077849 -0.2014331050552495 -0.6925791708880612 -0.19389802692666966 -0.17506033160522014 0.97665334289518657 1.0000000180025095e-35 3.3581545990049579 0.59916894610635518 -0.79365721954408019 -0.33706451136968602 0.96838777440676582 -0.61397863259499386 1.1363664429438958 -0.13663803564268315 0.08989756972006871 2.0229412535642868 0.93587645523133645 1.3523347644672514 -0.1004134886628258 -2.2470140867293042 -0.1004134886628258 -0.52167392551989122 0.59916894610635518 -2.5767241949566135 -2.5767241949566135 -0.12984986283374131
decision_type=2 2 2 2 2 2 2 2 2 2 2 2 2 2 2 2 2 2 2 2 2 2 2 2 2 2 2 2 2 2
left_child=1 3 5 13 15 9 25 10 14 12 18 22 29 28 -9 17 -13 -5 -7 -4 21 26 -6 -14 -17 -3 -8 -15 -1 -2
right_child=2 6 19 4 11 7 20 8 -10 -11 -12 16 23 27 -16 24 -18 -19 -20 -21 -22 -23 -24 -25 -26 -27 -28 -29 -30 -31
leaf_value=-0.046334023535746428 0.020498497180466466 0.00082498888613843468 0.038129658021244552 -0.011703282466106467 -0.022684345479783038 0.01812666895351276 -0.0097415861954957394 0.010348417474343983 0.016520814294332723 0.0093425578226612148 0.033634100553553474 -0.039910723877106209 0.030261049304855001 -0.059452914037733222 0.00059177446116491289 -0.015043612824498551 -0.030126564036729697 -0.019457944484163665 0.013653230093835778 0.050136456461537721 -0.019720987914700401 -0.0037889144781423599 -0.03030195834697377 0.023512454457936548 -0.022269683906221287 -0.0046599903656829086 -0.017268700463191847 -0.050985363373100882 -0.034231825251230724 0.01333729907923089
leaf_weight=20407.534758120775 30883.961288362741 110238.09798422456 105909.45391830802 109682.83336745203 37123.943766281009 360950.00512629747 69424.576462894678 215499.09160277247 120783.31435517967 28387.431428804994 15386.138858348131 91200.487545341253 52063.997154742479 41853.865736827254 44847.524063438177 30910.703379869461 58267.939546883106 110664.15181320906 267863.77707123756 19942.408341497183 32651.08737757802 35623.293922737241 151703.60806538165 138432.19303736091 188315.8297931999 77804.101632088423 37153.227833166718 24122.12080822885 10748.978579387069 43923.531787216663
leaf_count=90254 130455 451450 458260 457573 156900 1514852 285867 887279 498001 117176 65288 397072 222438 191401 183659 128809 249210 458704 1107851 86951 135153 146460 645048 583119 789752 318825 154889 109483 47282 181662
internal_value=0 -0.0212701 0.0182177 -0.0273848 -0.0243358 0.0161363 -0.00652643 0.0145998 0.0111564 0.0215005 0.016637 -0.0320262 0.0228014 -0.0518029 0.00866773 -0.0184172 -0.0360965 -0.0155979 0.0162211 0.0400323 -0.0119917 -0.010217 -0.0288043 0.0253569 -0.0212508 -0.00144447 -0.0123656 -0.0563571 -0.0421589 0.0162938
internal_weight=0 1.2379e+06 1.44487e+06 875002 777869 1.31902e+06 362894 1.02533e+06 381130 293691 644200 338296 265304 97132.5 260347 439574 149468 220347 628814 125852 174852 142201 188828 190496 219227 188042 106578 65976 31156.5 74807.5
internal_count=11251123 5214132 6036991 3721488 3283068 5491780 1492644 4256930 1568939 1234850 2687991 1448230 1117674 438420 1070938 1834838 646282 916277 2622703 545211 722369 587216 801948 805557 918561 770275 440756 300884 137536 312117
is_linear=0
shrinkage=0.05


Tree=14
num_leaves=31
num_cat=0
split_feature=28 5 5 28 28 0 3 3 3 3 28 0 28 28 3 28 0 0 0 4 28 4 3 28 3 4 4 28 28 3
split_gain=379238 180389 143491 43316.3 33780.9 29366 19061.9 18998.2 17197.1 15271.1 13204.5 12148.6 10943 10745.6 8010.46 6892.81 6077.49 3894.33 3485.26 3294.04 3282.32 3235.69 2894.69 2852.44 2801.27 2764.71 2432.49 2417.99 2218.74 1985.41
threshold=0.172995154538964 0.48948988291839207 0.48948988291839207 -0.76151884287077087 -0.68865117062805614 1.0000000180025095e-35 1.0238575307955708 0.92956304085804553 -1.3679855179204894 0.99761554544332731 0.85846879280035548 1.0000000180025095e-35 0.88890246608403667 0.90764924749923737 -1.0973231526403606 -1.5022405295779049 1.0000000180025095e-35 1.0000000180025095e-35 1.0000000180025095e-35 -0.46703678303647389 -1.2783699114881133 0.50701519462844058 1.7769238034092718 0.8762271929640485 1.4749971667234258 -0.4721603598282858 0.56991079137705791 -1.6637371336461828 0.50723384769129587 1.5034755864794322
decision_type=2 2 2 2 2 2 2 2 2 2 2 2 2 2 2 2 2 2 2 2 2 2 2 2 2 2 2 2 2 2
left_child=1 4 5 9 16 8 10 17 21 15 18 14 19 28 26 -3 20 -5 -4 -10 -1 -2 27 29 -9 -16 -6 -11 -7 -8
right_child=2 3 6 7 11 13 23 24 12 22 -12 -13 -14 -15 25 -17 -18 -19 -20 -21 -22 -23 -24 -25 -26 -27 -28 -29 -30 -31
leaf_value=-0.056965159344154505 -0.043505647843119818 -0.036323854578808733 0.014810461511820956 -0.0031805350408253964 -0.054718057252036593 7.4160144922684511e-05 0.036339045004605407 0.022255796450750959 -0.018475944834253834 -0.018053431930518695 0.038398865801373097 -0.013199380868258948 0.011294328111157076 0.02711789876911171 -0.034224509222595727 -0.015908990514395979 -0.03576990502334948 0.0089190026763752775 0.026005054048136668 -0.0048803323193580377 -0.045544335380443918 -0.021213373119928026 0.029726285002007531 0.052871253477362726 0.038509191613632358 -0.021457998975689747 -0.036329848110341158 0.0069350571777394071 0.011770585983492241 0.049456562549486299
leaf_weight=127073.4336373657 30964.333852037787 64820.810324832797 108332.36245180666 116753.05807454884 38468.573031425476 81687.442299410701 76095.557642608881 80914.068596869707 71808.294207081199 12911.819893345237 206410.66659744084 129167.92345513403 88084.892204776406 94117.156796216965 69134.833390772343 114176.12645702064 83875.156869634986 154510.53425186872 194106.42931301892 117378.08509385586 124602.16773277521 34320.433514788747 10289.258888572454 94538.997026011348 39427.902892768383 109698.76123096049 33778.572501465678 38686.471719354391 80501.806764632463 46459.217627137899
leaf_count=595736 127700 277349 443006 470922 168928 328548 330267 331374 289507 52647 898476 526356 357688 390967 288002 466836 362553 624698 814926 473071 555520 139954 42115 433150 166928 456958 146251 156027 326294 208369
internal_value=0 -0.0186718 0.0189956 0.000784159 -0.0358634 0.0008783 0.0339414 0.0110466 -0.00869899 -0.0158994 0.0286492 -0.0256597 -0.00326291 0.0136784 -0.0320699 -0.0233019 -0.0474262 0.00371131 0.0219952 -0.0100407 -0.0513108 -0.0317866 0.00551085 0.0463457 0.027581 -0.0263934 -0.0461209 0.000681981 0.00587963 0.0413118
internal_weight=0 1.34829e+06 1.32481e+06 632490 715799 598862 725943 391606 342556 240884 508849 380249 277271 256306 251081 178997 335551 271264 302439 189186 251676 65284.8 61887.6 217094 120342 178834 72247.1 51598.3 162189 122555
internal_count=11251123 5689200 5561923 2588896 3100304 2433729 3128194 1593922 1387920 994974 2156408 1586495 1120266 1045809 1060139 744185 1513809 1095620 1257932 762578 1151256 267654 250789 971786 498302 744960 315179 208674 654842 538636
is_linear=0
shrinkage=0.05


Tree=15
num_leaves=31
num_cat=0
split_feature=28 3 3 28 3 28 28 3 0 28 0 3 3 3 28 4 4 0 1 3 28 0 1 4 1 3 1 3 4 0
split_gain=345212 157974 109682 36431.1 35061.9 28414.7 23412.4 19428.5 15838.3 14544.4 14039.2 9976.84 9247.57 7884.02 7343.14 5613.79 5451.76 4861.67 4814.16 4672.91 4587.41 4131.47 3925.88 3843.42 3484.82 3134.25 2996.8 2900.05 2517.65 2474.7
threshold=-0.16130292139703326 -0.082622541538037497 0.40798466394808458 0.63466809035838745 0.8059743737619709 -1.1703458212437392 0.54732403331088642 -0.56778182038117742 1.0000000180025095e-35 -1.1856086728054536 1.0000000180025095e-35 -1.2443914742032489 1.1211180797468994 -1.157601685286118 0.48210373393587164 0.42370794029231712 -0.48565043968280824 1.0000000180025095e-35 -0.43718056471933059 1.3106020303928974 1.0782920725137453 1.0000000180025095e-35 0.60443080279040251 -0.48565043968280824 0.90666000787094714 1.378371859440463 -0.9822725238824549 1.5034755864794322 -0.44447334558996449 1.0000000180025095e-35
decision_type=2 2 2 2 2 2 2 2 2 2 2 2 2 2 2 2 2 2 2 2 2 2 2 2 2 2 2 2 2 2
left_child=2 3 5 8 6 18 21 15 11 19 13 -2 29 -5 25 -7 -13 28 -1 -4 -8 -3 -10 -15 -12 -6 -17 -16 -9 -11
right_child=1 4 9 10 14 7 20 17 22 12 24 16 -14 23 27 26 -18 -19 -20 -21 -22 -23 -24 -25 -26 -27 -28 -29 -30 -31
leaf_value=-0.053852767871856215 -0.039735348594664849 0.002547409636198063 -0.020939098590567588 -0.018664538299609314 0.025414794110656804 -0.047131821697998164 0.024626493378197223 -0.032153913488440315 -0.0063570882078070523 -0.0057788806640357952 0.016690664837599768 -0.029400827781984218 0.024158766585811939 -0.0078657705568624392 0.041561915939210256 -0.040769478286429982 -0.010507630899489766 -0.010460602564188083 -0.039630856646177888 0.0073071814100949973 0.03725858929912481 0.014665417300872433 0.012139566890493877 0.011967865670230286 0.03626921670854618 0.04106338231249753 -0.02246603755091231 0.054284631154118149 -0.019043117246850649 0.0073425591728459513
leaf_weight=135684.93721030653 60932.814623892307 122539.01893025637 69824.619250848889 45292.897266164422 95944.507283776999 98089.147924676538 191806.19147109985 57617.939054146409 105336.36149176955 60420.896289020777 104879.67212229967 55134.993699491024 69043.795094966888 35071.613735795021 159436.61116567254 37871.114968121052 124183.56085699797 119584.73134107888 105984.69706843793 18527.237644687295 114942.26097619534 165107.38891912997 39424.038400292397 80470.309041306376 29015.813668057323 48010.262237682939 54612.690339446068 62291.724896475673 100460.77803809941 88663.490516915917
leaf_count=647691 258143 495409 290170 183434 404239 436167 807525 243652 424632 244046 431000 225555 284196 141459 716979 172093 504965 487597 466741 74984 506004 678826 159769 326295 123403 211761 234098 292448 420459 357383
internal_value=0 0.014187 -0.0228996 -0.00425663 0.0272452 -0.0336918 0.0197506 -0.0265052 -0.0143843 0.00209861 0.00897335 -0.0222562 0.00903077 -0.000983492 0.0394272 -0.038799 -0.0163167 -0.0180674 -0.0476157 -0.0150159 0.0293599 0.00950308 -0.00131971 0.00594756 0.0209335 0.0306338 -0.0299611 0.0451362 -0.0238219 0.0020247
internal_weight=0 1.63982e+06 1.01639e+06 679742 960078 709906 594395 468236 385012 306480 294730 240251 218128 160835 365683 190573 179319 277663 241670 88351.9 306748 287646 144760 115542 133895 143955 92483.8 221728 158079 149084
internal_count=11251123 6891846 4359277 2778655 4113191 3108498 2487764 1994066 1573064 1250779 1205591 988663 885625 651188 1625427 842358 730520 1151708 1114432 365154 1313529 1174235 584401 467754 554403 616000 406191 1009427 664111 601429
is_linear=0
shrinkage=0.05


Tree=16
num_leaves=31
num_cat=0
split_feature=5 30 30 3 0 1 3 3 30 30 30 1 0 4 1 3 30 1 30 3 30 30 3 4 2 4 3 1 3 1
split_gain=317310 146190 124025 27369 26622.4 20386.7 19576.6 15947.2 12368.1 8329.17 8133.68 7146.74 6486.54 6088.81 5760.41 5446.38 4940.83 4635.9 4308.43 3814.19 3737.2 3554.19 3473.1 3374.79 2866.46 2531.24 2516.83 2479.17 2463.95 2443.46
threshold=1.0000000180025095e-35 1.0000000180025095e-35 1.0000000180025095e-35 0.91348420874831471 1.0000000180025095e-35 -0.38860801390281435 1.0705372232942212 -0.90351085305786849 -0.82447069075817547 -1.7005974428573947 -0.82447069075817547 0.60443080279040251 1.0000000180025095e-35 0.14994831695178293 0.37775889897999415 -1.0793610973169834 0.92778281344026259 -0.12415745945733829 -0.82447069075817547 -2.0164929743017264 0.92778281344026259 0.92778281344026259 1.7769238034092718 -0.8530159496515618 -0.23722472616600357 0.92191702270879883 -0.76415153829697502 0.37775889897999415 1.5034755864794322 0.37775889897999415
decision_type=2 2 2 2 2 2 2 2 2 2 2 2 2 2 2 2 2 2 2 2 2 2 2 2 2 2 2 2 2 2
left_child=1 5 3 8 7 15 12 13 9 -2 27 20 -4 -3 -5 25 23 -11 -17 -15 26 24 -16 -9 -14 -1 -6 -7 -8 -12
right_child=2 4 6 14 11 10 28 16 -10 17 29 -13 21 19 22 18 -18 -19 -20 -21 -22 -23 -24 -25 -26 -27 -28 -29 -30 -31
leaf_value=-0.056516161455493298 -0.040453001334446258 -0.036558152331394617 0.017770044750572398 0.001225314270625155 -0.005247730110390687 -0.03470516200059743 0.038475510045446623 -0.014308642394919139 0.0055489536418905526 -0.020782163723881954 -0.01982714049031303 0.022582599955544985 0.023904810442741915 -0.033384151019314037 0.017649619022597013 -0.042343562579292719 0.023577082925806334 -0.0062566031840765902 -0.024589736582688856 -0.008653879912279016 0.028807022395853324 0.044439705282110081 0.039593428241067125 -0.00019942892935562019 0.033375712940071467 -0.042176645523386132 0.0075864516085229752 -0.022690693954867679 0.049496921164153988 -0.0038568699195419493
leaf_weight=84450.240362793207 26395.952158227563 52749.434639215469 194261.39981164038 48837.504906862974 58274.941144227982 156469.74506223202 120713.27860927582 57182.072360470891 118655.59195716679 80988.078417003155 74411.423509612679 88766.087722480297 211026.77461454272 20792.039821833372 103789.74602265656 140813.06647634506 17736.854728326201 170720.06276725233 45123.417526692152 62333.597563058138 15512.749149665236 34029.44420067966 21822.915009394288 163748.22305457294 128566.98227904737 48424.027786895633 110884.88972210884 59177.552530363202 87449.61813147366 35318.984208285809
leaf_count=403511 118511 218168 811577 198192 235043 689338 546864 230914 478695 339593 308437 369781 910744 86510 426440 655052 73784 692784 191807 254011 65848 157910 92880 660717 553473 229370 448770 247279 412877 142243
internal_value=0 -0.0177065 0.0169737 -0.000708814 -0.000937974 -0.0345737 0.029989 -0.00959745 -0.00796609 -0.0137324 -0.0257691 0.0109233 0.0251809 -0.0232712 0.0157967 -0.0435596 -0.00181286 -0.0109303 -0.038035 -0.0148396 0.00531909 0.0290342 0.021462 -0.00385124 0.0274904 -0.0512904 0.00316512 -0.0314082 0.0431056 -0.0146868
internal_weight=0 1.29217e+06 1.34726e+06 571210 647981 644188 776047 374542 396760 278104 325378 273439 567885 135875 174450 318811 238667 251708 185936 83125.6 184673 373623 125613 220930 339594 132874 169160 215647 208163 109730
internal_count=11251123 5510583 5740540 2347095 2643546 2867037 3393445 1524104 1629583 1150888 1387297 1119442 2433704 558689 717512 1479740 965415 1032377 846859 340521 749661 1622127 519320 891631 1464217 632881 683813 936617 959741 450680
is_linear=0
shrinkage=0.05


Tree=17
num_leaves=31
num_cat=0
split_feature=28 3 3 28 28 3 0 3 3 3 28 3 1 28 28 1 28 0 28 3 1 0 28 0 3 3 3 3 28 3
split_gain=289508 129714 95763.7 40213 25114.2 22133.6 20905.7 19349.5 12090.5 11418.8 11142.8 8541.57 7712.47 7436.51 7137.97 5718.38 5397.73 5117.82 4416.78 3664.71 3107.55 2836.89 2819.65 2735.46 2411.48 2356.72 2311.07 2155.57 1976.25 1929.65
threshold=0.19332960686996165 0.2575806654681933 -0.11216349581837413 -0.76151884287077087 -0.76151884287077087 0.7070132149912588 1.0000000180025095e-35 -0.67101943184685575 0.98984875739448452 -1.3679855179204894 0.84780358632988151 1.2883743153079099 -0.43718056471933059 0.90764924749923737 0.89503332965035254 -0.12415745945733829 0.93969766409918243 1.0000000180025095e-35 -1.5022405295779049 1.3898259396211257 0.60443080279040251 1.0000000180025095e-35 -1.5022405295779049 1.0000000180025095e-35 -0.68441008212116672 -1.3679855179204894 -0.58538044765659103 1.6907749416644722 0.95274234350254006 0.60809277228591696
decision_type=2 2 2 2 2 2 2 2 2 2 2 2 2 2 2 2 2 2 2 2 2 2 2 2 2 2 2 2 2 2
left_child=1 3 6 12 11 10 9 15 23 28 21 18 24 20 26 25 19 -9 -3 -7 -8 -4 -14 -6 -1 -5 -11 -10 -2 -20
right_child=2 4 5 7 8 16 13 17 27 14 -12 -13 22 -15 -16 -17 -18 -19 29 -21 -22 -23 -24 -25 -26 -27 -28 -29 -30 -31
leaf_value=-0.05295904089875169 -0.033105115325189165 -0.027680986226866877 0.0076736854504642349 -0.044878344922743618 -0.0015385171224611171 0.028632853365110178 -0.00017895422098539629 -0.016963601856862159 0.022139890492687355 -0.015372268586207022 0.030355128857560601 0.011865494952395986 -0.042542475395785755 0.024069682257743336 0.0094760346469554418 -0.017863791769025649 0.045820806450952177 -0.0039687821737415651 -0.017493560000240826 0.043376443879417977 0.016509404266070282 0.018427500830805167 -0.028373160275946004 0.010028470890531844 -0.041485240155340809 -0.031525221605175104 -0.0031426418149666231 0.039431755439104606 -0.01350332322683816 -0.0033943575694289525
leaf_weight=107881.89875030518 44513.159684926271 52275.020790696144 104286.30765630305 55992.091541171074 86631.479364871979 148276.89143592119 93178.195729464293 173266.70152826607 88323.805741816759 79602.990817427635 176835.41846093535 33828.193245470524 52650.164440855384 80527.249916866422 73637.891109064221 54674.672166615725 130024.79688823223 134647.84877191484 43845.629001408815 58886.843925788999 39814.841116473079 148879.8813534826 105398.85999043286 124666.24771416187 79575.572692409158 80625.239156827331 75051.630747810006 22643.175832226872 18082.014292553067 54348.811345770955
leaf_count=541928 186878 224004 425078 256258 349985 650810 375142 721983 368967 323171 776607 137931 242620 339204 299551 227108 618583 547322 180919 277145 164149 626164 458568 507171 375197 353392 302311 99564 73141 220272
internal_value=0 -0.0161193 0.0171192 -0.0281158 0.00388528 0.0282451 0.000197031 -0.01904 0.0123044 -0.00852401 0.0207246 -0.0108365 -0.0412291 0.0120781 -0.0033367 -0.0315291 0.0378356 -0.0112811 -0.0159403 0.0328238 0.00481714 0.0139977 -0.0330933 0.00528604 -0.0480884 -0.036998 -0.00943742 0.0256684 -0.0274427 -0.00968992
internal_weight=0 1.35128e+06 1.2716e+06 844713 506562 767190 504408 499207 322265 290888 430002 184298 345506 213520 228293 191292 337189 307915 150469 207164 132993 253166 158049 211298 187457 136617 154655 110967 62595.2 98194.4
internal_count=11251123 5813189 5437934 3724376 2088813 3374387 2063547 2106063 1325687 1185052 1827849 763126 1618313 878495 925033 836758 1546538 1269305 625195 927955 539291 1051242 701188 857156 917125 609650 625482 468531 260019 401191
is_linear=0
shrinkage=0.05


Tree=18
num_leaves=31
num_cat=0
split_feature=5 30 30 3 1 1 3 3 30 30 0 30 30 0 1 30 4 4 3 30 3 1 30 30 3 2 4 30 0 3
split_gain=265967 124288 103519 22596.9 22171.1 18366.3 17261.8 13666.9 9292 7197.96 6649.33 6310.75 5684.68 5384.69 5341.57 5189.43 4895.05 4195.06 3814.16 3166.33 3162.33 3122.25 3085.35 2779.98 2726.69 2631.78 2326.79 2310.59 2228.36 2191.93
threshold=0.48948988291839207 1.0000000180025095e-35 1.0000000180025095e-35 0.75762202665393741 0.086323594080898028 -0.38860801390281435 1.0238575307955708 -1.2443914742032489 -0.82447069075817547 -0.82447069075817547 1.0000000180025095e-35 -1.7005974428573947 0.92778281344026259 1.0000000180025095e-35 0.90666000787094714 -0.38640731470856599 -0.2363897156560674 0.29148570491952536 1.4443722616639081 0.92778281344026259 -1.0687680010819653 -0.38860801390281435 0.92778281344026259 -1.2625340668077849 1.5034755864794322 -0.27113257774461269 0.054870030726378943 -1.2625340668077849 1.0000000180025095e-35 -1.2687851290009846
decision_type=2 2 2 2 2 2 2 2 2 2 2 2 2 2 2 2 2 2 2 2 2 2 2 2 2 2 2 2 2 2
left_child=1 5 3 8 7 15 13 17 11 26 23 -2 16 -4 22 20 -9 -3 -12 25 -1 -13 -6 -5 -8 -15 -7 -22 -11 -17
right_child=2 4 6 10 14 9 24 12 -10 28 18 21 -14 19 -16 29 -18 -19 -20 -21 27 -23 -24 -25 -26 -27 -28 -29 -30 -31
leaf_value=-0.051291585011805398 -0.039127307456449795 -0.038124375881591024 0.016097592663518904 -0.034967066967835185 0.0047430874986311884 -0.0335468292512466 0.035197509932080831 -0.012498185682885377 0.0040665115741388 -0.020118750442312507 0.012476933336652349 -0.022390610536508749 0.02133135366317165 0.021363093141642572 0.023841571044315932 -0.041670793713677129 0.0010007746879906127 -0.016576150211444349 0.029649677424035278 0.041728415830858179 -0.055172998338885754 -0.0081013087007143717 0.027186566264652365 0.0019576597375916766 0.046661060984424615 0.030572225612764788 -0.022973783929325482 -0.036780875308780395 -0.0058607155959402874 -0.023491105579205508
leaf_weight=97718.634703874588 22652.99265319109 36800.125391438603 186730.26504068077 5526.4732276946306 186031.42981375754 122448.59847472608 135065.12351074815 122294.84881092608 101094.72573268414 57248.541954651475 109598.34034140408 49642.826800733805 22018.354437083006 190443.68948733807 57628.491473302245 24509.844361364841 148957.09045521915 58480.946310013533 45865.493818104267 31489.041268751025 20033.62624925375 166259.11401306093 16686.616984605789 65636.429270014167 84219.233761236072 130910.34944683313 90490.950522616506 115705.32587701082 52565.139520928264 51251.601421773434
leaf_count=495140 104838 155293 785355 23700 756864 541405 626819 495057 407769 239432 448070 211912 92250 831713 243149 114382 601724 241752 195214 150536 105376 679322 72016 267379 412877 571586 398778 545866 213840 221709
internal_value=0 -0.0162524 0.0156989 -0.000478751 -0.000881665 -0.0320347 0.0277711 -0.00844698 -0.00863744 -0.0236916 0.0117488 -0.0140211 -0.00310195 0.0229637 0.0104091 -0.040743 -0.00508528 -0.0248987 0.0175433 0.0265973 -0.044433 -0.0113869 0.00659052 -0.00090994 0.0396003 0.0251146 -0.0290537 -0.0394954 -0.0132938 -0.0293725
internal_weight=0 1.28087e+06 1.32513e+06 566276 648898 631972 758858 388551 339650 322753 226627 238555 293270 539573 260347 309219 271252 95281.1 155464 352843 233458 215902 202718 71162.9 219284 321354 212940 135739 109814 75761.4
internal_count=11251123 5534033 5717090 2338204 2658105 2875928 3378886 1586076 1403841 1393455 934363 996072 1189031 2339190 1072029 1482473 1096781 397045 643284 1553835 1146382 891234 828880 291079 1039696 1403299 940183 651242 453272 336091
is_linear=0
shrinkage=0.05


Tree=19
num_leaves=31
num_cat=0
split_feature=28 5 5 28 28 28 28 1 0 1 1 1 1 5 5 1 4 1 28 28 1 1 0 1 4 28 2 28 1 5
split_gain=242575 135190 81394.9 33838.4 24720.9 17319.5 14328.6 11542.4 10439.2 8830.75 8641.05 6690.58 5663.79 4947.84 4425.55 4303.95 3173.56 3120.57 3118.21 2948.65 2916.79 2488.63 2423.12 2317.54 2248.74 2158.92 1816.28 1695.3 1687.41 1637.63
threshold=-0.2315435851885049 0.48948988291839207 1.0000000180025095e-35 0.58120381497115836 0.60408262512498145 -1.2936176933242645 -1.1474575964613531 -0.12415745945733829 1.0000000180025095e-35 0.60443080279040251 0.37775889897999415 -0.12415745945733829 0.90666000787094714 -1.3066612303525054 -1.7556990086702295 -0.12415745945733829 -0.29311676721864033 0.60443080279040251 1.2491516086244621 1.0336527948528051 0.90666000787094714 1.1711105623164235 1.0000000180025095e-35 1.1711105623164235 0.072972154868695668 1.1759266246061222 0.062294629445043791 -0.70353514630878877 -1.4194254812310991 1.8366032178715652
decision_type=2 2 2 2 2 2 2 2 2 2 2 2 2 2 2 2 2 2 2 2 2 2 2 2 2 2 2 2 2 2
left_child=2 3 6 7 9 15 22 14 13 -3 27 24 19 -5 -2 -4 -16 -9 -15 -6 25 -12 -1 -11 -8 -10 -19 -7 -26 -17
right_child=1 4 5 8 12 10 11 17 20 23 21 -13 -14 18 16 29 -18 26 -20 -21 -22 -23 -24 -25 28 -27 -28 -29 -30 -31
leaf_value=-0.049218004238092916 -0.043781081717423863 0.010290290464761443 -0.035585584362512454 -0.029122216701333716 0.023937432986258986 -0.012808067121707898 -0.039884633514701597 -0.0083900195535741139 0.0094130377386182681 0.019983565826786429 0.0053378733994659568 -0.019004275452348188 0.04052404355527281 -0.0014689563202037719 -0.027025449832666248 -0.016734084842846862 -0.014012771417694279 -0.0022695559480118729 0.013989457002241072 0.034688396465502876 0.030756240785491731 0.019414878903500396 -0.035404704002541913 0.030738292934256218 -0.039999424900456278 0.023484358402461464 0.015892125167894261 -0.002470351057818755 -0.024905031346448239 0.015024218348588275
leaf_weight=137191.61635692418 19551.117628201842 248074.99348433316 38107.037222236395 13518.187985345721 142656.58439138532 75623.138977333903 88933.553226828575 161245.86002705991 84710.419618442655 126890.9964954108 121546.59925086796 120221.180313766 168788.31327477098 135536.27140852809 74664.359267488122 68790.727766245604 125798.51454690099 33284.550149142742 42963.167213767767 115347.30239011347 32499.873399481177 42330.641036495566 41309.27452108264 82765.662398397923 25061.953483626246 40192.23859000206 23474.953449130058 83391.167412996292 70884.15581305325 4313.6739517897367
leaf_count=706366 88508 1020616 174023 56354 622025 313697 414738 653680 345731 548096 492932 510921 824164 547882 313621 288624 525975 134936 177400 532541 141037 176444 194122 375304 121985 171547 95196 337497 327452 17709
internal_value=0 0.0113315 -0.0206612 -0.00373721 0.0247462 -0.00494434 -0.0347693 -0.0129947 0.00786762 0.0166748 0.000916883 -0.0281862 0.0334028 4.29817e-05 -0.0210741 -0.0219618 -0.0188595 -0.00484084 0.00225175 0.0287439 0.017413 0.00897407 -0.0460213 0.0242292 -0.0341569 0.013941 0.00524188 -0.00738671 -0.0288479 -0.0148601
internal_weight=0 1.67196e+06 917705 787440 884524 434103 483602 438019 349420 457732 322892 305101 426792 192018 220014 111211 200463 218005 178499 258004 157403 163877 178501 209657 184880 124903 56759.5 159014 95946.1 73104.4
internal_count=11251123 7174613 4076510 3251867 3922746 1800926 2275584 1811916 1439951 1944016 1320570 1375096 1978730 781636 928104 480356 839596 883812 725282 1154566 658315 669376 900488 923400 864175 517278 230132 651194 449437 306333
is_linear=0
shrinkage=0.05


Tree=20
num_leaves=31
num_cat=0
split_feature=28 3 3 28 28 3 3 3 3 3 28 28 28 28 3 3 28 28 3 3 3 28 3 28 2 28 28 3 28 3
split_gain=221421 106542 69364.3 30092.8 27916.1 16711.5 15442.5 14290.8 12212 9779.28 9136.78 7651.34 5864.59 5213.77 3383.8 3356.48 3334.45 3307.1 3020.06 2881.59 2828.49 2390.36 2289.38 1876.71 1788.17 1698.62 1654.63 1488.18 1482.77 1311.81
threshold=0.26308407375220105 0.036189982675348946 0.040667586253680242 -0.72885986972079242 -0.76151884287077087 -0.78838811057639069 0.76383120820217287 0.85932768127507708 -0.71665686590447508 0.7460841741305434 0.95274234350254006 0.8762271929640485 0.95274234350254006 -1.474708751143561 1.3657018459702537 -0.68441008212116672 0.99014369096001598 -1.5022405295779049 -1.3679855179204894 1.6907749416644722 -1.6700827131095599 -1.8248071799123793 1.5034755864794322 0.49720252744893484 -0.022474999501479059 -0.26329934584764131 -0.25692887600615671 -2.3441633008590999 1.4250851341580997 0.49236221571544636
decision_type=2 2 2 2 2 2 2 2 2 2 2 2 2 2 2 2 2 2 2 2 2 2 2 2 2 2 2 2 2 2
left_child=1 3 5 13 9 12 26 11 18 17 23 24 20 -1 -8 -15 22 -3 -5 21 -2 -11 -9 -7 29 -10 -6 -14 -13 -4
right_child=2 4 7 8 6 10 14 16 25 19 -12 28 27 15 -16 -17 -18 -19 -20 -21 -22 -23 -24 -25 -26 -27 -28 -29 -30 -31
leaf_value=-0.047474828580103781 -0.027204614246455906 -0.032110312877366216 0.0088878899236304546 -0.036400063932950782 -0.00403084628957212 -0.001617476419787711 0.015149096262255045 0.028476744639132065 -0.016284297540164111 -0.021608589332521539 0.020869668504061679 0.02732100293766488 -0.02135205980721968 -0.041144199055969825 0.030125685799215308 -0.027230161209379097 0.044471183307552169 -0.015885038943481741 -0.023240514114478365 0.021480822709078529 -0.010439411134371426 0.000104632421609225 0.04207682511560052 0.0075745176069733182 0.022631966822189185 -0.0079039472655396507 0.0040312128092347488 0.0057922725792282723 0.039349264647726118 0.017844374600768816
leaf_weight=115260.31669315696 33703.669005870819 48308.879873648286 94415.990735769272 69517.637260884047 110026.93547685444 95809.941587567329 122114.31164428592 109807.15537561476 100944.30104419589 15729.091484323144 117607.13853429258 127352.01962073147 5508.1188797354698 81713.952962309122 54569.609012976289 92304.078238353133 89265.886851489544 89754.346193045378 116940.09275509417 12727.174678221345 99222.960040330887 65282.452451422811 43086.393845051527 132075.71852725744 63420.217686206102 150790.83527109027 150966.39968834817 60617.074599996209 32075.487101405859 72103.785395309329
leaf_count=603845 142708 220304 396525 322846 447314 388058 508140 506199 431080 66446 500398 577543 22610 411757 242390 422180 452834 377315 510639 52955 405636 265087 215700 540293 270325 619360 616869 249133 153646 310988
internal_value=0 -0.0134643 0.0159794 -0.0267108 0.000929554 0.00290267 0.00835992 0.0272551 -0.0184482 -0.0131001 0.00955118 0.0213235 -0.00863709 -0.0392269 0.0197747 -0.0337638 0.0367925 -0.0215623 -0.0281468 -0.000636477 -0.0146903 -0.0041112 0.0323094 0.00370993 0.0154872 -0.0112644 0.000632491 0.00353117 0.029741 0.0127661
internal_weight=0 1.39695e+06 1.17607e+06 727471 669479 544545 437677 631527 438193 231802 345493 389368 199052 289278 176684 174018 242159 138063 186458 93738.7 132927 81011.5 152894 227886 229940 251735 260993 66125.2 159428 166520
internal_count=11251123 6118527 5132596 3321707 2796820 2248836 1814713 2883760 1883925 982107 1428749 1709027 820087 1437782 750530 833937 1174733 597619 833485 384488 548344 331533 721899 928351 977838 1050440 1064183 271743 731189 707513
is_linear=0
shrinkage=0.05


Tree=21
num_leaves=31
num_cat=0
split_feature=5 28 28 28 28 0 28 3 0 3 3 3 3 0 28 4 1 28 28 28 4 4 3 0 1 0 3 1 3 0
split_gain=202523 99503.6 85128.2 28106.2 21688.8 14599.9 14447.7 10116.1 10022 9402.68 8971.17 8087.8 6580.94 5650.16 5616.58 5086.84 3895.81 3767.61 3749.99 3176.59 2934.03 2757.89 2692.36 2636.62 2259.01 2167.98 2139.69 2086.65 1944.28 1937.51
threshold=0.48948988291839207 0.27232585492526745 -0.2315435851885049 -0.68865117062805614 0.51551766619805195 1.0000000180025095e-35 -1.2936176933242645 0.98984875739448452 1.0000000180025095e-35 0.98984875739448452 -0.78838811057639069 1.0925405714511125 -1.0973231526403606 1.0000000180025095e-35 0.95274234350254006 0.14994831695178293 0.37775889897999415 1.1949771840796186 0.9620200646851802 -1.474708751143561 -0.4721603598282858 0.56991079137705791 -2.0164929743017264 1.0000000180025095e-35 0.37775889897999415 1.0000000180025095e-35 -1.0559428164640512 0.90666000787094714 1.7769238034092718 1.0000000180025095e-35
decision_type=2 2 2 2 2 2 2 2 2 2 2 2 2 2 2 2 2 2 2 2 2 2 2 2 2 2 2 2 2 2
left_child=1 3 6 13 7 10 16 25 12 23 15 17 21 19 27 -3 -2 29 -12 -1 -14 -5 -17 -8 -10 -4 -21 -7 -11 -6
right_child=2 5 4 8 11 14 9 -9 24 28 18 -13 20 -15 -16 22 -18 -19 -20 26 -22 -23 -24 -25 -26 -27 -28 -29 -30 -31
leaf_value=-0.049702591018237076 -0.028080633701787538 -0.02731179600302935 0.0043336317213901352 -0.045355403927765936 0.016674543009707592 0.0028557274006219126 -0.0099774244228876697 0.027094359481490617 -0.012618394689532861 0.011867330265038355 -0.0028215245673831216 0.041401477999737701 -0.026705778325032431 -0.02655357332777615 0.021767214393799049 -0.025028670638823698 -0.0089605774985421008 0.034747223762072052 0.012878575333873883 -0.046671901852090102 -0.014155419370813433 -0.026268931116839686 -0.0020091016198440486 0.00065916368332784867 2.486037964891604e-05 0.013069101864162245 -0.033171700563281468 0.018648526955907716 0.032515714017574193 0.026167299298299432
leaf_weight=86409.970785871148 63531.050352618098 52188.495870009065 117257.49750812352 39930.149064302444 80525.110282301903 121595.65007260442 107378.6010761559 114881.78914868832 89782.781431362033 72573.271797016263 121779.6165266186 120792.19318622351 75636.945894449949 77827.42609384656 84250.453124165535 16203.162103801966 45882.195389896631 95292.881182804704 55306.271212846041 42915.859756916761 121173.57918658853 35981.67373777926 58786.843122571707 127370.27223664522 58252.208388164639 180149.54025691748 92858.609330281615 25260.707072585821 13525.256603345275 161678.83185023069
leaf_count=475331 288339 217452 477580 191717 346804 492235 442349 523240 375959 298532 490862 619046 325703 362553 362036 68730 190293 461221 228507 227441 518538 166638 239912 515708 235779 758256 448484 106156 59123 736599
internal_value=0 -0.0143262 0.0138213 -0.0264545 0.0228133 0.0020021 -0.00437291 0.0144927 -0.0181172 0.000977517 -0.00519402 0.0302987 -0.0238025 -0.0381473 0.0114762 -0.0153251 -0.0200627 0.0263249 0.00208183 -0.0422084 -0.0189787 -0.0363086 -0.00698299 -0.00420622 -0.00764324 0.00962501 -0.0374389 0.00557225 0.015111 0.0230113
internal_weight=0 1.25614e+06 1.30084e+06 720769 870578 535371 430261 412289 420757 320847 304264 458289 272722 300012 231107 127179 109413 337497 177086 222184 196811 75911.8 74990 234749 148035 297407 135774 146856 86098.5 242204
internal_count=11251123 5534033 5717090 3328143 3922746 2205890 1794344 1759076 1814334 1315712 1245463 2163670 1202596 1513809 960427 526094 478632 1544624 719369 1151256 844241 358355 308642 958057 611738 1235836 675925 598391 357655 1083403
is_linear=0
shrinkage=0.05


Tree=22
num_leaves=31
num_cat=0
split_feature=5 1 1 29 1 0 29 1 1 4 2 1 4 27 1 5 29 1 29 29 2 0 4 27 0 0 29 1 27 4
split_gain=184112 49147.2 40103.8 14597.3 12608.1 9878.47 9785.09 8014.28 6604.89 6446.73 4902.06 4289.48 3827.58 3789.34 3427.68 2974.07 2590.53 2463.52 2295.65 2210.29 2035.97 1797.77 1744.14 1712.84 1626.6 1535.19 1505.82 1458.76 1371.54 1364.93
threshold=1.0000000180025095e-35 -0.21590561099964631 0.60443080279040251 -0.28101648882894209 0.60443080279040251 1.0000000180025095e-35 -0.28101648882894209 -1.2089444276928629 -0.38860801390281435 -0.13380797602320535 -0.42183414031620886 1.3815916158546593 -0.62057557477904013 1.7678476768006981 1.1711105623164235 -1.7556990086702295 -1.2889565363920219 1.1711105623164235 -0.28101648882894209 -0.25150171240045088 -0.63281632791644338 1.0000000180025095e-35 -1.0690656473701934 1.7678476768006981 1.0000000180025095e-35 1.1632298738329838 -0.28101648882894209 -1.2089444276928629 0.83039347538041175 -1.0768593752216955
decision_type=2 2 2 2 2 2 2 2 2 2 2 2 2 2 2 2 2 2 2 2 2 2 2 2 2 2 2 2 2 2
left_child=1 5 3 16 12 7 14 15 20 13 -6 22 23 -9 -4 -1 28 -12 -14 -17 -5 -10 -8 -3 -18 -7 -11 -22 -2 -13
right_child=2 4 6 8 10 25 11 9 21 26 17 29 18 -15 -16 19 24 -19 -20 -21 27 -23 -24 -25 -26 -27 -28 -29 -30 -31
leaf_value=-0.048047230927596773 0.020404589903617237 -0.016073623226043915 0.025055601997641744 0.00045094191855444253 -0.0034037577747935335 -0.01251398187773502 0.023596337725269711 -0.030450118235051102 -0.00056248506993380836 -0.0098037596156334908 0.010821784462796294 0.04645775374424041 0.00090416690879241424 -0.00038512807828543048 0.03653261852762945 -0.021548509148097965 0.0077289017461442053 0.02853436221602515 -0.0081777081026395502 -0.03615876054049641 -0.025828243629165311 0.0067215265773681414 0.012192786794652272 0.0043933827089268655 0.016423887753241051 0.0038187223673267247 -0.018979231359214511 -0.010811175607610614 0.040608807327799756 0.025521206149751553
leaf_weight=36100.756836369634 42600.80364985764 127347.19378471375 150536.94212794304 29291.88931812346 52767.409534841776 107096.91812311113 39889.682987734675 176314.58727987111 163280.55566975474 70152.102725893259 77343.912608712912 9048.0253377854824 121588.99170377851 11142.846705242991 114566.88436874747 37203.091696575284 108143.96604259312 26307.700288757682 162675.72079062462 85106.721230596304 22268.187702789903 176037.34234181046 210336.46771962941 11114.433234199882 107013.48331356049 16620.224344700575 123321.65059164166 59068.444059401751 10462.806690901518 55757.277206256986
leaf_count=185937 189579 539868 702604 124546 222097 466493 178537 811245 683526 297427 324339 44340 501346 46146 575820 163047 458131 112692 700087 438353 99205 741031 913753 46501 467596 71947 583058 253769 51510 256593
internal_value=0 -0.0137676 0.0131594 0.00526118 -0.00312601 -0.0230624 0.0229368 -0.0259853 -0.000242573 -0.0220549 0.0090019 0.0169799 -0.00761362 -0.028663 0.0300155 -0.0354369 0.0144938 0.0153174 -0.0042931 -0.0317148 -0.010852 0.00321644 0.0140107 -0.0144307 0.0120536 -0.0103198 -0.0156523 -0.0149225 0.0243884 0.0284444
internal_weight=0 1.2422e+06 1.2983e+06 718167 579145 663059 580135 539342 449946 380931 156419 315031 422726 187457 265104 158411 268221 103652 284265 122310 110629 339318 250226 138462 215157 123717 193474 81336.6 53063.6 64805.3
internal_count=11251123 5510583 5740540 3068893 2446930 3063653 2671647 2525213 1902077 1737876 659128 1393223 1787802 857391 1278424 787337 1166816 437031 1201433 601400 477520 1424557 1092290 586369 925727 538440 880485 352974 241089 300933
is_linear=0
shrinkage=0.05


Tree=23
num_leaves=31
num_cat=0
split_feature=30 3 3 3 3 3 3 4 4 30 30 30 3 3 4 30 30 30 30 4 30 2 3 3 4 3 30 3 4 30
split_gain=173681 71464.4 66321.6 21009.3 18114.9 13287.6 11380 10950.7 7156.57 6933.2 5962.14 5633.55 5021.97 4414.32 4395.94 4103.98 3974.84 3683.93 3569.22 3535.96 3217.33 2683.66 2536.86 2403.01 2267.67 2007.03 1981.48 1924.44 1921.78 1869.53
threshold=0.48971943739065299 0.021572588286815127 0.26231452504924113 -0.69655170654162768 0.75762202665393741 -0.72375880489222866 1.1962913436139095 0.021543932744284424 0.42370794029231712 -0.82447069075817547 -0.82447069075817547 0.92778281344026259 -1.7172840023090166 1.4443722616639081 -0.72736808449739776 -1.7005974428573947 -1.7005974428573947 0.92778281344026259 -0.38640731470856599 -0.15669134749651503 -1.7005974428573947 0.020851699737854838 -0.23894250045089666 0.65590120148354392 -0.66017357838479829 -1.5622572798107919 -1.7005974428573947 -1.3679855179204894 0.67778941944671833 -0.82447069075817547
decision_type=2 2 2 2 2 2 2 2 2 2 2 2 2 2 2 2 2 2 2 2 2 2 2 2 2 2 2 2 2 2
left_child=1 5 3 7 10 8 17 25 27 15 16 14 -9 20 22 -7 -3 23 26 -17 -6 -16 -5 -4 -11 -2 -10 -1 -14 -22
right_child=2 4 6 11 13 9 -8 12 18 24 -12 -13 28 -15 21 19 -18 -19 -20 -21 29 -23 -24 -25 -26 -27 -28 -29 -30 -31
leaf_value=-0.051885581753527969 -0.038598234577353709 -0.034429113600359586 0.015452768592382591 -0.012301617355235179 -0.022844944799073674 -0.044488206609372916 0.036709906519813838 -0.016585775086704915 -0.048904364885865255 -0.022057436934715957 0.0011324331404713379 0.026538306008983187 -0.0042937688922865284 0.02157567640475664 0.0065078352515405558 -0.029817476563404628 -0.011195333231106063 0.035624595852670124 -0.013650658391104685 -0.016628618144788044 0.0033316534335586174 0.015594261416255896 0.0039543631324168299 0.023181794738320334 -0.0045348131355544595 -0.019410169557799468 -0.028773683612649117 -0.038869065237727485 0.0076580414006699312 0.014909279809839228
leaf_weight=42368.319005385041 16761.243904665112 20127.060011222959 202372.32532301545 38588.719819501042 9478.5481006354094 23018.634319409728 148323.94335274398 43212.981486216187 14349.2894012779 24315.885417073965 105272.05662338436 39975.235793486238 55830.806009918451 56847.032983019948 243017.93621143699 88430.729344755411 215592.39346346259 37774.988051205873 37861.996148064733 119488.41010370851 105796.2693683207 122083.42479024827 63482.096202120185 199903.98101723194 76718.641422599554 72904.7490465343 82539.423651009798 86113.689152449369 84596.917180195451 52009.887022644281
leaf_count=231018 73836 98170 886045 157167 40992 126874 766629 183348 85298 103739 427462 181794 229614 246468 1014468 415334 906697 193041 170692 545624 431399 509937 261731 925049 319475 302088 422282 430332 347771 216749
internal_value=0 -0.0142378 0.0120569 0.00250095 -0.0015032 -0.0263288 0.0247326 -0.00867397 -0.0347184 -0.0196764 -0.00876085 0.00852322 -0.00168045 0.00953851 0.00698169 -0.0244558 -0.0131792 0.0206955 -0.0266682 -0.022238 0.00544801 0.00954618 -0.00219135 0.0192936 -0.00875198 -0.022997 -0.0317551 -0.0431614 0.00290628 0.00714742
internal_weight=0 1.16033e+06 1.36883e+06 780454 565123 595205 588375 273307 263233 331972 340992 507147 183641 224132 467172 230938 235719 440051 134751 207919 167285 365101 102071 402276 101035 89666 96888.7 128482 140428 157806
internal_count=11251123 5218605 6032518 3261754 2367937 2850668 2770764 1136657 1339622 1511046 1432329 2125097 760733 935608 1943303 1087832 1004867 2004135 678272 960958 689140 1524405 418898 1811094 423214 375924 507580 661350 577385 648148
is_linear=0
shrinkage=0.05


Tree=24
num_leaves=31
num_cat=0
split_feature=28 1 3 3 3 28 3 28 28 1 28 28 3 3 3 28 3 3 28 1 28 3 28 28 28 1 3 28 28 28
split_gain=165386 84144.6 42423.5 27756.2 24251.2 16545.2 13671.4 11263.1 9958.48 9007.93 6609.39 5749.49 5646.77 3697.57 3520.51 3448.11 3439.24 2861.81 2831.13 2570.94 2446.24 2113.71 1943.3 1744.37 1663.04 1574.32 1511.15 1318.25 1267.84 1232.93
threshold=0.34996725498730891 0.086323594080898028 -0.23894250045089666 -0.50833811349964309 0.60207287166198242 -0.86879537176489074 0.67310735224889984 -0.86879537176489074 -0.68865117062805614 0.37775889897999415 -0.71254633989141258 0.95274234350254006 -1.3679855179204894 1.3898259396211257 -1.3679855179204894 0.95274234350254006 1.3106020303928974 0.57105597549535958 -1.7036949365818368 0.90666000787094714 1.0297401095893222 1.4749971667234258 -1.2783699114881133 -0.44286298521281325 1.0402214909611003 0.90666000787094714 -0.16979820330317988 1.0340038155244156 -1.8248071799123793 1.5045261031899357
decision_type=2 2 2 2 2 2 2 2 2 2 2 2 2 2 2 2 2 2 2 2 2 2 2 2 2 2 2 2 2 2
left_child=1 3 9 8 7 18 11 28 22 12 21 25 27 20 -10 -14 -12 23 -5 26 -8 -6 -1 -7 -11 -4 -9 -2 -3 -13
right_child=2 4 6 5 10 17 13 19 14 24 16 29 15 -15 -16 -17 -18 -19 -20 -21 -22 -23 -24 -25 -26 -27 -28 -29 -30 -31
leaf_value=-0.047499298415773522 -0.02107130868222367 -0.033111062589029162 0.010113339863829359 -0.037860157661490743 -0.0023387060219358714 -0.015948599202596569 0.023958230167283576 -0.0084868515866336845 -0.034636700231850726 0.01065750616479734 0.013765641136648524 0.022708882863065265 -0.0038746345043055839 0.041049120736096456 -0.020449001325191188 0.0095432368209068478 0.02793395659576059 0.0032150543166484854 -0.022629128600245553 0.0072713207109409289 0.035657458431716769 0.015890361731461276 -0.036128744461019734 -0.0064375083519116602 0.025161879011781386 0.020562650596366267 -0.00056309649387701168 -0.004881173762410141 -0.018359661109951249 0.035241849500679594
leaf_weight=75943.928763076663 42810.596914276481 18221.650455057621 187945.39620615542 43848.919116824865 69839.979787319899 66640.171639055014 127107.99945515394 99487.078945577145 63696.513265699148 60087.535145610571 141001.20356029272 129366.06025271118 130630.4732581377 76223.222945526242 139449.59116651118 75583.605996280909 61519.585663244128 59038.556055963039 100297.06050153077 67857.837587237358 68902.613000944257 20590.453275665641 74383.598749294877 174291.29735209048 29448.20180952549 44599.826902806759 152256.74594913423 17800.972626104951 72605.360018208623 23132.55470778048
leaf_count=447813 182653 86935 788610 228297 284653 292407 599998 411171 310496 249236 600008 593089 529486 417325 620643 311897 287728 241301 466151 280928 358550 86335 395967 721341 130107 202900 621920 72774 316501 113903
internal_value=0 -0.0105445 0.0155968 -0.0216619 0.00206192 -0.0133406 0.0231286 -0.00578177 -0.032117 0.00170489 0.013051 0.0170652 -0.00290002 0.0317046 -0.0248976 0.00104342 0.0180696 -0.00665069 -0.0272624 -0.00136624 0.0280708 0.00181195 -0.0418731 -0.00906822 0.015428 0.0121174 -0.0036945 -0.0163165 -0.0213191 0.02461
internal_weight=0 1.50097e+06 1.01364e+06 797590 703380 444116 657278 410429 353474 356361 292951 385044 266826 272234 203146 206214 202521 299970 144146 319602 196011 90430.4 150328 240931 89535.7 232545 251744 60611.6 90827 152499
internal_count=11251123 6700595 4550528 3724416 2976179 1949497 3074375 1717455 1774919 1476153 1258724 1698502 1096810 1375873 931139 841383 887736 1255049 694448 1314019 958548 370988 843780 1013748 379343 991510 1033091 255427 403436 706992
is_linear=0
shrinkage=0.05


Tree=25
num_leaves=31
num_cat=0
split_feature=5 3 3 29 29 29 15 15 3 7 29 3 29 7 7 3 3 3 3 3 3 3 15 29 5 29 29 7 5 29
split_gain=141647 27597 24676.6 16341.5 9853.86 6184.34 6010.57 4246.49 3413.65 3230.24 2671.89 2640.65 2606.01 2414.18 2276.1 2119.27 1820.92 1794.28 1781.5 1573.68 1467.03 1421.36 1359.95 1346.3 1154.28 978.408 966.795 873.659 804.969 640.945
threshold=0.48948988291839207 1.0705372232942212 -1.0793610973169834 -0.28101648882894209 -0.28101648882894209 -0.13037996935872656 1.0000000180025095e-35 1.0000000180025095e-35 -2.3441633008590999 -0.54453775033175233 -0.25150171240045088 2.0041175033314542 -1.2889565363920219 -0.32247561949728903 -0.32247561949728903 1.6500376942007144 0.52945573018414704 0.59680190475679218 -0.50833811349964309 0.51892031892597934 -0.46625431086909147 -0.55059382237636578 1.0000000180025095e-35 0.46530816977962486 -0.85762345203478108 -1.2146240778644712 -1.3040293490449315 -0.61855846060990671 -0.85762345203478108 -1.2889565363920219
decision_type=2 2 2 2 2 2 2 2 2 2 2 2 2 2 2 2 2 2 2 2 2 2 2 2 2 2 2 2 2 2
left_child=2 3 8 9 12 15 14 13 -1 -2 27 23 -4 -5 -6 25 -15 26 -14 -9 -8 -16 -12 -7 -22 -3 -11 -10 -20 -19
right_child=1 5 4 7 6 11 20 19 10 17 22 -13 18 16 21 -17 -18 29 28 -21 24 -23 -24 -25 -26 -27 -28 -29 -30 -31
leaf_value=-0.038025567751816675 0.023509986381482842 0.036741223998690085 0.0060273918709767412 0.0070340145783509504 -0.0076390211196454422 0.020550787483737572 -0.010349310413322162 0.0037433004883937874 -0.0077002816342303659 0.018191302173546357 -0.030157626223199192 0.037263058123331867 -0.0088230934673628799 -0.0069242953564960909 -0.023003394590676182 0.041472971801322894 0.0011952058610057604 0.025863942026637755 0.0033866882759690147 0.012128541996376557 0.0037066491335690163 -0.015621227661513562 -0.020447460796140439 0.010810926471508678 -0.0063692874551963229 0.025602485693636119 0.0081474456836555416 -0.01870889734567624 -0.0035332455550821994 0.01603455830181514
leaf_weight=40591.400747582316 94281.849407628179 25882.718851014972 81936.36289820075 70040.946479141712 60235.532995253801 70236.69125521183 92354.257905483246 124136.57195097208 23032.559347003698 28495.700585573912 98734.820454478264 15664.263665035367 117682.46099019051 156623.92715869844 103532.84114003181 42086.290755793452 123499.02105507255 20136.125252991915 67908.685133561492 101870.70899999142 51180.619573354721 176133.56621009111 56805.900709316134 71696.836811542511 63925.149822354317 82736.949959844351 150501.64939163625 82858.735863551497 110261.87807129323 94041.997869983315
leaf_count=207129 451042 137837 345746 301286 266703 328122 408228 528238 97723 130550 516969 76921 498115 672888 510174 231480 521928 97173 284393 443456 218116 810101 269234 312487 273701 410125 649676 366727 460974 423881
internal_value=0 0.0116852 -0.012126 0.00751935 -0.00807488 0.0247059 -0.0123619 0.00217989 -0.0245352 0.0154594 -0.0224406 0.0177809 -0.00186362 -0.00126865 -0.0164553 0.0319475 -0.00334462 0.0128705 -0.00404904 0.00752287 -0.00565532 -0.0183541 -0.0266113 0.0156308 -0.00188912 0.0282567 0.0097464 -0.0163144 -0.000895752 0.0177681
internal_weight=0 1.27193e+06 1.22717e+06 963628 925151 308304 547362 576171 302023 387457 261432 157598 377789 350164 339902 150706 280123 293175 295853 226007 207460 279666 155541 141934 115106 108620 178997 105891 178171 114178
internal_count=11251123 5717090 5534033 4220118 4076251 1496972 2487023 2467796 1457782 1752322 1250653 717530 1589228 1496102 1586978 779442 1194816 1301280 1243482 971694 900045 1320275 786203 640609 491817 547962 780226 464450 745367 521054
is_linear=0
shrinkage=0.05


Tree=26
num_leaves=31
num_cat=0
split_feature=28 5 5 28 28 28 28 3 0 0 3 3 0 3 3 3 4 0 4 0 28 28 4 28 1 4 5 4 1 1
split_gain=145865 72911.1 47492.1 22314.4 18609.6 11219.7 10622.8 8806.68 8402.06 6945.65 6437.96 5705.07 5191.47 4883.91 3627.22 3225.2 2932.45 2907.99 2674.12 2507.6 2269.33 2185.81 2151.39 2150.36 2140.6 1935.88 1812.04 1719.32 1643.36 1588.6
threshold=-0.26329934584764131 0.48948988291839207 1.0000000180025095e-35 0.58120381497115836 0.7421201689494793 -1.1856086728054536 -1.4187562579498534 1.1776182469704017 1.0000000180025095e-35 1.0000000180025095e-35 1.0378262671500431 -1.2687851290009846 1.0000000180025095e-35 1.1854738601458155 -0.83484521269786705 -1.0793610973169834 -0.19018682468455048 1.0000000180025095e-35 -0.48565043968280824 1.0000000180025095e-35 1.3410645746800285 -0.73970832877410075 0.7560038460388262 1.3235254863038914 -0.43718056471933059 0.072972154868695668 -0.85762345203478108 1.1036832876292442 0.37775889897999415 1.025392909866875
decision_type=2 2 2 2 2 2 2 2 2 2 2 2 2 2 2 2 2 2 2 2 2 2 2 2 2 2 2 2 2 2
left_child=2 3 5 8 7 24 19 17 11 14 21 22 15 20 16 27 -5 -3 -13 -4 -6 -8 -2 29 -1 -17 -16 -7 -10 -11
right_child=1 4 6 9 13 12 10 -9 28 23 -12 18 -14 -15 26 25 -18 -19 -20 -21 -22 -23 -24 -25 -26 -27 -28 -29 -30 -31
leaf_value=-0.04440060696351112 -0.037765508822273051 0.004413829928860049 -0.028361263639625035 -0.023612905636137289 0.022131745072316775 -0.043090256365717672 -0.0096372029176999777 0.026252624074779737 -0.0052464112587427281 0.0099875309826817811 0.012155989461252865 -0.018566510776555023 -0.012520799863244348 0.039264544585321332 0.013573120050634374 -0.028004716289223432 -0.0015738559386926547 0.012939355509022317 -0.0071560526380324676 -0.011662217485052431 0.033172173348901511 -0.00012842396431162121 -0.018103406458726528 0.02684129889553194 -0.032396352817197153 -0.015747487974209849 0.00093087148532898446 -0.023584701309048231 0.0046660343520448077 0.027083265905630496
leaf_weight=89962.41401976347 32114.24350515008 160858.96880079806 44773.764530494809 20989.593241930008 198943.35194821656 39042.504959896207 111767.69873256981 99295.237674221396 97338.592089250684 108461.50273866951 76230.058202877641 82283.849294558167 87652.955649077892 74142.185275897384 49743.592891797423 79824.178786695004 53728.917334422469 264461.55225092173 136569.29017525911 45151.915255412459 60759.981850847602 131595.25899648666 24546.5325281322 31059.520621359348 63247.612231224775 54009.129322573543 65885.091353833675 15898.189991146326 73299.667978152633 15534.999449178576
