tree
version=v3
num_class=1
num_tree_per_iteration=1
label_index=0
max_feature_idx=30
objective=binary sigmoid:1
feature_names=lag_rating mov_avg_rating movies_views avg_user_rating std_user_rating median_user_rating antiguedad year Action Adventure Animation Children Comedy Crime Documentary Drama Fantasy Film-Noir Horror IMAX Musical Mystery Romance Sci-Fi Thriller War Western movies_pop avg_movie_rating std_movie_rating median_movie_rating
feature_infos=[-2.8349867495127588:1.3984190869709683] [-4.5118778832159538:1.9644622256528517] [-0.83720532215417087:11.657837984563296] [-7.0041718831500175:3.4644200146663704] [-4.5997629268403397:6.4958822260594493] [-5.5725201243708868:2.5101598853481515] [-0.58426740009098277:4.269200328514728] [-5.5409356941071772:1.2689696514830313] [-0.60962508854114794:1.6403524375826306] [-0.51790844895630173:1.9308431866968312] [-0.23016766815545536:4.3446588654866956] [-0.30115394543422297:3.32056084657345] [-0.79408047339018806:1.2593182095646747] [-0.43332916933161458:2.3077144830624765] [-0.10148699456112582:9.8534792987459916] [-0.88232046995028601:1.1333750423543312] [-0.32975677058006614:3.0325381894082937] [-0.10522829238266915:9.5031476550378482] [-0.28029197718793875:3.567708252061343] [-0.11301167932420772:8.8486429542491152] [-0.21936579946031062:4.5585957449166017] [-0.28074617659723378:3.5619363088767155] [-0.49600852810701407:2.0160943680070176] [-0.4187725169997184:2.3879312977949585] [-0.59307606026550641:1.6861243725675366] [-0.23488581663978034:4.2573877567652145] [-0.15307629682224375:6.5326900425428098] [-0.99772234167986618:3.5347485357511381] [-5.2717738243943559:1.9376183139170529] [-5.7841412042344853:8.8228232039096621] [-5.4241361392790761:2.4610046296138957]
tree_sizes=3627 3615 3601 3612 3614 3609 3606 3588 3592 3619 3616 3599 3616 3614 3613 3619 3630 3619 3614 3621 3597 3615 3625 3619 3611 3641 3628 3610 3634 3635 3609 3607 3615 3624 3619 3625 3633 3631 3616 3640 3625 3624 3640 3632 3627 3624 3645 3633 3626 3628 3621 3641 3622 3638 3616 3634 3620 3618 3630 3634 3634 3620 3638 3636 3636 3633 3634 3630 3620 3634 3646 3635 3661 3629 3634 3644 3639 3656 3635 3636 3647 3670 3643 3619 3645 3646 3642 3649 3645 3660 3651 3637 3658 3663 3643 3633 3652 3616 3639 3665 3649 3652 3645 3668 3645 3675 3652 3663 3649 3645 3644 3648 3662 3647 3644 3647 3652 3641 3662 3662 3655 3648 3656 3658 3655 3648 3672 3656 3662 3648 3657 3650 3671 3656 3677 3657 3663 3660 3641 3652 3667 3637 3635 3660 3649 3658 3671 3666 3652 3677 3653 3676 3663 3674 3649 3681 3655 3638 3662 3652 3644 3654 3692 3674 3664 3667 3664 3666 3653 3670 3676 3634 3674 3650 3648 3683 3656 3677 3668 3640 3646 3660 3630 3673 3672 3665 3668 3667 3682 3671 3630 3633 3677 3612 3667 3657 3634 3664 3634 3672 3711 3672 3662 3687 3625 3642 3591 3674 3668 3644 3637 3625 3660 3658 3637 3677 3669 3686 3607 3653 3643 3639 3653 3659 3649 3654 3684 3612 3669 3680 3680 3653 3640 3652 3663 3627 3664 3646 3656 3656 3664 3688 3642 3663 3661 3634 3679 3649 3669 3687 3633 3647 3673 3632 3655 3677 3686 3646 3672 3628 3688 3624 3645 3640 3612 3648 3662 3635 3672 3599 3630 3667 3666 3653 3645 3626 3677 3657 3665 3659 3667 3623 3679 3636 3668 3649 3679 3633 3681 3637 3694 3609 3623 3687 3647 3683 3670 3684 3594 3678

Tree=0
num_leaves=31
num_cat=0
split_feature=3 0 29 3 29 3 29 3 0 3 0 0 15 15 15 15 3 3 3 4 4 15 29 29 29 0 29 29 29 3
split_gain=973713 231430 169033 92915.8 75109.8 67032.1 53717.2 38157.3 37948.4 34097.2 25651.2 17137.8 14513.8 14054.7 13514.6 12964.2 10471.9 9885.75 9161.48 8724.68 7151.58 7126.28 6782.18 6434.53 6127.7 5652.83 5586.09 4822.06 4754.78 4684.86
threshold=0.040213468875369994 1.0000000180025095e-35 -0.082414011293283088 0.86101940317093639 -0.20855925244717113 0.81246353813081107 -0.082414011293283088 -0.92000143158074388 1.0000000180025095e-35 -0.71390806502828574 1.0000000180025095e-35 1.0000000180025095e-35 1.0000000180025095e-35 1.0000000180025095e-35 1.0000000180025095e-35 1.0000000180025095e-35 1.387765136148347 -0.62423482933011598 1.4774124201165861 -0.38677942200538384 0.30025456149864505 1.0000000180025095e-35 -0.84512359684183347 0.60013644816718326 -0.84512359684183347 1.0000000180025095e-35 0.49859529385481688 0.45037158101885949 -1.2758145736642492 -1.6449869159712092
decision_type=2 2 2 2 2 2 2 2 2 2 2 2 2 2 2 2 2 2 2 2 2 2 2 2 2 2 2 2 2 2
left_child=1 4 5 8 7 10 17 20 13 21 24 -5 -11 26 -8 23 25 -3 27 -9 -1 -6 -12 -10 -2 -7 -4 -13 -19 -22
right_child=2 6 3 11 9 16 14 19 15 12 22 18 -14 -15 -16 -17 -18 28 -20 -21 29 -23 -24 -25 -26 -27 -28 -29 -30 -31
leaf_value=-0.047902472272382146 0.042206275772555077 0.013492530319005068 -0.0034856514701464905 0.026653490223086263 -0.061229547894058628 0.055037763013226923 -0.016369418856892227 -0.013845128101598495 0.024214448619174475 -0.039447481185812386 0.064626631290842881 0.058866570296493032 -0.015133426416188596 0.011918425435324984 0.0078016103283827139 0.037399067481667533 0.088848042656244658 0.051473416184775675 0.072373054967115769 0.0070815579864643508 -0.039247175650475349 -0.04448667455928125 0.048356910612563822 0.0030339294792378086 0.022244136803624207 0.074436401289624407 -0.024584411832080013 0.038627903948790621 0.029483863386601694 -0.012767702672223449
leaf_weight=60304.895542100072 62688.552478015423 98056.671615868807 54124.136854782701 64712.97343942523 191573.77046830952 50457.030028045177 146228.04088197649 80018.12588699162 73831.617424160242 174503.68692818284 111355.40239928663 57593.001421406865 94678.303516030312 71605.204349040985 95662.76508012414 99686.107998490334 107917.03664191067 30343.81529957056 61188.861029818654 131918.84954953194 29496.348386853933 95108.286728382111 150799.61239609122 69717.2780585289 99400.619144707918 146876.2655736208 74627.08636701107 60190.400012299418 129489.94438022375 38515.996236652136
leaf_count=241229 250764 392242 216505 258862 766325 201836 584935 320085 295338 698042 445439 230381 378728 286432 382666 398760 431685 121380 244765 527696 117990 380448 603222 278880 397618 587528 298520 240771 517980 154070
internal_value=0.0124921 -0.0171459 0.0416934 0.0239004 -0.03235 0.0584568 0.0101153 -0.013848 0.0102743 -0.0436754 0.0456003 0.0487046 -0.0308956 -0.00583911 -0.00681029 0.0235471 0.0763249 0.0259909 0.0566779 -0.000819451 -0.0353668 -0.055675 0.0552678 0.0139277 0.0299646 0.0694763 -0.015715 0.0485241 0.0336585 -0.0242517
internal_weight=0 1.3959e+06 1.41677e+06 687277 896118 729495 499781 340254 443591 555864 424244 243685 269182 200356 241891 243235 305250 257890 178972 211937 128317 286682 262155 143549 162089 197333 128751 117783 159834 68012.3
internal_count=11251122 5583816 5667306 2749214 3584613 2918092 1999203 1361070 1774435 2223543 1697043 974779 1076770 801457 967601 972978 1221049 1031602 715917 847781 513289 1146773 1048661 574218 648382 789364 515025 471152 639360 272060
is_linear=0
shrinkage=1


Tree=1
num_leaves=31
num_cat=0
split_feature=28 1 1 28 28 28 28 1 1 1 0 1 1 28 1 1 0 1 1 0 0 28 28 28 2 0 28 1 1 1
split_gain=1.17024e+06 313466 308506 93289.4 62335.7 59272.8 40871.9 32399 31006.5 20208.6 19445.3 18830.8 17804.3 12171.3 11541.8 11039.3 8903.93 8285.97 6623.19 6465.17 6428.47 6282.16 5958.37 4685.97 4321.95 4252 3785.62 3708 3300.85 3050.09
threshold=1.0000000180025095e-35 0.086323594080898028 0.31299549789130632 0.68066864585037024 -0.82701651507992813 -0.82701651507992813 0.7421201689494793 -0.38860801390281435 0.90666000787094714 0.90666000787094714 1.0000000180025095e-35 -0.38860801390281435 0.90666000787094714 1.2665203591142624 0.90666000787094714 -0.6908372189833587 1.0000000180025095e-35 -0.48035616544512244 0.37775889897999415 1.0000000180025095e-35 1.0000000180025095e-35 -1.5022405295779049 1.1688372230871436 -1.5022405295779049 -0.24287603476243844 -0.24790540499492555 1.0626592792787808 -1.2089444276928629 1.2520648136772834 1.3815916158546593
decision_type=2 2 2 2 2 2 2 2 2 2 2 2 2 2 2 2 2 2 2 2 2 2 2 2 2 2 2 2 2 2
left_child=1 4 3 7 15 12 9 16 18 -4 13 20 21 17 26 -1 27 -5 -7 25 24 -3 -12 -17 -6 -9 -8 -2 -11 -10
right_child=2 5 6 10 11 8 14 19 29 28 22 -13 -14 -15 -16 23 -18 -19 -20 -21 -22 -23 -24 -25 -26 -27 -28 -29 -30 -31
leaf_value=-0.080044428217750874 -0.043206891339001255 -0.052306287450952726 0.028948906030594263 -0.0030001202037331612 -0.047028850999487865 -0.01440184387686529 0.046333998429167418 0.00032685906789950414 0.024479003054296539 0.047053238673402095 0.032262695901007186 -0.029792781018771659 -0.0031511546710957074 0.035593365023650778 0.070754585710576898 -0.072400195243316895 -0.002437130975319517 0.01985366283577757 0.0032299270188691949 0.011772216989911209 -0.033279799300107125 -0.029840374679374549 0.053583790158869077 -0.055797596663431676 -0.062798180710031737 -0.019944559621612241 0.060981412906306889 -0.025548554453400454 0.061281162891940313 0.043835194646349412
leaf_weight=186464.67878031731 42923.029392883182 49396.244509533048 201123.45554427803 73379.632049381733 74652.577471509576 85364.989563435316 90848.821555480361 114315.77494297922 72992.606232389808 116167.77293334901 84389.130300551653 163827.04532644153 49914.420127645135 61093.958355218172 211881.70917093754 71870.440250635147 33980.091818109155 86313.011653319001 141626.66999863088 109469.80330266058 36886.535305157304 84091.203049391508 53568.915832161903 104006.42845977843 103963.63813708723 33433.61787301302 85750.936460241675 96717.068132042885 62805.864411786199 28221.322682142258
leaf_count=746258 171762 197634 804900 293602 298724 341559 363615 457378 292147 465018 337715 655485 199761 244445 848389 287574 135957 345339 566729 438051 147578 336458 214399 416147 416043 133769 343238 386989 251476 112983
internal_value=0 -0.0359686 0.0289311 0.00698083 -0.056737 -0.00586081 0.0514813 -0.00870191 0.00686128 0.0398246 0.0258152 -0.0425698 -0.0286275 0.0166134 0.0628864 -0.0715684 -0.0253909 0.00935223 -0.00340087 0.00256298 -0.052283 -0.0381538 0.0405417 -0.0625821 -0.0562074 -0.00426029 0.0534463 -0.0309765 0.0520462 0.0298761
internal_weight=0 1.25328e+06 1.55816e+06 789584 741671 511607 768579 430839 328206 380097 358745 379330 183402 220787 388481 362342 173620 159693 226992 257219 215503 133487 137958 175877 178616 147749 176600 139640 178974 101214
internal_count=11251122 5015080 6236042 3159406 2967809 2047271 3076636 1723906 1313418 1521394 1435500 1517830 733853 883386 1555242 1449979 694708 638941 908288 1029198 862345 534092 552114 703721 714767 591147 706853 558751 716494 405130
is_linear=0
shrinkage=0.05


Tree=2
num_leaves=31
num_cat=0
split_feature=30 5 5 28 28 28 28 1 1 1 1 1 1 5 28 1 1 5 5 1 0 28 5 28 1 5 28 5 1 28
split_gain=1.06954e+06 368765 363974 92563.5 75218.8 55780.8 41293.6 40360.1 38972.8 24488.9 20642.9 19752.5 19443.3 12384.9 10326.8 9815.83 9282.09 8863.09 7168.74 6780.68 6663.02 6631.5 5758.19 5627.33 5558.57 4493.91 4426.08 4049.26 3984.57 3984.2
threshold=1.0000000180025095e-35 0.48948988291839207 0.48948988291839207 -1.0538705627488121 0.81312544886695937 -0.72898113744137871 0.7421201689494793 0.086323594080898028 0.60443080279040251 -0.12415745945733829 0.60443080279040251 0.086323594080898028 0.37775889897999415 -1.3066612303525054 -0.49378139885082567 -0.21590561099964631 0.90666000787094714 -1.3066612303525054 1.387565439553841 0.60443080279040251 1.0000000180025095e-35 1.2665203591142624 0.93852766123611653 -1.8495453697699589 0.60443080279040251 -1.3066612303525054 1.1949771840796186 1.387565439553841 -0.12415745945733829 -0.50214514337274363
decision_type=2 2 2 2 2 2 2 2 2 2 2 2 2 2 2 2 2 2 2 2 2 2 2 2 2 2 2 2 2 2
left_child=2 4 5 12 7 15 10 13 14 25 -3 17 23 -2 -5 -1 26 -6 29 -9 -15 -19 -14 -4 -11 -7 -8 -12 -16 -10
right_child=1 6 3 8 11 9 16 19 18 24 27 -13 22 20 28 -17 -18 21 -20 -21 -22 -23 -24 -25 -26 -27 -28 -29 -30 -31
leaf_value=-0.076478752297302291 -0.061494648382622988 0.02858894018234745 -0.065176261551553122 -0.01502154603442977 -0.034593582505610114 -0.077102795840148175 0.050053888844201783 -0.00049642265309204111 0.012645639637930124 -0.033022123756114914 0.047988363300474603 0.038029331638724261 -0.019978975638023668 -0.025989099723773612 -0.0061078492734386184 -0.058155576988077301 0.070377626086462738 0.0047573192363421692 0.054661363817064205 0.020947026619780061 -0.0067368632744709183 0.028602563728108987 0.023005291609403903 -0.040242375078866174 -0.0099622502299323307 -0.051937786349162574 0.063935844835656397 0.06848934739576773 0.011543271559430504 0.030284868944040717
leaf_weight=252064.51579371095 20656.980454206467 212479.01857046783 33986.430121451616 107959.00014087558 10419.86321566999 19558.101773902774 150456.44034518301 93800.32567986846 49876.994658261538 117154.76704163849 181886.26359039545 112299.45335069299 64181.520609200001 178315.6638815552 48632.478851914406 102943.98898008466 177955.33409442008 80585.557388916612 22032.178778678179 60736.752534493804 60085.224996581674 45688.117064341903 8867.6414874494076 67717.445330113173 33636.065334990621 190960.09001962841 92860.401175260544 27763.187436953187 93331.144101113081 89379.935995057225
leaf_count=1011636 82741 850585 136180 432053 41697 78438 602981 375371 199666 468820 729276 449879 256819 713750 194619 412266 715173 322473 88361 243191 240416 182879 35499 271181 134596 765041 372511 111531 373481 358012
internal_value=0 0.0286943 -0.0331819 -0.00395588 0.000779857 -0.0570895 0.0506243 -0.0122914 0.00899901 -0.0432589 0.039572 0.0224921 -0.0344401 -0.024355 -0.00336666 -0.0711655 0.0616991 0.00972765 0.02816 0.00793137 -0.0211369 0.013385 -0.014761 -0.0485746 -0.0278783 -0.0542758 0.0553519 0.0507033 0.00549653 0.0239671
internal_weight=0 1.50599e+06 1.30228e+06 585965 662588 716318 843401 413595 411212 361309 422128 248993 174753 259058 249923 355009 421272 136694 161289 154537 238401 126274 73049.2 101704 150791 210518 243317 209649 141964 139257
internal_count=11251122 6034454 5216668 2345871 2652397 2870797 3382057 1655469 1646192 1446895 1691392 996928 699679 1036907 1000153 1423902 1690665 547049 646039 618562 954166 505352 292318 407361 603416 843479 975492 840807 568100 557678
is_linear=0
shrinkage=0.05


Tree=3
num_leaves=31
num_cat=0
split_feature=30 1 1 1 1 1 1 30 30 30 30 30 30 30 30 30 1 30 1 1 4 4 1 4 4 1 30 1 4 1
split_gain=967496 275574 239111 46185.2 39585.5 36052.3 28556.9 20934.8 18071.7 17777.3 17506.4 11114.1 9545.95 7765.29 7552.57 7453.23 6620.63 5592.54 5531.24 5152.64 4662 4458.72 5378.36 3639.91 3314.04 3269.62 3098.7 2955.32 2861.12 2318.83
threshold=1.0000000180025095e-35 0.086323594080898028 0.37775889897999415 0.90666000787094714 -0.38860801390281435 -0.6908372189833587 0.90666000787094714 -0.82447069075817547 1.3658461894898724 0.92778281344026259 -0.38640731470856599 -0.38640731470856599 -1.2625340668077849 0.92778281344026259 -1.2625340668077849 -0.82447069075817547 0.086323594080898028 -1.2625340668077849 1.2520648136772834 0.37775889897999415 -0.69903277033746203 -0.85174340182576269 -0.9822725238824549 -0.85849523733897615 -0.85849523733897615 0.37775889897999415 -1.2625340668077849 0.60443080279040251 -0.62315798953088397 -4.1880608777725126
decision_type=2 2 2 2 2 2 2 2 2 2 2 2 2 2 2 2 2 2 2 2 2 2 2 2 2 2 2 2 2 2
left_child=1 5 4 7 8 11 13 12 21 16 14 17 -3 27 -7 20 24 -1 28 -14 -5 29 -23 -16 -6 -9 -22 -4 -8 -2
right_child=2 3 6 15 9 10 18 25 -10 -11 -12 -13 19 -15 23 -17 -18 -19 -20 -21 26 22 -24 -25 -26 -27 -28 -29 -30 -31
leaf_value=-0.082344481160888258 0.026309492433703199 -0.055067413574192731 0.030438403237984874 0.028291012571324683 -0.0020287698812515164 -0.071016250809540118 0.060678008861070901 -0.0074463878919517864 0.034298839571683025 0.049737510754728591 -0.024743934490731982 -0.04550082185385193 -0.02830947851128468 0.060720496673141527 -0.055989667628232653 0.033034874379551528 0.021774304276492747 -0.064114015651000042 0.064705809006554982 -0.013094656593662934 -0.033369160613531922 -0.015908541758925827 -0.00086551649127188958 -0.041839617444818004 0.011806484494502882 0.0093106727459792669 0.0067815620070742627 0.039893737569639619 0.048663753953115639 -0.030351675586747968
leaf_weight=52154.291471987963 1912.1408733278513 19992.486516714096 165883.38761469722 26869.811552703381 54702.192566543818 30617.530328467488 71068.935920834541 46222.772248923779 24723.092441722751 37521.823232844472 117580.69670146704 71780.344510182738 91613.93774060905 32617.735219851136 57611.365806877613 56636.633411467075 162092.81052395701 217564.66384850442 145573.0453671068 141738.29847501218 5159.5489343851805 111885.31972761452 126708.40429186821 215283.0582447499 207354.02297648787 78627.197454482317 69998.07357814908 164686.98461465538 163714.06639906764 32406.570323467255
leaf_count=210673 7672 80193 665562 107745 219071 123321 286718 185014 99144 150694 471238 288402 366972 131355 231370 227291 649552 876696 587643 567527 20651 448397 507476 864286 830532 314831 280458 661547 659268 129823
internal_value=0 -0.0315944 0.027319 -0.00415181 0.00758316 -0.0509137 0.0474733 -0.0136507 -0.00663533 0.0167497 -0.0411234 -0.0629859 -0.0219089 0.0374456 -0.0474688 0.0184899 0.0138315 -0.0676392 0.0570484 -0.019068 0.0104158 -0.0103436 -0.00791974 -0.0448269 0.00891848 0.00310676 0.00402519 0.035149 0.0523005 -0.0271946
internal_weight=0 1.29945e+06 1.50285e+06 536859 759306 762592 743544 378195 297636 461671 421093 341499 253345 363188 303512 158664 424149 269719 380356 233352 102027 272912 238594 272894 262056 124850 75157.6 330570 234783 34318.7
internal_count=11251122 5216668 6034454 2150682 3042361 3065986 2992093 1514537 1192512 1849849 1690215 1375771 1014692 1458464 1218977 636145 1699155 1087369 1533629 934499 408854 1093368 955873 1095656 1049603 499845 301109 1327109 945986 137495
is_linear=0
shrinkage=0.05


Tree=4
num_leaves=31
num_cat=0
split_feature=30 1 1 1 0 1 1 1 30 30 30 30 30 30 30 30 30 30 0 30 1 1 1 4 0 0 0 1 0 30
split_gain=875617 250511 217469 41715.7 39431.4 33238.4 26298.9 23156.4 18911.6 15966.4 11625 10288 9694.56 8903.36 8675.25 7122.02 6968.79 6753.48 5904.45 5231.64 5123.73 4754.82 4663.2 4235.43 3690.02 3657.12 3187.87 3005.19 2941.22 2899.25
threshold=1.0000000180025095e-35 0.086323594080898028 0.37775889897999415 0.90666000787094714 1.0000000180025095e-35 -0.6908372189833587 0.90666000787094714 -0.48035616544512244 -0.82447069075817547 -0.38640731470856599 1.3658461894898724 -0.38640731470856599 0.92778281344026259 0.92778281344026259 -1.2625340668077849 0.92778281344026259 -1.2625340668077849 -0.82447069075817547 -0.24790540499492555 -1.2625340668077849 1.2520648136772834 -1.2089444276928629 0.37775889897999415 -0.80725472319196501 1.0000000180025095e-35 1.0000000180025095e-35 1.0000000180025095e-35 0.60443080279040251 1.0000000180025095e-35 -1.2625340668077849
decision_type=2 2 2 2 2 2 2 2 2 2 2 2 2 2 2 2 2 2 2 2 2 2 2 2 2 2 2 2 2 2
left_child=1 5 4 8 7 11 15 10 14 16 21 19 -6 18 -3 26 -7 23 -9 -1 -8 -2 -16 -5 -18 -21 -4 -10 -13 -25
right_child=2 3 6 17 12 9 20 13 27 -11 -12 28 -14 -15 22 -17 24 -19 -20 25 -22 -23 -24 29 -26 -27 -28 -29 -30 -31
leaf_value=-0.079011536159600659 -0.027260185745051371 -0.05249529158504801 0.025824468068593454 0.029034415361524336 0.019419148030526193 -0.067953893098695525 0.049941166090547544 0.010603164348918113 -0.0020635043813314598 -0.023530232418181099 0.026369684929156062 -0.047752599707785143 0.051911888069279925 0.041694212082291092 -0.026920090595210333 0.05802614387888233 -0.04650665087715497 0.031446826661016385 -0.0083414136800618478 -0.063758563806421947 0.061918345380076983 -0.01106470734506901 -0.012441415107270216 -0.030817661395149454 -0.033775137361065771 -0.044105440631616394 0.036630484982041349 0.014951896274759078 -0.01991253534479993 0.0070587445231686018
leaf_weight=51649.038316130638 65434.413860365748 19925.100856870413 96467.938111200929 22531.066326662898 247145.68497405946 30402.741617947817 233610.82452310622 183820.75205397606 88037.026490792632 117466.15366482735 17483.012247830629 60286.121683090925 25306.489951953292 19284.58296521008 91527.285196021199 32430.326823800802 191031.10514132679 56524.724900513887 52983.991837441921 189153.19482858479 144545.75186757743 147427.23569789529 141721.6958591938 5422.2771041840315 81065.509241640568 27058.126751959324 233348.41212205589 36794.81104311347 11258.93914976716 74023.87155225873
leaf_count=210673 262497 80193 387566 90472 991053 123321 945986 736195 352424 471238 70136 243231 102156 77552 366972 131355 769982 227291 212169 767621 587643 590603 567527 21711 325674 109075 939543 147421 45171 296671
internal_value=0 -0.030101 0.0260175 -0.00394685 0.0072083 -0.0485793 0.0452963 -0.00132144 -0.012975 -0.0391752 -0.0128241 -0.0602154 0.0224372 0.00902489 -0.020828 0.0356683 -0.0452504 0.0175841 0.0063644 -0.0647144 0.0545193 -0.0160433 -0.0181229 0.00990015 -0.0427136 -0.0612991 0.0334698 0.00295188 -0.0433715 0.00447361
internal_weight=0 1.29588e+06 1.49929e+06 536508 758886 759371 740403 486434 378006 419966 230345 339405 272452 256089 253174 362247 302499 158502 236805 267860 378157 212862 233249 101977 272097 216211 329816 124832 71545.1 79446.1
internal_count=11251122 5216668 6034454 2150682 3042361 3065986 2992093 1949152 1514537 1690215 923236 1375771 1093209 1025916 1014692 1458464 1218977 636145 948364 1087369 1533629 853100 934499 408854 1095656 876696 1327109 499845 288402 318382
is_linear=0
shrinkage=0.05


Tree=5
num_leaves=31
num_cat=0
split_feature=5 1 1 29 29 29 29 1 29 27 1 5 27 1 1 1 27 27 27 1 1 27 27 29 27 5 27 27 2 29
split_gain=761027 147744 119776 66932.9 45593 28576.1 23423.9 19116.9 17791.2 15283.2 11780.5 11096.3 10460.9 10196 9630.27 8438.86 7919.67 7532.53 7066.94 6841.04 4618.29 4506.67 4300.27 4182.28 3763.36 3412.39 3094.16 3042.04 2897.44 2756.09
threshold=0.48948988291839207 0.086323594080898028 0.60443080279040251 0.34997853149154995 -0.20855925244717113 -0.079778992472946245 -0.25150171240045088 -0.6908372189833587 -0.72351270228606734 1.7678476768006981 -0.38860801390281435 -1.3066612303525054 -0.57663485496619715 0.60443080279040251 0.60443080279040251 1.1711105623164235 -0.50580498196999779 -0.65817849026434272 1.754569937195722 1.1711105623164235 -0.12415745945733829 -0.51555725278330766 1.7678476768006981 0.45535490912515181 -0.28228110351657471 1.387565439553841 1.7678476768006981 -0.50809424741913156 -0.53486031224490593 0.4418273218324294
decision_type=2 2 2 2 2 2 2 2 2 2 2 2 2 2 2 2 2 2 2 2 2 2 2 2 2 2 2 2 2 2
left_child=1 4 3 8 9 19 13 16 24 11 27 -1 20 26 29 23 -6 -13 21 -4 -10 -9 -14 -7 -2 -17 -3 -5 -16 -8
right_child=2 6 5 10 7 15 14 18 12 -11 -12 17 22 -15 28 25 -18 -19 -20 -21 -22 -23 -24 -25 -26 -27 -28 -29 -30 -31
leaf_value=-0.05810742301888442 0.029329676597598327 -0.0020152676296790986 0.044426008007240864 -0.034489122488543147 -0.062810003255572705 0.030395626490980699 -0.014762031630449098 -0.045917543713544978 -0.010164234704440474 0.0091293473351090719 -0.0017936358931725611 -0.034602638411027224 0.019676397815676112 0.023359075906771668 -0.014109010675952058 0.035221684659986693 -0.045800684555238773 -0.018128522462467097 -0.0026370207611772709 0.05810721368219314 0.011399624581899699 -0.033317919679412618 0.038993860256275291 0.014758555820987227 0.044856808626082045 0.055686232029148811 0.024625907906627297 -0.013704493794440005 0.0065442460297934699 -0.028556268422688165
leaf_weight=26255.710523456335 80206.132371902466 109377.35534155369 206088.89573062956 41019.656835466623 164611.54196715355 83769.613796755672 78259.831690192223 134598.84130856395 38850.763603121042 32280.032336503267 189486.67991153896 109900.45419961214 202648.75768624246 83202.345553815365 24233.656004577875 88725.651196315885 117131.00201013684 188224.69278071821 13800.281055614352 164154.30690537393 68798.572968050838 150136.53971727192 33584.039156705141 87347.606912001967 76005.432977035642 26441.077667564154 12104.798030033708 30840.281886234879 56744.87406720221 67394.456104487181
leaf_count=106046 322629 439000 836859 166392 674325 337993 313924 544962 156339 129564 761254 442509 813910 336043 97372 359069 475707 755504 55354 672112 276146 605207 135279 351134 306928 107532 48779 124352 228123 270775
internal_value=0 -0.0266019 0.0256691 0.0121755 -0.0377496 0.0413191 -0.00238611 -0.0463968 0.022892 -0.0236809 -0.00833092 -0.0269459 0.0165358 0.00987471 -0.0134595 0.0294562 -0.0557386 -0.0242015 -0.0375804 0.0504918 0.0036172 -0.039274 0.0224227 0.0224136 0.0368845 0.0399202 0.000639347 -0.025569 0.000363537 -0.0211447
internal_weight=0 1.36826e+06 1.41797e+06 761440 936939 656527 431317 580278 500094 356661 261347 324381 343882 204684 226633 286284 281743 298125 298536 370243 107649 284735 236233 171117 156212 115167 121482 71859.9 80978.5 145654
internal_count=11251122 5523194 5727928 3063229 3789178 2664699 1734016 2355555 2011231 1433623 1051998 1304059 1381674 823822 910194 1155728 1150032 1198013 1205523 1508971 432485 1150169 949189 689127 629557 466601 487779 290744 325495 584699
is_linear=0
shrinkage=0.05


Tree=6
num_leaves=31
num_cat=0
split_feature=28 5 5 28 28 28 3 28 3 3 3 3 3 28 3 28 4 4 28 28 28 3 28 4 28 3 3 28 3 3
split_gain=753271 291214 267571 76917.4 57309.7 47455.5 39122.5 30826.4 28439.9 18548.5 17857.4 17755.3 16161.1 10487.4 9983.76 7241.78 6771.89 6445.38 6392.22 6036.55 6010.04 5856.88 4029.85 3970.23 3726.49 3640.61 3381.06 3360.18 3345.52 2851.99
threshold=0.094508176574382166 0.48948988291839207 0.48948988291839207 -1.0538705627488121 0.81312544886695937 -0.72898113744137871 0.92243704643940105 0.7421201689494793 -1.1304404293928221 0.93148507349422427 -0.69100830828308502 1.0497934927784982 -1.1304404293928221 -0.49378139885082567 0.96085694091513052 0.49720252744893484 0.62493924801136258 0.42348324532491977 -1.2783699114881133 -1.8116168482120385 1.2491516086244621 1.4774124201165861 1.0782920725137453 0.63144784537079113 -0.25987458913671563 -0.50398926794155707 -0.67594753595468327 0.40891796982215617 -1.3650949289607726 1.7070899493954748
decision_type=2 2 2 2 2 2 2 2 2 2 2 2 2 2 2 2 2 2 2 2 2 2 2 2 2 2 2 2 2 2
left_child=1 5 4 11 8 18 13 9 16 27 17 19 23 -5 22 25 -2 -7 -1 -3 -14 -8 -9 -6 -12 -10 -20 -4 -19 -13
right_child=2 3 7 6 12 10 21 14 15 -11 24 29 20 -15 -16 -17 -18 28 26 -21 -22 -23 -24 -25 -26 -27 -28 -29 -30 -31
leaf_value=-0.068277583604856168 -0.049119347173029099 -0.05351762333192972 0.021121448037992541 -0.012027165973326016 -0.018738887844321928 -0.057659950773477048 0.024796120709107139 0.041936240749238039 -0.018067942792085043 0.049687034901657622 -0.032982824195392522 -0.0068875317217966907 0.019607659470042744 0.0070544414996903063 0.064218735198070309 0.0061178660716714123 -0.021739759841572396 -0.049311931640746216 -0.06202031108186238 -0.030943561101481384 0.03777442858387009 0.047083663494586786 0.054255635696725937 0.0085053783360623993 -0.019550772693476454 -0.0038109790183506243 -0.04766487349465167 0.032484541079875563 -0.029394745910682526 0.02589287872619403
leaf_weight=182350.4232558459 45798.009995922446 43669.559494748712 136985.54664263129 117859.74395598471 25760.619289815426 87277.61878927052 90297.032803460956 134952.28424748778 77313.900416389108 129149.02463415265 104043.39355818927 29052.765534773469 121330.93447177112 185088.48865553737 147518.49375896156 116669.71240191162 44554.572142526507 38236.515933319926 80180.862182319164 92019.009975269437 72868.505018159747 43763.463963955641 130651.33639752865 27806.426552221179 102514.66609951854 106401.82604809105 83979.163888141513 123908.98041087389 47000.924505725503 8599.1255342066288
leaf_count=752578 184324 177641 552784 473294 103395 354735 363183 548561 310280 527245 420123 116677 487729 743122 607998 468287 179226 155791 329762 370773 294070 177111 534107 111734 412359 426907 341574 500841 190320 34591
internal_value=0 -0.0270491 0.025065 -0.00159613 0.000906108 -0.0484597 0.00958275 0.044271 -0.0110222 0.0341898 -0.0362342 -0.0297792 0.0197176 -0.000369117 0.053789 -0.00362411 -0.035618 -0.048109 -0.0618341 -0.0382088 0.0264243 0.0320718 0.0479962 -0.00459652 -0.0263165 -0.00981081 -0.0546765 0.0265182 -0.0383294 0.00059907
internal_weight=0 1.33593e+06 1.44167e+06 610349 638505 725584 437009 803166 390738 390044 379073 173340 247766 302948 413122 300385 90352.6 172515 346510 135689 194199 134060 265604 53567 206558 183716 164160 260895 85237.4 37651.9
internal_count=11251122 5413634 5837488 2456392 2565952 2957242 1756710 3271536 1569024 1580870 1533328 699682 996928 1216416 1690666 1205474 363550 700846 1423914 548414 781799 540294 1082668 215129 832482 737187 671336 1053625 346111 151268
is_linear=0
shrinkage=0.05


Tree=7
num_leaves=31
num_cat=0
split_feature=30 3 3 28 28 28 3 3 28 3 3 3 3 3 28 28 28 28 28 3 3 3 3 28 28 3 3 3 28 3
split_gain=688431 233740 227346 61113.8 50692.7 42573.3 42271.1 33020.7 26649.5 21899.8 20117.9 19574.5 12846.9 10688.7 9637.07 8508 7353.79 5628.58 5387.94 5156.54 5039.76 4355.17 4284.98 3732.93 3339.73 2685.4 2646.41 2502.69 2460.12 2348
threshold=1.0000000180025095e-35 0.34733184246002835 -0.080361864942305766 -0.73970832877410075 0.63466809035838745 -1.0538705627488121 0.72997516422710351 -0.54823395372518779 0.61995476179103171 1.1363706664801214 -1.1304404293928221 -1.1304404293928221 -0.54823395372518779 1.2873075510766769 0.7421201689494793 1.0626592792787808 -1.475520606895514 -0.49378139885082567 1.0782920725137453 -1.2647442810298355 1.387765136148347 -0.041580843386623233 -0.50398926794155707 -1.8495453697699589 1.0626592792787808 0.35844856286656751 1.7459714561375208 1.387765136148347 -1.2783699114881133 0.73381652009116349
decision_type=2 2 2 2 2 2 2 2 2 2 2 2 2 2 2 2 2 2 2 2 2 2 2 2 2 2 2 2 2 2
left_child=1 3 4 12 10 13 8 19 25 17 -2 24 28 23 20 -13 -14 -7 -10 -5 -8 -9 -12 -3 -6 -4 -11 -16 -1 -19
right_child=2 5 6 7 11 9 14 21 18 26 22 15 16 -15 27 -17 -18 29 -20 -21 -22 -23 -24 -25 -26 -27 -28 -29 -30 -31
leaf_value=-0.069241814753406974 -0.037620236878428699 -0.044410426576039851 0.01198706468407214 -0.05498414082148452 -0.017510310636364743 -0.0044377897235400188 0.03793371228601785 -0.022843338825755705 0.034058184864453826 0.030717091879428577 -0.01488570450075772 0.012916008224709636 -0.058409293060381499 0.0089995079135410504 0.055013728737893987 0.032601830653866466 -0.039463894395731558 0.0064949550806716293 0.048396117341678424 -0.038089806667916476 0.055742890694430072 -0.0097138799904220637 -0.0008888603382365322 -0.02242972523596682 0.0043186696780612502 0.022994253960248456 0.051401907564680709 0.06676120372227741 -0.058180492855425515 0.020423665434066176
leaf_weight=112504.17160083354 76092.80242498219 27157.759262353182 127716.50676728785 70930.005045801401 43914.833287864923 83727.236811727285 133018.18193760514 139616.71249499917 156513.20573103428 65807.639208897948 107603.92107109725 134489.28548251092 83507.874114602804 23379.888305678964 137453.16564385593 92729.243398115039 132480.30018129945 72173.681009724736 112707.12440884113 124353.59919257462 56640.932290166616 115340.64576722682 111174.44303105772 66891.211870089173 29154.7250341326 97875.773543253541 20212.780293613672 67657.100010558963 90876.48755222559 52095.632484272122
leaf_count=472631 307030 110656 514625 291554 176513 336108 542740 563871 636337 265486 432014 540814 344908 93984 569009 375112 539670 289675 462855 506034 234349 463541 446325 269488 117142 396056 82334 283533 377194 209534
internal_value=0 -0.0268559 0.0231707 -0.0415467 -0.000749472 0.00419387 0.0391741 -0.0287543 0.0294388 0.0143583 -0.0154753 0.0137107 -0.0552809 -0.0212557 0.0513766 0.0209499 -0.0467888 0.00558272 0.0400607 -0.0442261 0.0432524 -0.0169037 -0.00777307 -0.028777 -0.00880056 0.0167627 0.0355776 0.0588887 -0.0642993 0.0123341
internal_weight=0 1.28106e+06 1.48474e+06 869610 595159 411446 889582 450241 494813 294017 294871 300288 419369 117429 394769 227219 215988 207997 269220 195284 189659 254957 218778 94049 73069.6 225592 86020.4 205110 203381 124269
internal_count=11251122 5216668 6034454 3559403 2394950 1657265 3639504 1825000 2009873 1183137 1185369 1209581 1734403 474128 1629631 915926 884578 835317 1099192 797588 777089 1027412 878339 380144 293655 910681 347820 852542 849825 499209
is_linear=0
shrinkage=0.05


Tree=8
num_leaves=31
num_cat=0
split_feature=28 5 5 28 28 28 28 5 5 28 5 28 28 28 5 28 28 5 28 5 5 28 5 5 28 28 28 28 28 28
split_gain=623308 267874 204767 62731.6 49662 36216 29558.2 11925.2 11029.6 10284.2 10099 7162.07 7116.69 7020.3 6820.76 6590.06 5717.65 4502.42 3104.92 3089.96 2800.6 2722.85 2299.97 2287.73 1773.72 1638.27 1568.06 1382.09 1308.09 1275.25
threshold=-0.076281244419208569 0.48948988291839207 0.48948988291839207 0.68066864585037024 -1.0834307952801303 0.60408262512498145 -0.99548183587930683 -1.3066612303525054 -1.3066612303525054 1.1688372230871436 1.387565439553841 -1.8116168482120385 -0.53730467773389901 0.34995187285444701 1.387565439553841 1.0288111718903543 -0.44366303987200545 0.93852766123611653 0.3781485170917615 -1.3066612303525054 1.387565439553841 -1.8116168482120385 -1.3066612303525054 0.93852766123611653 0.95274234350254006 1.4742266108762208 1.6965902144448008 -2.5560604831705578 -1.4576934886748489 -0.23193391797822552
decision_type=2 2 2 2 2 2 2 2 2 2 2 2 2 2 2 2 2 2 2 2 2 2 2 2 2 2 2 2 2 2
left_child=2 3 6 7 11 14 21 -2 -5 24 12 23 -6 -9 18 20 22 28 -3 -18 -7 -1 -8 27 -10 -17 -11 -4 -13 -14
right_child=1 5 4 8 10 15 16 13 9 26 -12 17 29 -15 -16 25 19 -19 -20 -21 -22 -23 -24 -25 -26 -27 -28 -29 -30 -31
leaf_value=-0.067774541606729619 -0.050767395289566197 0.022587475278924435 -0.057712213886091338 -0.025937986441095504 -0.0050089520013125131 0.040664906898541638 -0.064970402462241186 -0.018944049314696558 0.0059448582151821246 0.026679155326190581 0.036543727426076388 -0.030347467157459181 0.0065166690068513807 -0.005156843362491885 0.049928637675722198 0.051970039922130042 -0.058740192877216525 0.016412850434530907 0.032374594616086723 -0.030384171997922857 0.059005737846582862 -0.056800531179559244 -0.042900149530841869 -0.0032117887251474977 0.015955631106799106 0.062332310981657327 0.046515040876564953 -0.039598323803169522 -0.01878030457468691 0.014993715061196478
leaf_weight=85245.047822877765 22519.643873184919 249585.51650504768 14949.555114850402 16203.998071804643 142838.92885135114 223262.1465806365 12622.646712481976 226606.63170711696 124999.54809074104 97726.648831620812 24691.101029977202 37738.642302319407 113788.37660527229 155817.54387705028 31710.793927669525 182034.9013209343 10181.001858070493 7833.2280317693949 119999.19759275019 170513.04202316701 22954.283349379897 167791.73049461842 182196.12102903426 3510.5793248713017 68493.197398781776 48258.374900281429 11094.454294890165 35632.235106900334 69367.985571220517 72718.126165434718
leaf_count=363787 92099 1013192 61829 65267 574440 919983 53261 912760 502623 395882 100761 153034 457371 626025 132427 760011 42529 31552 489799 694113 97100 703485 750333 14165 275795 203280 45235 146283 280201 292500
internal_value=0 0.0201758 -0.0280555 -0.00235072 -0.00494356 0.0387415 -0.0472889 -0.0154087 0.0142503 0.0164044 0.00570188 -0.0272403 0.00338964 -0.0133265 0.0276747 0.0480616 -0.0383883 -0.0201798 0.0257652 -0.0319819 0.0423748 -0.0604976 -0.0443302 -0.0422431 0.00948851 0.0541415 0.0287015 -0.044952 -0.022856 0.00982184
internal_weight=0 1.60127e+06 1.15162e+06 723462 523069 877805 628550 404944 318518 302314 354037 169032 329345 382424 401296 476510 375513 114940 369585 180694 246216 253037 194819 54092.4 193493 230293 108821 50581.8 107107 186507
internal_count=11251122 6531478 4719644 2915686 2112136 3615792 2607508 1630884 1284802 1219535 1425072 687064 1324311 1538785 1635418 1980374 1540236 464787 1502991 736642 1017083 1067272 803594 222277 778418 963291 441117 208112 433235 749871
is_linear=0
shrinkage=0.05


Tree=9
num_leaves=31
num_cat=0
split_feature=1 3 3 1 3 3 3 27 27 15 3 1 15 1 27 15 27 1 27 15 27 2 3 2 15 27 15 27 27 27
split_gain=487227 126403 114024 31513.1 23625.5 22630.3 18452.3 13583.9 11114.2 9695.39 9661.75 8765.05 6948.11 6134.52 6120.84 6031.25 5531.59 4884.08 4389.78 4678.38 4247.16 3953.73 3645.46 3226 3002.93 2911.23 2789.6 2713.66 2584.65 2391.47
threshold=0.086323594080898028 -0.34122370971292942 0.62750529115349496 0.60443080279040251 -1.1304404293928221 0.44855303927889795 1.212668753009893 0.11856927662675153 -0.42851938040724108 1.0000000180025095e-35 -0.16296479286922821 1.1711105623164235 1.0000000180025095e-35 -0.9822725238824549 1.7678476768006981 1.0000000180025095e-35 1.7678476768006981 0.90666000787094714 1.7678476768006981 1.0000000180025095e-35 -0.42851938040724108 -0.52920900364847101 1.7708212766969065 -0.53862785130919577 1.0000000180025095e-35 -0.50809424741913156 1.0000000180025095e-35 1.7678476768006981 -0.51555725278330766 0.47349699186045408
decision_type=2 2 2 2 2 2 2 2 2 2 2 2 2 2 2 2 2 2 2 2 2 2 2 2 2 2 2 2 2 2
left_child=1 4 3 10 13 7 17 9 12 28 27 21 -6 25 26 20 -9 24 19 -12 -7 -5 -8 -13 -4 -1 -10 -2 -3 -17
right_child=2 5 6 11 8 15 22 16 14 -11 18 23 -14 -15 -16 29 -18 -19 -20 -21 -22 -23 -24 -25 -26 -27 -28 -29 -30 -31
leaf_value=-0.060109812360305805 -0.010814337791524461 -0.030611477336046185 0.018922348979407068 0.0052282480590860672 -0.044143223863856502 -0.0096933557175013126 0.043533160099024255 -0.0036827258423869896 -0.028501805215452619 -0.0072964534956151536 -0.0025955829684871719 0.017162356592187785 -0.026356697904141652 -0.039490047504665254 0.0034031380759363475 0.015211729078721615 0.021241054345933121 0.036399664827041926 0.028690147044638539 0.011287199198790008 0.010353538505201937 0.018278532792018829 0.056980661933585808 0.036462508890288882 0.031165026861854302 -0.046165886817511742 -0.01558914788316817 0.012522877782576439 -0.017525555378621091 0.036067707383925972
leaf_weight=89194.279985666275 177618.11732837558 102314.85598240793 110316.09282337129 85105.071913704276 127944.40072901547 46330.321009680629 174481.67606954277 103624.00184449553 108538.42126840353 126040.01243820786 131963.4160835892 30098.905300706625 96184.065491169691 129637.49226312339 23965.246135994792 59249.140312239528 28352.998490914702 149591.69431874156 19080.311122536659 112351.21722763777 61481.705907791853 182478.56930601597 70869.087969556451 77145.34633679688 91743.935494080186 64506.347625315189 68051.156510844827 13395.956908419728 59782.441771373153 17896.789495646954
leaf_count=381172 718230 423201 449398 347136 538820 188588 728282 420157 445754 511050 534387 123969 394409 534448 96802 239922 115152 624182 78358 455134 249503 743818 300236 318195 376098 267878 275467 54300 243739 73337
internal_value=0 -0.021978 0.0202319 0.0082363 -0.0363191 -0.00519691 0.0368937 -0.0116129 -0.0288587 -0.0176977 -0.000616266 0.0189684 -0.0365102 -0.047501 -0.0203079 0.0093764 0.00167173 0.0295512 0.00559247 0.00378859 0.00173874 0.0141279 0.0474175 0.0310458 0.0244811 -0.0542577 -0.0235258 -0.00917768 -0.0257853 0.0200501
internal_weight=0 1.31309e+06 1.42624e+06 829237 708021 605072 597002 420114 424683 288137 454409 374828 224128 283338 200555 184958 131977 351652 263395 244315 107812 267584 245351 107244 202060 153701 176590 191014 162097 77145.9
internal_count=11251122 5399399 5851723 3373527 2934750 2464649 2478196 1713299 1751252 1177990 1840409 1533118 933229 1183498 818023 751350 535309 1449678 1067879 989521 438091 1090954 1028518 442164 825496 649050 721221 772530 666940 313259
is_linear=0
shrinkage=0.05


Tree=10
num_leaves=31
num_cat=0
split_feature=28 1 1 28 28 28 28 1 1 0 1 1 1 28 1 0 1 0 28 0 1 28 0 1 2 4 4 4 4 28
split_gain=549126 159508 132448 57564.3 31029.5 28138.1 27632.2 17616.8 14415.7 12725 10786.1 9472.19 8021.35 6477.83 6273.57 5694.84 5087.24 4494.79 4357.94 4318.68 3645.1 3488.32 3373.49 3130.12 3111.89 2652.96 2622.83 2298.98 2282.67 2182.85
threshold=-0.089619316056667939 0.37775889897999415 0.086323594080898028 0.63466809035838745 -0.99548183587930683 0.60408262512498145 -1.0402349281307961 -0.38860801390281435 0.90666000787094714 1.0000000180025095e-35 -0.38860801390281435 0.90666000787094714 1.1711105623164235 1.1200194278994242 0.90666000787094714 1.0000000180025095e-35 -0.9822725238824549 1.0000000180025095e-35 1.0782920725137453 1.0000000180025095e-35 -0.6908372189833587 1.1047706221615077 -0.24790540499492555 0.37775889897999415 -0.24287603476243844 -0.69355495968396907 -0.41788535414833045 -0.65820135811617064 -0.71588962054363281 -1.5022405295779049
decision_type=2 2 2 2 2 2 2 2 2 2 2 2 2 2 2 2 2 2 2 2 2 2 2 2 2 2 2 2 2 2
left_child=2 3 4 7 16 11 14 15 23 13 19 -3 18 20 -4 26 -1 22 -7 24 -5 -11 -9 -8 -6 -13 -2 -12 -10 -18
right_child=1 5 6 9 10 12 8 17 28 21 27 25 -14 -15 -16 -17 29 -19 -20 -21 -22 -23 -24 -25 -26 -27 -28 -29 -30 -31
leaf_value=-0.061881370860256801 -0.034956779743023095 0.01684316873352144 -0.031387273022214092 -0.0069217616531847912 -0.034347345934767383 0.03373189423077879 -0.012627267933972459 -0.0015930342878664083 0.031045517747972075 0.023711237954732973 -0.031302949293754836 0.044263632231885987 0.05336231655331989 0.022416890229081967 -0.0074702618029286912 -0.0021953330179026007 -0.053788871806395681 0.0073774151024723691 0.04632953320776708 -0.023325222404687377 0.010082491593118671 0.0397138291911657 -0.019000318268463007 -0.00049274023688405087 -0.047676353150755101 0.029586781172409857 -0.020138272799380446 -0.018215416398282766 0.013455673450907117 -0.042487572888289867
leaf_weight=112476.70575074852 40960.737121731043 184911.92010779679 100837.13310451806 45506.909540727735 74248.312108233571 168018.25234009326 85745.858651727438 124198.58567970991 24799.585096612573 84725.863303005695 47329.457076102495 42405.338025018573 144090.24121531844 81370.80260309577 37657.838031262159 36694.532034337521 86232.203523039818 117698.08562423289 116081.30596420169 36361.634376883507 102510.94329437613 56942.519373357296 35871.527303099632 139774.5301001668 106749.08588168025 112409.53713414073 110193.66914281249 115301.4859033376 71971.438424229622 84698.411060541868
leaf_count=493285 166758 751891 411041 183491 309393 696993 345683 500033 101994 343661 193401 179201 621544 330968 151560 147838 369193 474101 489918 149092 413413 235012 144482 562179 450829 467278 449027 470441 291859 355563
internal_value=0 0.0187726 -0.0267985 0.00366975 -0.0411018 0.0352277 -0.00620588 -0.00803803 0.00182051 0.0183611 -0.031763 0.0244825 0.0437529 0.0110845 -0.0248841 -0.0198645 -0.0536231 -4.00216e-05 0.0388792 -0.0390496 0.00485467 0.0301434 -0.005494 -0.00510645 -0.0422086 0.0336069 -0.0241539 -0.0220242 0.0179635 -0.048189
internal_weight=0 1.60459e+06 1.12418e+06 836674 663397 767917 460786 465617 322291 371057 379990 339727 428190 229389 138495 187849 283407 277768 284100 217359 148018 141668 160070 225520 180997 154815 151154 162631 96771 170931
internal_count=11251122 6595609 4655513 3388784 2791197 3206825 1864316 1882239 1301715 1506545 1573156 1398370 1808455 927872 562601 763623 1218041 1118616 1186911 909314 596904 578673 644515 907862 760222 646479 615785 663842 393853 724756
is_linear=0
shrinkage=0.05


Tree=11
num_leaves=31
num_cat=0
split_feature=30 5 5 28 28 28 28 3 3 3 3 3 3 3 28 4 28 4 28 28 28 28 3 4 4 3 4 28 3 3
split_gain=501801 189590 188724 48318.3 40518.5 32991.8 25450.4 23050.3 21890.2 15788.5 15006.8 12266.9 9886.08 7144.3 6541.96 6464.34 6323.8 5418 5239.86 4949.59 3889.6 3498.13 3218.82 3057.27 2949.31 2856.31 2781.66 2769.27 2412.06 2117.3
threshold=1.0000000180025095e-35 0.48948988291839207 0.48948988291839207 -0.90977357126595793 0.85846879280035548 -0.72898113744137871 0.78871188211089172 0.99083779763980051 -1.1304404293928221 0.99083779763980051 1.034760979080805 -0.80121026710167087 -1.182884566128936 0.96085694091513052 0.49720252744893484 0.62493924801136258 -1.5022405295779049 0.57232778659010364 -1.475520606895514 -0.44366303987200545 0.40891796982215617 1.2844602407968881 -0.91061255396632101 0.63144784537079113 -0.47368896552678857 1.4774124201165861 -0.41334391127785253 1.3410645746800285 1.7070899493954748 1.4774124201165861
decision_type=2 2 2 2 2 2 2 2 2 2 2 2 2 2 2 2 2 2 2 2 2 2 2 2 2 2 2 2 2 2
left_child=1 5 4 10 8 18 9 19 15 20 16 17 23 27 26 -2 -3 -7 -1 -5 -4 -14 -20 -6 -13 -9 -10 -8 -12 -11
right_child=2 3 6 7 12 11 13 25 14 29 28 24 21 -15 -16 -17 -18 -19 22 -21 -22 -23 -24 -25 -26 -27 -28 -29 -30 -31
leaf_value=-0.060152247116105007 -0.042139647686537808 -0.040536929449334291 0.016511810775806969 -0.0075031592798751878 -0.017442186038729223 -0.051449728637784589 0.037479727033389199 0.022422602016478537 -0.015902125467829521 0.037717708057518305 -0.002848907181010349 -0.030110998816220803 0.017492473781064714 0.055337338923451385 0.005746231062221583 -0.016647914127926915 -0.020266210618094228 -0.031393425340599308 -0.055854926785182314 0.0062768169774651888 0.027748706691514493 0.032170263659372672 -0.042441122762872041 0.0087486126957226351 -0.01816362448795172 0.039818286818964203 -0.0037883211481728679 0.049722737011564024 0.02479700746893913 0.050922277523394704
leaf_weight=133679.82650595903 49953.035676926374 69310.547102794051 161181.89074476063 107013.27860662341 21016.890914767981 73222.063652455807 174156.44598305225 65206.051482900977 77488.267470598221 80547.617943286896 35749.885160669684 86888.565480932593 113100.43948207796 129322.90575763583 135397.02536153793 49526.742678150535 86483.305697470903 62343.119863674045 70002.152016237378 166635.94895039499 147472.27444387972 63320.070912256837 123856.17278452218 23715.071373358369 127389.36189182103 36980.480259552598 122003.67686779797 62860.552109032869 10124.0608715415 48723.222556978464
leaf_count=592899 204236 289240 657424 431017 84620 309142 731807 264485 311790 338410 144179 354938 458117 566330 545298 201345 351623 261622 306821 670870 607736 260343 524182 95676 521193 153362 490972 269809 41095 210541
internal_value=0 -0.0231877 0.0199293 -0.00213943 1.58731e-05 -0.0411324 0.0361598 0.00845476 -0.00885405 0.0280248 -0.0218832 -0.0304553 0.0174374 0.0458845 -0.00273642 -0.0294484 -0.0292844 -0.0422264 -0.0525365 0.000888018 0.0218807 0.0227606 -0.0472849 -0.0035569 -0.0230082 0.028718 -0.00849367 0.0407268 0.00325239 0.0426947
internal_weight=0 1.25488e+06 1.45979e+06 577504 655521 677381 804265 375836 434369 437925 201668 349843 221152 366340 334889 99479.8 155794 135565 327538 273649 308654 176421 193858 44732 214278 102187 199492 237017 45873.9 129271
internal_count=11251122 5216668 6034454 2345871 2652397 2870797 3382057 1519734 1753641 1814111 826137 1446895 898756 1567946 1348060 405581 640863 570764 1423902 1101887 1265160 718460 831003 180296 876131 417847 802762 1001616 185274 548951
is_linear=0
shrinkage=0.05


Tree=12
num_leaves=31
num_cat=0
split_feature=28 3 3 28 28 28 3 3 0 3 28 3 3 3 4 0 3 3 0 0 28 0 4 28 4 1 4 28 4 0
split_gain=456130 187886 128346 51433.7 34965.2 33040.5 21825 21033.2 19581 19134 18036.2 12264.3 11866.1 10317 8039.92 6639.65 6389.25 6375.56 5574.43 5186.54 4760.99 4711.46 4126.85 4102.72 3765.15 3384.22 3180.69 3113.65 2922.61 2872.21
threshold=-0.16130292139703326 0.025715047030699906 0.41746777426910703 0.58120381497115836 0.54732403331088642 -1.0402349281307961 -0.4923021606881357 -0.80121026710167087 1.0000000180025095e-35 0.90090302247202014 -1.0834307952801303 0.81959002756612775 -0.8519866034892597 1.212668753009893 0.61962419573935834 1.0000000180025095e-35 -0.54823395372518779 1.3092542838662264 1.0000000180025095e-35 1.0000000180025095e-35 0.99014369096001598 1.0000000180025095e-35 -0.13818240832299239 1.0626592792787808 -0.47368896552678857 -0.38860801390281435 0.093880149824355219 -1.8495453697699589 -0.43935271522883373 1.0000000180025095e-35
decision_type=2 2 2 2 2 2 2 2 2 2 2 2 2 2 2 2 2 2 2 2 2 2 2 2 2 2 2 2 2 2
left_child=2 3 5 7 9 16 18 14 12 21 17 20 22 -12 29 24 -1 -4 26 -8 -6 -3 -5 -10 -9 -16 -7 -18 -14 -2
right_child=1 4 10 8 11 6 19 15 23 -11 13 -13 28 -15 25 -17 27 -19 -20 -21 -22 -23 -24 -25 -26 -27 -28 -29 -30 -31
leaf_value=-0.058007066736477278 -0.044356946171327905 0.0055116437240923842 -0.022042537069838358 -0.032381232724653396 0.027599935084051959 -0.054609046401640687 -0.02503768161601147 -0.024027069025654629 0.017969727922432358 0.036306190038640544 0.0032942670955094749 0.04987634502187175 -2.0714050455411587e-08 0.029006495871354277 -0.026353675905081298 0.0037786761231597189 -0.053949436740256096 0.0083649380802661068 -0.026692623441936805 -0.010309896904427246 0.040630477816864241 0.018792420144931113 -0.0068669531216871103 0.034078860075396247 -0.0066962381348943251 -0.0042035318579278121 -0.039640314475999659 -0.038643910413835574 0.016952813048415911 -0.022666157614008836
leaf_weight=138998.65161511302 64340.066968515515 112325.06056451797 81451.460513219237 22457.879334196448 145544.40639637411 61421.385489955544 135843.68761068583 47577.328228607774 98360.265039414167 136019.25755168498 147024.57044678926 208844.71143162251 38659.665032923222 53104.797631248832 37785.109412565827 110989.03766684234 47718.233612149954 21866.145910158753 50596.167875230312 106756.99475239217 135233.18885537982 164698.17393992841 53852.69061255455 66076.98446264863 91820.079271331429 31721.101233035326 84060.16139921546 109439.38015840948 74251.117526188493 20008.200348854065
leaf_count=629073 267079 453407 333688 90744 605147 265248 559484 192706 400007 574994 592138 918893 155755 218409 156498 447321 209662 88266 209504 432028 578000 674625 217440 274443 371026 127977 362667 463548 300509 80836
internal_value=0 0.0162514 -0.0259977 -0.00210329 0.0316624 -0.0372944 -0.028583 -0.0142864 0.0118224 0.0209483 0.00135851 0.0407008 0.00085479 0.0101171 -0.0288361 -0.00534615 -0.050198 -0.0156071 -0.0409883 -0.0185567 0.033876 0.0134074 -0.0143757 0.024443 -0.0126114 -0.0162449 -0.0459601 -0.0432912 0.0111483 -0.0392117
internal_weight=0 1.66056e+06 1.03828e+06 757900 902665 734835 438678 404241 353659 413042 303447 489622 189221 200129 153854 250386 296156 103318 196078 242601 280778 277023 76310.6 164437 139397 69506.2 145482 157158 112911 84348.3
internal_count=11251122 6887407 4363715 3082341 3805066 3131214 1828931 1643443 1438898 1703026 1232501 2102040 764448 810547 632390 1011053 1302283 421954 837419 991512 1183147 1128032 308184 674450 563732 284475 627915 673210 456264 347915
is_linear=0
shrinkage=0.05


Tree=13
num_leaves=31
num_cat=0
split_feature=30 30 30 30 2 7 2 2 6 11 27 2 2 27 2 7 4 6 30 2 7 6 2 21 7 7 30 2 30 7
split_gain=416083 44405 26224.8 26007.3 14309.4 4419.96 4197.75 3171.4 2853.46 2026.59 1866.38 1755.03 1698.96 1661.47 1317.89 1370.91 1204.12 1095.53 946.107 932.928 791.025 880.001 756.258 666.634 622.935 581.519 453.309 427.324 407.872 378.331
threshold=1.0000000180025095e-35 -0.82447069075817547 0.92778281344026259 -1.2625340668077849 -0.19766556599095955 -0.6925791708880612 -0.054499081547943244 -0.075220546401537705 1.2857337551351986 1.0000000180025095e-35 3.3581545990049579 -0.33141320277325115 0.53135324294913699 -0.79466449634169911 -0.59325716774139947 0.4177314832842553 0.40153753322588076 1.4221688325047437 2.0229412535642868 1.2509532042285088 0.93587645523133645 1.4027704802721068 -0.56123308569493524 1.0000000180025095e-35 -0.1004134886628258 -0.1004134886628258 -2.1386608189070038 1.2509532042285088 -2.5767241949566135 -2.0249519558948408
decision_type=2 2 2 2 2 2 2 2 2 2 2 2 2 2 2 2 2 2 2 2 2 2 2 2 2 2 2 2 2 2
left_child=1 3 5 11 14 9 22 10 19 13 16 28 24 29 15 -5 -7 -14 -4 -9 21 27 -3 -15 -6 -16 -13 -8 -1 -2
right_child=2 6 18 4 12 7 20 8 -10 -11 -12 26 17 23 25 -17 -18 -19 -20 -21 -22 -23 -24 -25 -26 -27 -28 -29 -30 -31
leaf_value=-0.046033016457433441 0.019992312941495477 0.0012293931951617239 0.038178029605715404 -0.018706617948830256 -0.022729039871781286 0.0175737682681853 -0.012152228785754613 0.0089014983226353393 0.017726817233353977 0.0088652624793811776 0.03350293162634823 -0.059366700345232795 -0.038683080935844952 0.024427717301447511 -0.014744168417652618 -0.010814152132023167 0.013008669689265088 -0.029945356394046069 0.050066645690346204 -0.00013494258124046652 -0.020366659212038632 -0.0042760072896322141 -0.004770906327095762 0.034507703822750577 -0.030105596005860175 -0.02237990008278589 -0.050768946749778936 -0.021240153852624899 -0.034019029996616698 0.012900068315692967
leaf_weight=20544.906808555126 39525.544612646103 98010.476336598396 105765.17885805666 147902.41497199237 35627.044166922569 461491.08490327001 72798.982155203819 203459.97040578723 99427.995499923825 28458.68282674253 15851.36402875185 42431.439257234335 105915.37594616413 172804.14144748449 29145.516552180052 87613.619419917464 210262.15040802956 54249.473326578736 19881.747399702668 33226.775936290622 28745.807560548186 33727.546793222427 113121.72697898746 18123.259036809206 145564.49045363069 172616.3221860826 24013.737923249602 15730.223804324865 10769.695359528065 35868.753683924675
leaf_count=91025 165595 401244 457247 614509 150563 1933048 300816 836760 409761 117425 67321 194287 460030 730015 121422 364833 867901 231310 86683 136080 119057 138596 463717 77634 618784 724084 109059 65900 47432 148984
internal_value=0 -0.0212662 0.0182327 -0.027352 -0.0243 0.0161528 -0.00653807 0.0145993 0.0106189 0.0215476 0.016545 -0.0516603 -0.0319717 0.0229029 -0.0183112 -0.0157706 0.0161449 -0.0357235 0.0400593 0.00763294 -0.0129035 -0.0111487 -0.00198549 0.0253845 -0.0286552 -0.0212769 -0.0562595 -0.013767 -0.0419013 0.0166182
internal_weight=0 1.23853e+06 1.44415e+06 876394 778634 1.3185e+06 362135 1.02372e+06 336115 294780 687605 97759.8 341356 266322 437278 235516 671753 160165 125647 236687 151003 122257 211132 190927 181192 201762 66445.2 88529.2 31314.6 75394.3
internal_count=11251122 5216668 6034454 3727338 3285535 5490524 1489330 4250871 1382601 1239653 2868270 441803 1460687 1122228 1824848 979342 2800949 691340 543930 972840 624369 505312 864961 807649 769347 845506 303346 366716 138457 314579
is_linear=0
shrinkage=0.05


Tree=14
num_leaves=31
num_cat=0
split_feature=28 5 5 28 28 0 3 3 3 3 3 28 28 28 28 0 0 4 0 4 0 28 3 4 4 3 28 28 3 28
split_gain=380284 184240 138888 44919 35035.4 28008 19359 18169.1 17419.1 15347.6 13033.1 12762.2 10162.9 9830.35 7003.95 6658.85 6279.26 4515.55 4157.76 3683.52 3300.37 3199 3023.34 2997.71 2920.12 2646.81 2456.27 2076.39 2065.5 1993.48
threshold=0.19332960686996165 0.48948988291839207 0.48948988291839207 -0.76494852692255899 -0.68856398405556274 1.0000000180025095e-35 0.92243704643940105 1.0593913595882298 -1.2406357321933124 0.99083779763980051 -1.1013323732358671 0.8762271929640485 0.88890246608403667 0.89416892485650756 -1.5022405295779049 1.0000000180025095e-35 1.0000000180025095e-35 0.77873551829721543 1.0000000180025095e-35 0.59943324617453142 1.0000000180025095e-35 -1.2783699114881133 1.4774124201165861 -0.41788535414833045 -0.38677942200538384 1.6665968542379161 0.8762271929640485 0.51078606277973437 -1.0716775522238629 -1.8116168482120385
decision_type=2 2 2 2 2 2 2 2 2 2 2 2 2 2 2 2 2 2 2 2 2 2 2 2 2 2 2 2 2 2
left_child=1 4 5 9 16 8 18 11 19 14 17 20 27 23 -3 24 21 -6 -5 -2 -4 -1 -8 -10 -12 29 -9 -7 -23 -11
right_child=2 3 7 6 10 12 22 26 13 25 15 -13 -14 -15 -16 -17 -18 -19 -20 -21 -22 28 -24 -25 -26 -27 -28 -29 -30 -31
leaf_value=-0.056900587959325691 -0.039620609967905368 -0.036313922946591436 0.015869853990769695 -0.0030134483093043284 -0.050634032423139158 0.00029316228712355591 0.022247094256970149 0.042136097436422784 -0.016537597104106887 -0.020402176745474551 -0.033360157967534887 0.038968598911809899 0.026855977649377083 0.012292837912712656 -0.015855036291219905 -0.010574649054353716 -0.035529593894684207 -0.02897123002240511 0.0092352544186999324 -0.017678354273654516 0.026704314038655055 -0.054932553790368654 0.038887998389314636 -0.0031681840846327428 -0.020603898094579774 0.024813479666862467 0.053313306206973526 0.011893885231329903 -0.041176535938787562 0.0051531130392649628
leaf_weight=127292.1389605701 39703.902421325445 65839.071762651205 108895.49728614092 121357.92019549012 55306.469660058618 77153.862091109157 84705.478193834424 110336.95431895554 71037.096650183201 9554.5897630602121 78093.161245957017 205168.90017649531 95359.367688581347 82831.726137399673 114731.71879410744 112315.72912865877 83861.844275638461 42574.507028505206 161454.12867583334 36905.617046996951 198265.38112950325 40358.560717940331 40271.115309253335 102320.3560988903 105436.73554576933 13904.984846428037 88646.136953905225 77136.384207338095 84272.590875446796 37905.77987767756
leaf_count=597695 163267 281863 445654 489441 239708 310323 347519 485663 286264 39159 324708 894819 396083 336586 468940 456021 362227 181291 653384 150292 834331 185545 170905 412088 438998 56770 406565 312717 369381 152915
internal_value=0 -0.0182691 0.0194687 0.00109486 -0.0355152 0.00136458 0.0112212 0.034293 -0.00813178 -0.0159733 -0.0253962 0.0293129 0.0140238 -0.00187641 -0.0233147 -0.0201636 -0.0473804 -0.0412116 0.0039792 -0.0290503 0.0228633 -0.0513254 0.0276093 -0.00864661 -0.0260318 0.00562907 0.0471155 0.00609287 -0.0456311 8.36095e-06
internal_weight=0 1.37924e+06 1.29376e+06 649725 729512 582448 407789 711313 332799 241936 393727 512330 249650 256189 180571 295846 335785 97881 282812 76609.5 307161 251923 124977 173357 183530 61365.4 198983 154290 124631 47460.4
internal_count=11251122 5816470 5434652 2660896 3155574 2367620 1661249 3067032 1348497 999647 1640726 2174804 1019123 1034938 750803 1219727 1514848 420999 1142825 313559 1279985 1152621 518424 698352 763706 248844 892228 623040 554926 192074
is_linear=0
shrinkage=0.05


Tree=15
num_leaves=31
num_cat=0
split_feature=28 3 3 28 28 3 0 3 3 28 3 3 28 1 4 4 28 0 28 28 1 3 0 1 0 4 3 4 28 3
split_gain=345776 148626 117327 38827.5 30827.1 28084 24674.5 19786.1 15265 14081.6 13168.8 11915.3 8063.01 7990.3 7854.53 6556.79 5856.85 5308.66 4709.7 4608.93 4251.56 4088.75 3860.71 3856.07 3471.25 3179.93 3069.78 3049.88 2599.21 2305.38
threshold=0.17191938057342615 0.19172803790163087 -0.17571029412834352 -0.76494852692255899 -0.76494852692255899 0.70545050951300359 1.0000000180025095e-35 -0.67594753595468327 0.99083779763980051 0.84780358632988151 -1.3227964874255858 1.0497934927784982 0.90605784292516167 -0.43718056471933059 -0.27317237426804736 0.11064313362536056 0.8762271929640485 1.0000000180025095e-35 -1.5022405295779049 0.85846879280035548 -0.38860801390281435 1.387765136148347 1.0000000180025095e-35 0.60443080279040251 1.0000000180025095e-35 0.59943324617453142 -0.67594753595468327 -0.5704295923999213 -1.5022405295779049 -0.91061255396632101
decision_type=2 2 2 2 2 2 2 2 2 2 2 2 2 2 2 2 2 2 2 2 2 2 2 2 2 2 2 2 2 2
left_child=1 3 6 13 11 9 10 15 24 22 25 18 23 29 26 -5 21 27 -3 -16 -17 -7 -4 -8 -6 -2 -12 -9 -15 -1
right_child=2 4 5 7 8 16 12 17 -10 -11 14 -13 -14 28 19 20 -18 -19 -20 -21 -22 -23 -24 -25 -26 -27 -28 -29 -30 -31
leaf_value=-0.056888850101811175 -0.040229814599091342 -0.032655138902604873 0.0078382440511738077 -0.04672050055958861 -0.0027255277741474312 0.030310797024184738 -0.0012653457587963252 -0.029906658138049675 0.027554957339813516 0.032110303066437876 -0.028943743099455594 0.0069660676956523424 0.025082608080666591 -0.044899220536562055 -0.0040877389912832036 -0.035265762652140369 0.047831982305542996 -0.0055578943628912143 -0.013817039948518715 0.015361067622033743 -0.015725723306166596 0.045997282582607817 0.019573662482357455 0.017891039416949379 0.0097969533939149152 -0.018894584411439888 -0.0089897186473661406 -0.014897797827380141 -0.030989641465138596 -0.045889318745289738
leaf_weight=90079.965832307935 35467.174167141318 51221.515120372176 120267.55172811449 70243.736605197191 95127.501447126269 146163.60167323053 89690.984382018447 49137.347388118505 105711.68981093168 193657.03060701489 32681.138220608234 54463.483639374375 74350.967971667647 50611.888221293688 88200.262204244733 68704.792750179768 148002.50174658 118242.87605200708 94191.074024170637 46532.623281553388 46801.168154090643 58036.282698661089 167952.66067706048 37151.011647552252 132315.69369833171 34408.586916655302 46986.261876627803 108777.83708961308 99841.422715947032 101107.71489267051
leaf_count=436064 147007 219338 488098 305427 383792 628634 360603 204782 440934 835961 132670 220969 310110 228453 355872 300550 680968 479224 384954 189124 193663 263094 698949 151924 536037 140545 189601 448904 428230 466641
internal_value=0 -0.0179291 0.0181522 -0.0315088 0.00254245 0.0295267 -0.00139028 -0.0220564 0.0118561 0.021683 -0.0108734 -0.0129815 0.0120089 -0.0442886 -0.00472975 -0.0346743 0.0402584 -0.0135693 -0.0204528 0.00262929 -0.0273485 0.0347691 0.0146768 0.00434542 0.00455946 -0.0297239 -0.0171753 -0.019568 -0.0356688 -0.0510719
internal_weight=0 1.33658e+06 1.31955e+06 803549 533031 834080 485469 461908 333155 481877 284276 199876 201193 341641 214400 185750 352202 276158 145413 134733 115506 204200 288220 126842 227443 69875.8 79667.4 157915 150453 191188
internal_count=11251122 5677962 5573160 3491938 2186024 3595704 1977456 1932550 1360763 2023008 1154819 825261 822637 1559388 867267 799640 1572696 1132910 604292 544996 494213 891728 1187047 512527 919829 287552 322271 653686 656683 902705
is_linear=0
shrinkage=0.05


Tree=16
num_leaves=31
num_cat=0
split_feature=5 30 30 3 0 1 3 3 30 30 30 1 0 4 3 1 1 30 30 3 30 30 4 2 3 30 3 0 1 4
split_gain=316163 146440 124520 26976.1 26320.4 20979.5 19308.9 16300 12695.5 8599.13 8344.36 7427.58 6314.1 5884.38 5548.1 5469.27 5039.08 4774.61 4550.75 4319.89 3645.91 3624.63 2909.39 2880.97 2793.64 2645.57 2528.29 2488.02 2471.78 2431.04
threshold=0.48948988291839207 1.0000000180025095e-35 1.0000000180025095e-35 0.92243704643940105 1.0000000180025095e-35 -0.38860801390281435 1.0915971983040091 -0.890951141225656 -0.82447069075817547 -1.7005974428573947 -0.82447069075817547 0.60443080279040251 1.0000000180025095e-35 -0.039766652999477951 -1.1248826292456762 0.60443080279040251 -0.12415745945733829 0.92778281344026259 -0.82447069075817547 -1.6449869159712092 0.92778281344026259 0.92778281344026259 -0.65253641533847129 -0.24287603476243844 1.7708212766969065 -1.7005974428573947 -0.67594753595468327 1.0000000180025095e-35 0.37775889897999415 0.91947356645029321
decision_type=2 2 2 2 2 2 2 2 2 2 2 2 2 2 2 2 2 2 2 2 2 2 2 2 2 2 2 2 2 2
left_child=1 5 3 8 7 14 12 13 9 -2 28 21 -4 -3 29 25 -11 22 -16 -15 23 26 -9 -14 -17 -5 -6 -12 -7 -1
right_child=2 4 6 15 11 10 -8 17 -10 16 27 -13 20 19 18 24 -18 -19 -20 -21 -22 -23 -24 -25 -26 -27 -28 -29 -30 -31
leaf_value=-0.056902079694838507 -0.040343887997733634 -0.037608514563984188 0.018105278468381735 -0.029598160841177581 -0.0044315833729317491 -0.034601703029804136 0.043485944721262194 -0.011515438594546299 0.0058595519982404037 -0.020939617333777031 -0.021562047340582882 0.022751873549354793 0.023965608540449587 -0.028833507811390553 -0.042582700050424672 0.019247252659482499 -0.0058878415404274506 0.02378525257233639 -0.024559654855771385 -0.0071256325284022844 0.044656198763313219 0.028293053593974694 0.00072152181530523492 0.033340267051699367 0.039957266455806849 0.0079639326107793385 0.0080320742500487492 -0.0064980330481514796 -0.022634305803882183 -0.042591348991838585
leaf_weight=81310.476644709706 27126.507119432092 45896.698491662741 195341.51465988159 5054.7819153666496 67642.387300029397 156260.40902465582 198830.99086672068 73426.143611013889 119608.37894578278 81991.209632217884 57415.095789939165 89059.228535160422 210342.4736174643 38235.356573522091 145031.84228900075 79431.490849226713 172786.22737970948 17422.307464465499 46175.636431187391 57208.738750383258 34546.309968620539 15541.863284617662 143503.25064408779 134268.21467788517 20482.622789770365 64534.982639551163 102112.79721970856 52450.107194960117 59606.37613658607 46735.377689749002
leaf_count=389508 121791 189926 816239 21238 272849 687811 917156 296421 482361 343218 238215 370840 909582 158320 674530 327480 701143 72589 196786 232794 160181 66110 578875 578899 87490 261150 413673 212925 248871 222151
internal_value=0 -0.0176362 0.0169801 -0.000728761 -0.000888255 -0.0345155 0.0300562 -0.009486 -0.00778991 -0.0135812 -0.025588 0.0108852 0.0254082 -0.0228966 -0.0436242 0.0159973 -0.0107317 -0.00139789 -0.0382302 -0.0158219 0.0291706 0.00518165 -0.00342044 0.0276182 0.0234929 0.0052355 0.00306568 -0.0143704 -0.0312972 -0.0516789
internal_weight=0 1.29503e+06 1.34435e+06 571016 650049 644985 773330 375692 401512 281904 325732 274356 574499 141341 319253 169504 254777 234352 191207 95444.1 379157 185297 216929 344611 99914.1 69589.8 169755 109865 215867 128046
internal_count=11251122 5523194 5727928 2345871 2652397 2870797 3382057 1528925 1648513 1166152 1387822 1123472 2464901 581040 1482975 697358 1044361 947885 871316 391114 1648662 752632 875296 1488481 414970 282388 686522 451140 936682 611659
is_linear=0
shrinkage=0.05


Tree=17
num_leaves=31
num_cat=0
split_feature=28 3 3 28 28 28 3 3 3 3 28 3 3 0 0 1 28 0 0 0 28 3 3 1 0 0 0 3 3 1
split_gain=290152 138282 86757.3 40571.7 26103.1 24671.1 17809 16227.1 13581.6 13142.4 11183.7 9652.46 8140.34 7265.28 6354.93 4870.83 4446.57 4421.28 4085.71 4012.5 3968.93 3328.54 3223.79 2905.18 2659.75 2630.83 2492.57 2432.67 2131.64 2045.53
threshold=-0.20464873087203139 0.091016907522697532 0.42335756558554766 0.58120381497115836 0.51551766619805195 -1.1703458212437392 -0.67594753595468327 -0.54823395372518779 -0.78724762519525893 0.81246353813081107 -1.3240415642938739 0.96085694091513052 1.212668753009893 1.0000000180025095e-35 1.0000000180025095e-35 -0.38860801390281435 1.0845536449432205 1.0000000180025095e-35 1.0000000180025095e-35 1.0000000180025095e-35 1.0288111718903543 -1.400477433458535 1.3092542838662264 0.37775889897999415 1.0000000180025095e-35 1.0000000180025095e-35 1.0000000180025095e-35 -1.6449869159712092 -1.400477433458535 0.60443080279040251
decision_type=2 2 2 2 2 2 2 2 2 2 2 2 2 2 2 2 2 2 2 2 2 2 2 2 2 2 2 2 2 2
left_child=2 3 5 6 9 15 13 17 14 26 23 20 25 21 27 -1 24 28 -8 -9 -6 -2 -11 -4 -10 -12 -3 -5 -7 -15
right_child=1 4 10 8 11 7 18 19 16 22 12 -13 -14 29 -16 -17 -18 -19 -20 -21 -22 -23 -24 -25 -26 -27 -28 -29 -30 -31
leaf_value=-0.051203366226816018 -0.040411494792966456 0.0035903145181395224 -0.027360645772717393 -0.024193201948005047 0.024561372718378171 -0.049806666672252413 -0.0093767411165551293 -0.022133159787216583 0.005361029730713552 0.022690570582071527 -0.0069336346742221227 0.044702256504259484 0.022979553347232472 -0.013959063457275447 0.011567328212357059 -0.036787671288803489 0.026182330675323898 -0.022766217576219862 0.0032082483145102615 -0.0094751192829682068 0.036305865120990877 -0.024054605350868168 0.037368647599346036 -0.0065722388733007939 0.018570469248632756 0.0062154115328840274 0.014065776509146239 -0.0055362700921350282 -0.036397572237299815 0.0087399639690721714
leaf_weight=131655.07639358938 49809.743036746979 96512.871030464768 32412.806897222996 25095.62029722333 171679.59508508444 44647.176393002272 140924.62466098368 144139.88822135329 75039.215834572911 95347.82421849668 63556.46416567266 160898.94640925527 56949.679551184177 45640.12877817452 48701.820588052273 105596.63162782788 88038.479607090354 44969.390262767673 118906.61489892006 110681.35631687939 123818.13219574094 82814.038540616632 61561.771516248584 34904.455365270376 77429.210302785039 94751.857253134251 137957.1299123168 57514.486003518105 88174.112825512886 12683.01533319056
leaf_count=653935 215997 390932 138983 102888 736785 212790 573049 611793 303059 405724 257536 763230 236319 185707 199857 474222 374472 193024 481945 453362 560320 345810 276276 142413 321506 382669 571606 232580 401122 51211
internal_value=0 0.0125525 -0.0220287 -0.00205216 0.0267235 -0.0318299 -0.0121371 -0.0247239 0.0101744 0.0172492 0.00120565 0.0348481 0.00676827 -0.0237301 -0.0027584 -0.0447872 0.0172354 -0.0363171 -0.00361747 -0.0166352 0.0294825 -0.0301978 0.0284494 -0.0165817 0.0120693 0.000936428 0.00975386 -0.011204 -0.040905 -0.0090229
internal_weight=0 1.67037e+06 952439 822597 847776 669864 450778 432612 371819 391380 282575 456397 215258 190947 131312 237252 240507 177791 259831 254821 295498 132624 156910 67317.3 152468 158308 234470 82610.1 132821 58323.1
internal_count=11251122 7092954 4158168 3388081 3704873 3000248 1853719 1872091 1534362 1644538 1157920 2060335 876524 798725 535325 1128157 999037 806936 1054994 1065155 1297105 561807 682000 281396 624565 640205 962538 335468 613912 236918
is_linear=0
shrinkage=0.05


Tree=18
num_leaves=31
num_cat=0
split_feature=5 30 30 1 3 1 3 3 30 3 0 30 30 30 1 1 30 4 3 30 4 1 4 30 30 30 3 3 30 3
split_gain=265193 124330 103981 22330.2 22195.1 19003.2 17113.4 13937.3 9169.59 7002.31 6666.83 6410 5752.84 5676.59 5639.29 5563.54 5228.34 4811.21 4178.12 4000.13 3691.88 3202.02 3027.3 2907.81 2857.37 2525.78 2442.85 2107.08 2083.93 1977
threshold=0.48948988291839207 1.0000000180025095e-35 1.0000000180025095e-35 0.086323594080898028 0.74548723834065156 -0.12415745945733829 1.0915971983040091 -1.3048064249020757 -1.7005974428573947 -1.0716775522238629 1.0000000180025095e-35 -0.82447069075817547 0.92778281344026259 -0.82447069075817547 0.90666000787094714 0.90666000787094714 -0.38640731470856599 -0.38677942200538384 1.4774124201165861 0.92778281344026259 0.30675116828760213 -0.12415745945733829 0.91947356645029321 0.92778281344026259 -1.2625340668077849 -1.2625340668077849 1.647193720494313 0.59882749151993764 -0.82447069075817547 -2.4012200209221697
decision_type=2 2 2 2 2 2 2 2 2 2 2 2 2 2 2 2 2 2 2 2 2 2 2 2 2 2 2 2 2 2
left_child=1 5 4 7 8 9 14 20 -2 22 25 21 17 -7 19 23 24 -9 28 27 -3 -10 -1 -5 -11 -6 -8 -4 -12 -22
right_child=2 3 6 15 10 13 26 12 11 16 18 -13 -14 -15 -16 -17 -18 -19 -20 -21 29 -23 -24 -25 -26 -27 -28 -29 -30 -31
leaf_value=-0.052844187353494824 -0.039126324754020309 -0.038986755588510114 0.015980005922967656 0.0048035395077459155 -0.033650961872192874 -0.026605972537534928 0.03685232044711894 -0.013538475591769752 -0.019721800922643123 -0.054072214054701334 0.0075782658994977452 0.0039989817987240821 0.021071118536751976 -0.010441717306639564 0.031320020810252015 0.02426222485229728 -0.021333324167167295 -2.9676076181993373e-05 0.030679408319657375 0.036982104528394455 -0.03592356521291707 -0.0068918496101557595 -0.037858502861713342 0.026659708900780829 -0.03554020317748862 0.0016083296485974671 0.049035978567698618 0.023812529036820268 0.021946855300798748 -0.012906686453703957
leaf_weight=94003.437050044537 23018.271797269583 33538.545951530337 240674.95402619243 185756.70325124264 5497.194853156805 154288.54983541369 133091.96814098954 107910.42287664115 74055.037477195263 23942.195218831301 76660.929322063923 100368.00163558125 22370.684269934893 83823.267956748605 160073.4287892282 57139.218404665589 63695.95795314014 169349.85367912054 42442.323586821556 32810.316991522908 11927.87586261332 141653.2375882566 52537.541063219309 16575.875752940774 158500.24509017169 66768.887327328324 59551.991074934602 133491.9992723316 37616.850800201297 42825.162405014038
leaf_count=465094 106676 141766 1009810 755991 23791 671281 625045 437383 313599 125140 311683 404741 93754 343382 727865 240712 271908 684537 180719 152775 50111 576626 256638 71738 737354 272086 292111 574451 155950 176405
internal_value=0 -0.0162623 0.0156439 -0.000869416 -0.000536845 -0.0320604 0.0277435 -0.00846401 -0.00865837 -0.0388183 0.0114899 -0.00643953 -0.00331939 -0.0209156 0.0233695 0.0104849 -0.0336664 -0.00528734 0.0172833 0.0202423 -0.0259231 -0.0112965 -0.0474716 0.00659409 -0.0379722 -0.00107385 0.0406187 0.0187744 0.012308 -0.0179209
internal_weight=0 1.27819e+06 1.32778e+06 647394 568081 630791 759695 387923 339095 392679 228986 316076 299631 238112 567051 259472 246138 277260 156720 406977 88291.6 215708 146541 202333 182442 72266.1 192644 374167 114278 54753
internal_count=11251122 5523194 5727928 2652397 2345871 2870797 3382057 1583956 1401642 1856134 944229 1294966 1215674 1014663 2464901 1068441 1134402 1121920 648352 1737036 368282 890225 721732 827729 862494 295877 917156 1584261 467633 226516
is_linear=0
shrinkage=0.05


Tree=19
num_leaves=31
num_cat=0
split_feature=28 5 5 28 28 28 28 1 1 0 1 1 0 0 5 5 4 28 28 1 1 1 1 5 5 5 4 28 2 1
split_gain=242766 129265 84848.9 32037.4 30541.2 16786.3 12025.6 11425.7 11187.9 9751.04 7749.53 5859.59 5804.44 5011.58 4877.51 3598.46 3403.75 3393.64 3274.85 2891.57 2683.03 2640.33 2548.68 2418.43 2341.57 2283.57 1999.94 1898.74 1640.56 1613.86
threshold=0.26163473130168574 0.48948988291839207 0.48948988291839207 -0.82701651507992813 -0.68856398405556274 0.95274234350254006 0.93268827711842017 -0.12415745945733829 0.60443080279040251 1.0000000180025095e-35 0.37775889897999415 0.90666000787094714 1.0000000180025095e-35 1.0000000180025095e-35 -1.3066612303525054 -1.3066612303525054 -0.12119607086942341 -1.7140475163059805 -1.475520606895514 0.90666000787094714 -0.12415745945733829 0.60443080279040251 0.60443080279040251 1.8366032178715652 1.387565439553841 -1.7556990086702295 -0.29339976756504799 -1.5022405295779049 -0.32011058558038147 0.90666000787094714
decision_type=2 2 2 2 2 2 2 2 2 2 2 2 2 2 2 2 2 2 2 2 2 2 2 2 2 2 2 2 2 2
left_child=1 4 5 10 12 9 11 15 20 14 17 -4 18 25 -2 -6 -17 -3 -1 -8 -5 -9 -11 27 -10 -7 -16 -12 -24 -15
right_child=2 3 6 8 7 13 19 21 24 22 23 -13 -14 29 26 16 -18 -19 -20 -21 -22 -23 28 -25 -26 -27 -28 -29 -30 -31
leaf_value=-0.052019245066400044 -0.038960450306747739 -0.036046764063847755 0.019039597416565582 -0.004154738268686029 -0.047626230025291059 -0.021992957231207748 0.032956397284896875 -0.014045809526738548 0.016379903608995924 0.0012460276495214458 -0.015960852216048965 0.031876217133189604 -0.02895921450202589 0.019695574631533954 -0.014864816271909598 -0.032852429042243052 -0.019935983688029985 -0.017431739854296229 -0.039820644735663852 0.043863419837803709 0.0062438035801685174 -0.00011632209910176603 0.0029437774262116123 0.024018759752611012 0.033277011619215174 0.0087723698701863261 -0.0046849548631615256 -0.0005734808308605555 0.022429857318601278 0.036305176405494785
leaf_weight=90565.743660598993 14552.492957249284 34444.900075346231 257976.38570405543 94961.272259876132 20025.858516916633 6465.8260802328587 146523.85946233571 143358.70055012405 163993.69255928695 102691.20610095561 30891.843183800578 135646.00686743855 79727.539997324347 65882.223421707749 83299.361789941788 88844.48185454309 119757.73637861013 84664.762350320816 140184.55048108101 103826.71668709815 178892.62520460784 44604.334536656737 16981.433820843697 7276.3609240651131 23433.031751692295 89788.654368340969 114656.99087664485 57114.549392670393 29680.772397309542 18797.600857108831
leaf_count=475821 62999 158934 1100151 385626 95332 26536 670841 592219 685774 413966 128213 632778 362227 277662 338639 388869 523540 357174 676800 514747 726058 180063 70303 30139 106435 367140 465427 231058 123000 82651
internal_value=0 -0.0140875 0.0166381 0.00165744 -0.0287195 0.00207594 0.0289123 -0.0198727 0.00907998 -0.00414159 -0.0143127 0.0234632 -0.0405899 0.0145108 -0.0110225 -0.0273808 -0.0254372 -0.022815 -0.0446084 0.0374798 0.00263802 -0.0107403 0.0056489 -0.00368423 0.0184925 0.00670571 -0.00896861 -0.00597474 0.0153385 0.0233827
internal_weight=0 1.40274e+06 1.18677e+06 675673 727069 542797 643973 416591 461281 361862 214392 393622 310478 180934 212509 228628 208602 119110 230750 250351 273854 187963 149353 95282.8 187427 96254.5 197956 88006.4 46662.2 84679.8
internal_count=11251122 6104282 5146840 2809411 3294871 2228323 2918517 1780023 1903893 1474334 905518 1732929 1514848 753989 867065 1007741 912409 516108 1152621 1185588 1111684 772282 607269 389410 792209 393676 804066 359271 193303 360313
is_linear=0
shrinkage=0.05


Tree=20
num_leaves=31
num_cat=0
split_feature=28 3 3 28 28 28 3 3 3 3 3 28 3 3 3 28 3 3 28 28 3 28 3 28 3 2 3 3 28 28
split_gain=222144 109171 66766.5 28731.3 27666 22641.9 15742.3 14691.8 11848.4 9564.17 7747.87 7204.47 5235.8 5080.12 3804.65 3160.57 2900.97 2732.89 2675.63 2565.49 2168.02 2026.86 1860.37 1811.61 1782.86 1735.1 1644.65 1610.04 1331.56 1257.69
threshold=-0.23193391797822552 -0.080361864942305766 0.52970671474180919 0.63466809035838745 0.60408262512498145 -1.1856086728054536 0.73381652009116349 -0.67594753595468327 -1.1304404293928221 0.81959002756612775 -0.78724762519525893 -1.3240415642938739 -0.54823395372518779 1.3092542838662264 1.3092542838662264 1.3175766427814155 -0.50398926794155707 -0.041580843386623233 1.2491516086244621 1.1688372230871436 1.5263050894462038 -2.1818124034388355 -1.400477433458535 0.34995187285444701 1.3092542838662264 -0.18636294879808987 -1.81281368199222 -1.81281368199222 -0.71210656627646218 -0.57578749853840161
decision_type=2 2 2 2 2 2 2 2 2 2 2 2 2 2 2 2 2 2 2 2 2 2 2 2 2 2 2 2 2 2
left_child=2 3 5 8 6 12 23 22 27 15 19 24 -1 28 -8 25 -10 -9 -12 26 -11 -14 -7 -3 -4 -6 -5 -2 -13 -19
right_child=1 4 11 10 9 7 14 17 16 20 18 13 21 -15 -16 -17 -18 29 -20 -21 -22 -23 -24 -25 -26 -27 -28 -29 -30 -31
leaf_value=-0.049040040788189812 -0.035899205843995287 0.0041176666243378408 -0.017625127360636542 -0.021131040921760484 0.019017785701461828 -0.042175710828206273 0.01976788169384016 -0.01969639075591037 -0.012651422073644995 0.036512118629610069 0.010942581588867906 -0.0026267638516982304 -0.046525160086916338 0.022360819090350866 0.03440631200061163 0.035271426393200064 -0.0029596984218389819 -0.01441031799669525 0.025028451080065201 0.0084281047192589949 0.049019458179158801 -0.030877093571969039 -0.030217566238564003 0.01245895233308598 0.0027014337188225337 0.028316789122601205 -0.0033382953138360581 -0.022755260646447444 0.0073526029646470911 -0.0051587567254870641
leaf_weight=101923.86632323265 35682.408084958792 213213.72342291474 43139.908492550254 16267.275578930974 143840.40226788819 50331.643212735653 130124.09509576857 147683.24000276625 151791.14080858231 128152.60568091273 124170.55994811654 59793.365519404411 25731.161892831326 44871.467623710632 67369.419896006584 59186.700973838568 157147.70456460118 78388.419307976961 46277.954515397549 41048.971173167229 47487.798912554979 105718.70396961272 91937.220037311316 93700.218574479222 14384.841120481491 77028.255996957421 64417.190008148551 67132.787478625774 75804.780164077878 69133.72490568459
leaf_count=542476 158589 873486 183224 67511 631998 249254 561521 643698 626064 622579 510956 242554 129520 189036 313590 278807 640115 327405 199978 169265 245972 488028 428524 391629 58524 338759 261873 287588 307021 281578
internal_value=0 0.0108513 -0.0198864 -0.00410534 0.0218173 -0.0279583 0.0137499 -0.0212492 -0.0126145 0.030747 0.00788615 0.00286636 -0.0405349 0.00777784 0.0247614 0.0250105 -0.00772154 -0.0148882 0.014767 -0.00174828 0.0398937 -0.0339402 -0.0344481 0.00666425 -0.0125422 0.0222608 -0.00692562 -0.0273169 0.0029521 -0.0100747
internal_weight=0 1.66404e+06 908842 703936 960103 670848 504407 437474 411754 455696 292182 237994 233374 180470 197494 280055 308939 295205 170449 121733 175640 131450 142269 306914 57524.7 220869 80684.5 102815 135598 147522
internal_count=11251122 7180280 4070842 2921939 4258341 3090483 2140226 1930459 1712356 2118115 1209583 980359 1160024 738611 875111 1249564 1266179 1252681 710934 498649 868551 617548 677778 1265115 241748 970757 329384 446177 549575 608983
is_linear=0
shrinkage=0.05


Tree=21
num_leaves=31
num_cat=0
split_feature=28 5 5 28 28 28 28 3 3 0 3 3 1 3 0 4 1 28 3 1 4 0 0 3 4 1 4 2 28 3
split_gain=202107 115563 68079.3 29523.1 23234.1 13604.9 12260.2 10927.8 10154.7 9730.02 9094.27 7995.99 6201.65 5662.21 4839.15 4644.93 4014.3 3835.29 3227.03 2972.83 2960.49 2944.98 2552.36 2496.6 2467.92 2443.59 2326.28 1957.51 1860.92 1776.16
threshold=-0.26329934584764131 0.48948988291839207 1.0000000180025095e-35 0.54732403331088642 0.51551766619805195 -1.2936176933242645 -1.1703458212437392 -1.1013323732358671 1.1363706664801214 1.0000000180025095e-35 0.97511278862174466 1.0915971983040091 -0.12415745945733829 -0.935489151785039 1.0000000180025095e-35 0.77057482370802022 -0.12415745945733829 1.0288111718903543 -1.1248826292456762 0.90666000787094714 -0.20052326149541505 1.0000000180025095e-35 1.0000000180025095e-35 1.0987031391984854 0.021042800636846902 -0.38860801390281435 0.19443772482201485 0.42962968821330949 1.0626592792787808 1.6665968542379161
decision_type=2 2 2 2 2 2 2 2 2 2 2 2 2 2 2 2 2 2 2 2 2 2 2 2 2 2 2 2 2 2
left_child=2 3 6 7 8 16 25 15 21 13 22 17 18 20 24 -2 -4 -6 -8 28 -5 -3 -7 -18 -9 -1 -20 -16 -11 -12
right_child=1 4 5 9 11 10 12 14 -10 19 29 -13 -14 -15 27 -17 23 -19 26 -21 -22 -23 -24 -25 -26 -27 -28 -29 -30 -31
leaf_value=-0.048576283380704348 -0.036511308233821052 0.0043012401416225379 -0.033221696314220971 -0.029056284825822273 0.021871404090543528 -0.010534138563720083 -0.042205153732548094 -0.017897438486432351 0.0289741703024128 0.0079407987891510906 0.010897020003487093 0.041381656858843235 -0.017490305221107262 0.0055985545026983581 -0.0044479990953052136 -0.014961798923776548 -0.018739099024520409 0.032665883140759432 -0.033544845249253143 0.029264888287497973 -0.0058403485796441647 0.013860136797408683 0.00019583399090554538 0.002180465807888496 -0.0064879608226594667 -0.036314741537550842 -0.019012789742413119 0.0092583116737296901 0.020402187067197614 0.028877565965437276
leaf_weight=101087.0926130563 56146.573033064604 131366.79170680046 37782.054704502225 18674.689973011613 197363.20490911603 102865.02923160791 57995.208327233791 115284.1197861135 90961.877092212439 82570.18651637435 64435.275736838579 120253.45499488711 112088.75732955337 130395.07924979925 102654.91505031288 45086.270261079073 53179.837521582842 141131.14683811367 68873.456734001637 33034.707905456424 51881.484163835645 208406.73829862475 120166.3752541244 19488.712738782167 80485.160820931196 67946.806874230504 45887.566831484437 34907.870552927256 47020.178658351302 17455.314066380262
leaf_count=558679 250649 536245 176634 77249 875564 424236 295556 477671 418286 337259 263956 616268 482040 531349 415947 193527 228282 673676 320165 144450 212156 879872 486612 79149 332319 330355 213895 141512 201871 75693
internal_value=0 0.0100822 -0.0195938 -0.00373031 0.0224762 -0.00496681 -0.0329799 -0.0125262 0.0141366 0.00678303 0.000479338 0.0303066 -0.0266495 -0.000575274 -0.00815672 -0.0269138 -0.020002 0.026372 -0.0325922 0.0158755 -0.0119851 0.0101644 -0.00475297 -0.0131288 -0.0132068 -0.0436475 -0.0277342 -0.000969888 0.0124623 0.0147297
internal_weight=0 1.68762e+06 869251 798141 889483 415373 453879 434565 430735 363576 304922 458748 284845 200951 333332 101233 110451 338494 172756 162625 70556.2 339774 223031 72668.6 195769 169034 114761 137563 129590 81890.6
internal_count=11251122 7315870 3935252 3315959 3999911 1734562 2200690 1811625 1834403 1504334 1250497 2165508 1311656 820754 1367449 444176 484065 1549240 829616 683580 289405 1416117 910848 307431 809990 889034 534060 557459 539130 339649
is_linear=0
shrinkage=0.05


Tree=22
num_leaves=31
num_cat=0
split_feature=5 1 1 29 1 0 29 1 1 4 2 1 27 4 1 5 27 29 1 29 2 0 4 0 0 29 4 0 1 4
split_gain=183644 49679.6 40452.5 14579.7 12975.2 10277.4 9729.48 8389.11 6637.77 6579.04 4651.03 4436.04 3834.6 3815.34 3393.86 3009.86 2501.57 2488.33 2450.77 2362.12 2055.6 1924.42 1774.16 1752.24 1547.28 1489.4 1470.3 1451.54 1445.35 1420.93
threshold=1.0000000180025095e-35 -0.21590561099964631 0.60443080279040251 -0.28101648882894209 0.60443080279040251 1.0000000180025095e-35 -0.28101648882894209 -1.2089444276928629 -0.38860801390281435 -0.12119607086942341 -0.41806660125191891 1.3815916158546593 1.7678476768006981 -0.068612254173335552 1.1711105623164235 -1.7556990086702295 1.7678476768006981 -1.2758145736642492 1.1711105623164235 -0.28101648882894209 -0.58760585914496455 1.0000000180025095e-35 -0.72123995416727571 1.0000000180025095e-35 1.1632298738329838 -0.28101648882894209 0.98849066704271504 1.0000000180025095e-35 -1.2089444276928629 -0.69903277033746203
decision_type=2 2 2 2 2 2 2 2 2 2 2 2 2 2 2 2 2 2 2 2 2 2 2 2 2 2 2 2 2 2
left_child=1 5 3 17 13 7 14 15 20 12 -6 22 -9 16 -4 -1 27 -2 -12 -17 -5 -10 -8 -19 -7 -15 -11 -3 -22 -13
right_child=2 4 6 8 10 24 11 9 21 26 18 29 -14 25 -16 19 -18 23 -20 -21 28 -23 -24 -25 -26 -27 -28 -29 -30 -31
leaf_value=-0.04856800961050764 0.024002746121060767 -0.017279601283811733 0.025067792106115094 -0.00081781993439632476 -0.002803852562246671 -0.012302813766056244 0.020665490521134533 -0.030535587889620922 -0.00071650809670206197 -0.018267026455916244 0.010971263131383633 0.04110477117980383 -0.00030599474645199323 0.0026765698185213611 0.036486768765212979 -0.021266064831982085 0.0060793710204286389 0.007513378695334522 0.028719818947030441 -0.036478637243922994 -0.026645263646037417 0.006806603561380649 0.011330095814676722 0.016541323885285987 0.0041519695018673386 -0.0062098160979291959 -0.0084816946814032426 -0.0089454695499877942 -0.011239130363658777 0.024253147454826457
leaf_weight=35525.036855310202 54100.190473124385 115312.15717746317 150814.83005863428 34905.346351698041 52709.475082308054 106640.07881063223 71081.979154676199 176180.16325163841 163937.56521122158 139217.44320079684 76919.634128600359 16957.414436802268 11154.68867303431 81862.475423038006 114451.76442791522 35973.886675938964 17674.860385775566 108005.5469198972 26032.461909517646 87793.055783346295 20966.653801649809 176549.26261655986 179202.98048037291 106988.10842508078 16496.461987614632 111206.12266628444 53003.518511250615 95526.436221823096 55582.896317124367 47690.158317685127
leaf_count=183362 245644 491320 703990 148531 221636 464854 316311 809028 686604 634779 322429 81911 46202 337430 574709 157487 74133 457991 111426 451367 93894 743244 775996 467308 71487 478657 241843 400601 239119 217829
internal_value=0 -0.0137825 0.0131119 0.00520375 -0.00306165 -0.0231309 0.0229397 -0.0261091 -0.000282507 -0.0220675 0.00927503 0.0169973 -0.0287356 -0.00761675 0.0299946 -0.0357393 -0.0119889 0.0144179 0.0154592 -0.032057 -0.0108736 0.00318438 0.0139814 0.012006 -0.0100984 -0.00244193 -0.0155688 -0.0135036 -0.0154588 0.0286735
internal_weight=0 1.23923e+06 1.30123e+06 721036 577244 661984 580199 538848 451942 379556 155662 314933 187335 421582 265267 159292 228513 269094 102952 123767 111455 340487 250285 214994 123137 193069 192221 210839 76549.6 64647.6
internal_count=11251122 5498041 5753081 3082335 2437632 3060409 2670746 2524068 1911392 1731852 655491 1392047 855230 1782141 1278699 792216 966054 1170943 433855 608854 481544 1429848 1092307 925299 536341 816087 876622 891921 333013 299740
is_linear=0
shrinkage=0.05


Tree=23
num_leaves=31
num_cat=0
split_feature=30 3 3 3 3 3 3 4 4 30 30 3 30 3 4 30 30 30 4 30 30 2 3 30 4 4 3 4 3 3
split_gain=174533 71063.4 66505.1 20098.7 17848.4 13159 11909.9 10598.3 7321.73 6506.11 5931.17 5350.35 5114.62 4534.21 4237.75 3941.66 3847.08 3833.38 3479.32 3122.75 3062.25 2749.09 2711.3 2580.58 2223.96 2010.27 1996.81 1802.24 1771.16 1743.75
threshold=1.0000000180025095e-35 0.02082751862169686 0.215647953804295 -0.67594753595468327 0.74548723834065156 -0.67594753595468327 1.1826613554643253 0.021042800636846902 0.91947356645029321 -0.82447069075817547 -0.82447069075817547 -1.4962459868664115 0.92778281344026259 1.4774124201165861 -0.72123995416727571 0.92778281344026259 -1.2625340668077849 -1.7005974428573947 -0.13515625241302512 -1.7005974428573947 -0.38640731470856599 -0.018707460437189155 0.64818238038014764 -1.2625340668077849 -0.84594544177066422 -0.55333993710736917 -1.6659830276094967 1.0860843505759987 1.647193720494313 -0.24499645710076806
decision_type=2 2 2 2 2 2 2 2 2 2 2 2 2 2 2 2 2 2 2 2 2 2 2 2 2 2 2 2 2 2
left_child=1 5 3 7 10 8 15 24 20 16 17 27 14 19 29 22 -7 -3 -18 -6 -1 -16 -4 -10 -2 -11 -25 -9 -8 -5
right_child=2 4 6 12 13 9 28 11 23 25 -12 -13 -14 -15 21 -17 18 -19 -20 -21 -22 -23 -24 26 -26 -27 -28 -29 -30 -31
leaf_value=-0.04403087703724369 -0.034213488756696019 -0.034087019838772853 0.015112104864901303 -0.010966585859488988 -0.022105761122274085 -0.043866892184937896 0.032376701687819552 -0.021808390994839399 -0.046150523072086842 -0.019895316610475684 0.0010766541745807269 0.0042442551996587485 0.026378091385497196 0.022247566080806833 0.006148593194811848 0.03529610078841338 -0.029350317329078127 -0.011290892076875666 -0.01599707225338377 0.0070561289483418556 -0.030030742963342707 0.015534968359849159 0.02309828156868508 -0.031108626197420022 -0.017265342386425141 -0.0038103350524415179 -0.014316131063088405 -0.0049822721624961409 0.043652322144396787 0.0029863974655389876
leaf_weight=132296.28538909554 27616.933043017983 20177.884557813406 225151.11476267874 36742.499268084764 9722.8970937728882 22056.283421382308 96531.663386315107 32305.51157720387 10378.080917611718 27204.890629947186 104355.58457744122 126814.3906878382 36648.093324765563 52044.083376675844 216279.72458294034 40005.352346479893 86888.162247434258 214314.01098577678 111232.52271972597 164397.43209424615 55422.225295931101 122014.59507285058 201294.05598908663 26004.994684621692 64712.86937636137 67920.550835430622 55452.714228525758 31365.086237609386 54486.449992895126 57330.378889098763
leaf_count=703154 116480 98839 984289 149648 42348 121167 487306 137230 61466 115310 423522 520510 166435 226250 901389 202857 404610 900319 505570 676071 257089 509068 929553 133687 270518 281905 265361 131220 292111 235840
internal_value=0 -0.0142782 0.0120817 0.00209563 -0.00157929 -0.02634 0.0242408 -0.00843215 -0.0342377 -0.0193376 -0.00883952 -0.00169341 0.00844384 0.00929824 0.0069237 0.0202896 -0.0240585 -0.0132525 -0.0218533 0.00542771 -0.0398975 0.00953404 0.0188818 -0.0226688 -0.0223348 -0.00841049 -0.0196771 -0.0135196 0.0364449 -0.00246329
internal_weight=0 1.15987e+06 1.3693e+06 751830 565012 594857 617469 282815 279554 315302 338847 190485 469015 226164 432367 466451 220177 234492 198121 174120 187719 338294 426445 91835.8 92329.8 95125.4 81457.7 63670.6 151018 94072.9
internal_count=11251122 5216668 6034454 3138338 2367349 2849319 2896116 1175958 1420757 1428562 1422680 788960 1962380 944669 1795945 2116699 1031347 999158 910180 718419 960243 1410457 1913842 460514 386998 397215 399048 268450 779417 385488
is_linear=0
shrinkage=0.05


Tree=24
num_leaves=31
num_cat=0
split_feature=28 1 3 3 3 28 3 28 28 3 28 1 28 28 3 3 28 28 3 1 3 3 1 28 3 1 28 3 1 3
split_gain=166174 84804.3 41913.9 28017.2 23324.2 17051.5 12805.2 11098.7 9435.16 7791.73 6690.73 6518.75 5662.33 4750.17 3798.82 3430.23 3304.57 3241.29 2982.94 2444.27 2135.33 2002.18 1777.05 1767.06 1613.77 1374.33 1304.48 1200.11 1196.11 1187.84
threshold=0.34995187285444701 0.086323594080898028 0.2302547463791936 -0.54823395372518779 0.59335977358401359 -0.76494852692255899 -0.67594753595468327 -0.73970832877410075 -0.82701651507992813 1.1933461695485608 -0.71210656627646218 0.37775889897999415 0.95274234350254006 0.99014369096001598 -1.3440371788796681 1.3092542838662264 0.95274234350254006 -1.5022405295779049 0.29512842160817199 1.1711105623164235 1.4774124201165861 -1.5373087402633698 0.60443080279040251 -1.5022405295779049 -0.16296479286922821 0.90666000787094714 -1.475520606895514 -2.3391377227028896 1.1711105623164235 0.5354202457935141
decision_type=2 2 2 2 2 2 2 2 2 2 2 2 2 2 2 2 2 2 2 2 2 2 2 2 2 2 2 2 2 2
left_child=1 3 6 8 7 17 11 23 26 13 20 16 22 28 -10 -12 21 -5 -7 24 -6 -2 -8 -3 -9 -14 -1 -18 -4 -19
right_child=2 4 9 5 10 18 12 19 14 -11 15 -13 25 -15 -16 -17 27 29 -20 -21 -22 -23 -24 -25 -26 -27 -28 -29 -30 -31
leaf_value=-0.049218839015144601 -0.024030634875336396 -0.028805101315113664 0.016863624741312852 -0.034844121560379269 -0.0025663853121989412 -0.0098692130805332432 0.0046474421526027853 -0.0069947061534469919 -0.035519227279305031 0.038220079631938131 0.013610800946920699 0.014483885202642066 0.017958219322225719 0.030676121528501122 -0.021582337961034051 0.027764246304737596 -0.02233269847566427 -0.023468780656840056 0.00090469576204979659 0.012713322594861881 0.015890832752335583 -0.0088254539161270341 0.015338884028643347 -0.015023451547543535 0.00094341510108335899 0.031370007809409253 -0.038854488520630164 0.0034818597513846042 0.026862503300262408 -0.010416494116978196
leaf_weight=57755.384450525045 30624.032914057374 33473.75632481277 178332.28675141931 66295.697825208306 70470.001197054982 192523.55586349964 163842.04697021842 105271.16390803456 74527.807433515787 113458.69111686945 142197.30287539959 40529.852915883064 112594.18611241877 129296.47043219209 142158.68932932615 61248.989409551024 4898.141764074564 82685.54536126554 96419.968081012368 30756.818947598338 20150.952477186918 73882.956462711096 50952.313789844513 76219.408828139305 163404.31890238822 23003.696796998382 64010.946855455637 55696.347251817584 35937.098365351558 22087.718602091074
leaf_count=346750 131795 155555 789380 340029 287349 810634 667860 432844 366340 607705 604364 169413 487433 641340 643407 286754 20278 385622 393198 128113 84564 302142 220041 326617 667966 109452 350664 227362 174733 91418
internal_value=0 -0.0105641 0.0156415 -0.0217148 0.00209738 -0.013681 0.00642099 -0.00562287 -0.032634 0.0268594 0.0128383 -0.00348391 0.0122338 0.0231077 -0.0263758 0.0178718 -0.00789473 -0.0261919 -0.00627398 -0.00063841 0.00153787 -0.0132811 0.00718361 -0.0192291 -0.00216686 0.0202335 -0.0437705 0.00139511 0.0185406 -0.0207172
internal_weight=0 1.50166e+06 1.01305e+06 798465 703193 460012 556024 409125 338453 457025 294067 205631 350392 343566 216686 203446 165101 171069 288944 299432 90621 104507 214794 109693 268675 135598 121766 60594.5 214269 104773
internal_count=11251122 6702188 4548934 3728062 2974126 2020901 2335776 1711095 1707161 2213158 1263031 850990 1484786 1605453 1009747 891118 681577 817069 1203832 1228923 371913 433937 887901 482172 1100810 596885 697414 247640 964113 477040
is_linear=0
shrinkage=0.05


Tree=25
num_leaves=31
num_cat=0
split_feature=5 3 3 29 29 29 15 3 15 3 7 29 29 3 7 7 29 15 29 3 3 5 3 3 3 7 3 5 7 5
split_gain=140992 27420.5 23955.1 15547.9 9140.99 7017.47 5768.38 5447.25 3830.84 3312.41 3126.88 2915.84 2407.85 2299.04 2154.62 1906.55 1512.41 1495.66 1456.01 1432.11 1362.83 1241.23 1202.74 1184.07 1168.48 1011.21 948.31 1064.71 934.411 896.024
threshold=0.48948988291839207 0.99083779763980051 -0.92000143158074388 -0.28101648882894209 -0.28101648882894209 -0.28101648882894209 1.0000000180025095e-35 -1.6991654403931415 1.0000000180025095e-35 1.7708212766969065 -0.61855846060990671 -0.27315392570100472 -1.3091146436327534 1.5877249024339448 -0.32247561949728903 -0.32247561949728903 -1.2941665653211982 1.0000000180025095e-35 0.46543870238664736 0.52970671474180919 0.51040524463209669 -0.85762345203478108 -0.50398926794155707 -2.4858950130827986 0.61088057270486884 -0.61855846060990671 -0.45689678917657034 -0.85762345203478108 -0.61855846060990671 -2.2047367869879539
decision_type=2 2 2 2 2 2 2 2 2 2 2 2 2 2 2 2 2 2 2 2 2 2 2 2 2 2 2 2 2 2
left_child=2 3 7 10 12 13 15 23 14 18 -2 28 -4 25 -5 -6 -12 -13 -7 -16 -10 -17 -14 -1 -18 -3 -8 -28 -9 -25
right_child=1 5 4 8 6 9 26 11 20 -11 16 17 22 -15 19 21 24 -19 -20 -21 -22 -23 -24 29 -26 -27 27 -29 -30 -31
leaf_value=-0.039566775045419368 0.023374014550168545 0.035971820522436901 0.0071146647789223708 0.0063708462489934607 -0.0073846007665948152 0.018732952429699818 -0.0091978013025259941 -0.0031589878797959208 0.003518393959405894 0.031501297238047947 0.020651557135154697 -0.026245304175447893 -0.0078404715097867544 0.041489302918036694 -0.0066465909664484638 -0.014470355822197134 0.0083440789233082419 -0.016391430663099681 0.0094488564237919376 0.00081189589396428701 0.011563362743013237 -0.021521654420617375 -0.00079979294268190705 -0.011853480519983908 0.015783406877172678 0.024890121889787953 0.0035586212680083539 -0.0062016408115134454 -0.014477833120466575 -0.029828552150046501
leaf_weight=31547.444392934442 85756.621437206864 27767.581533700228 71537.678520649672 67594.4091476053 53630.721365466714 94004.533146396279 73856.165961369872 23244.677919596434 123507.70410865545 34733.379684746265 47182.808944880962 104278.48101496696 92095.239423021674 42552.787017717957 158728.18020166457 133305.90836599469 156881.12220653892 61056.949531033635 76677.207512587309 108253.62186610699 91746.958930179477 117351.17354759574 177692.32426859438 7596.0519947558641 79546.521150767803 79603.339563697577 49795.890033915639 63664.700262159109 84581.399784341455 79441.063094481826
leaf_count=161369 409377 148129 302328 290253 236339 436153 324862 97771 525619 170182 219472 531185 388706 234101 682246 629949 678563 282150 330863 456902 397616 543349 743388 37809 357213 391239 212073 272422 367208 392286
internal_value=0 0.0116338 -0.0121226 0.00707399 -0.00732688 0.0234293 -0.0116914 -0.0223193 0.00174413 0.0174264 0.0150079 -0.0184346 -0.00104071 0.031654 -0.00160345 -0.0159409 0.0124782 -0.0226064 0.0145622 -0.00362238 0.00694737 -0.0177716 -0.00320322 -0.0312679 0.0108471 0.027756 -0.00478834 -0.00191803 -0.0120378 -0.0282598
internal_weight=0 1.27454e+06 1.22468e+06 919198 832930 355339 491605 391746 549831 205415 369367 273162 341325 149924 334576 304288 283610 165335 170682 266982 215255 250657 269788 118585 236428 107371 187317 113461 107826 87037.1
internal_count=11251122 5727928 5523194 4017261 3653416 1710667 2218994 1869778 2352636 937198 1664625 1278314 1434422 773469 1429401 1409637 1255248 813335 767016 1139148 923235 1173298 1132094 591464 1035776 539368 809357 484495 464979 430095
is_linear=0
shrinkage=0.05


Tree=26
num_leaves=31
num_cat=0
split_feature=28 5 5 28 28 28 28 0 3 3 0 3 0 3 0 3 3 0 0 4 4 28 4 0 1 1 3 4 4 28
split_gain=146379 71108.8 48932.6 21553.7 17717.8 12294.5 11033.4 8491.76 8182.85 6422.32 6147.48 5730.36 5227.1 4861.8 3770.02 3254.52 3192.22 2921.91 2854.94 2716.06 2200.28 2132.91 1993.26 1965.49 1931.38 1920.18 1725.39 1621.09 1582.99 1571.51
threshold=-0.22000096419199666 0.48948988291839207 1.0000000180025095e-35 0.68066864585037024 0.7421201689494793 -1.0253823780373743 -1.1856086728054536 1.0000000180025095e-35 1.2023907709174504 -1.2647442810298355 1.0000000180025095e-35 1.0497934927784982 1.0000000180025095e-35 1.0593913595882298 1.0000000180025095e-35 -1.1248826292456762 -1.2406357321933124 1.0000000180025095e-35 1.0000000180025095e-35 -0.41334391127785253 0.75471197066198437 1.3410645746800285 0.34023714682287926 1.0000000180025095e-35 1.025392909866875 0.60443080279040251 1.2222965597359443 -0.95767900426442265 0.91947356645029321 -2.1818124034388355
decision_type=2 2 2 2 2 2 2 2 2 2 2 2 2 2 2 2 2 2 2 2 2 2 2 2 2 2 2 2 2 2
left_child=2 3 5 7 8 18 14 9 17 20 16 23 15 21 29 28 -5 -3 -1 -11 -2 -6 -17 -8 -12 -9 -16 -18 -7 -4
right_child=1 4 6 10 13 12 11 25 -10 19 24 -13 -14 -15 26 22 27 -19 -20 -21 -22 -23 -24 -25 -26 -27 -28 -29 -30 -31
leaf_value=-0.041409464585770786 -0.03704015026408717 0.0047611858670201478 -0.039974397613142768 -0.010954971641685346 0.02164707164692151 -0.043451300440672837 -0.0079312197387513047 -0.0035017732406443396 0.026862264380314579 -0.016923198942053502 0.013737173484765684 0.013652611023912523 -0.010852562780326315 0.037721357437632629 -0.012442211849999258 -0.025840481325100917 -0.0056023509755609401 0.013423591576591721 -0.027028771107702604 -0.0057258102793821073 -0.017715294946959094 0.032751471902918564 -0.012322919341868691 0.0013666961321364527 0.031120168395391629 0.0080622782436482049 0.0064888356116177132 0.0083173933210904504 -0.024668121517495725 -0.02094030132231026
leaf_weight=139159.60783970356 34177.080289646983 155879.73110805452 13794.755235642195 37823.663406461477 185278.10540039837 31887.604567155242 103409.47232608497 128700.79893302917 89207.021524310112 91569.202945902944 120506.19838519394 68551.610689759254 85343.896023124456 92439.008959457278 54110.041855439544 89577.677329644561 26137.153965875506 259258.87010733783 45895.852258875966 132547.59708757699 25885.86359757185 56410.191170156002 39208.400210157037 126205.7264572829 18422.169466778636 49782.665043413639 15478.844864428043 104712.68963193893 17304.881645724177 50699.177522018552
